tree
version=v4
num_class=1
num_tree_per_iteration=1
label_index=0
max_feature_idx=87
objective=lambdarank
feature_names=Column_0 Column_1 Column_2 Column_3 Column_4 Column_5 Column_6 Column_7 Column_8 Column_9 Column_10 Column_11 Column_12 Column_13 Column_14 Column_15 Column_16 Column_17 Column_18 Column_19 Column_20 Column_21 Column_22 Column_23 Column_24 Column_25 Column_26 Column_27 Column_28 Column_29 Column_30 Column_31 Column_32 Column_33 Column_34 Column_35 Column_36 Column_37 Column_38 Column_39 Column_40 Column_41 Column_42 Column_43 Column_44 Column_45 Column_46 Column_47 Column_48 Column_49 Column_50 Column_51 Column_52 Column_53 Column_54 Column_55 Column_56 Column_57 Column_58 Column_59 Column_60 Column_61 Column_62 Column_63 Column_64 Column_65 Column_66 Column_67 Column_68 Column_69 Column_70 Column_71 Column_72 Column_73 Column_74 Column_75 Column_76 Column_77 Column_78 Column_79 Column_80 Column_81 Column_82 Column_83 Column_84 Column_85 Column_86 Column_87
feature_infos=[1:16.600000000000001] [0:1] [0:25.75] [0:15] [0:1] [0:1] [0:1] [0.25:1] [0.25:1] [0.10000000000000001:1] [0:1] [0:1] [0.22222222222222221:1] [0.59999999999999998:0.90000000000000002] [0:1] [0:14] [0:1] [0:1] [0:1] [0:1] [0:1] [0:1] [0:0.93900000000000006] [0:0.93900000000000006] [0.02:1] [0:0.96900000000000008] [0.34999999999999998:1] [0:1] [0.049787068367863944:0.71653131057378927] [0.55000000000000004:1] [0.02:0.94999999999999996] [0.29999999999999999:1] [0.30000000000000004:1] [0.65000000000000002:1] [0.5:1] [0:1] [0:1] [0:1] [0.29999999999999999:1] [0:0.93000000000000005] [0.25:0.99900000000000011] [0:1] [0.02:1] [0:1] [0:10] [0.72222222222222221:1] [0:1] [0:1] [0:1] [0:0.80000000000000004] [0:3] [0:13] [8:98] [0:1] [0.095890410958904104:1] [0:1] [0:0.95599999999999996] [0.27500000000000002:0.9544999999999999] [0.38495741367357278:0.94330626211475788] [0:0.92000000000000015] [0:1] [0.0044000000000000003:0.99999999999999989] [0.20000000000000001:0.86594556741329332] [0:0.34999999999999998] [0:14] [0:0.7857142857142857] [0:1] [0:5] [0:2] [0.10000000000000001:1] [0.20000000000000001:1] [0.25:1] [0.59999999999999998:1] [0.5:1] [0.5:1] [0:718] [0:1] [0:58.882352941176471] [0.29999999999999999:1] [0:1] [0:2] [0:1] [0:3] [5:23] [0:12] [0:13] [0:1] [0:1]
tree_sizes=1445 1254 356 854 356 567 656 568 653 441 572 662 676 747 778 572 660 886 1133 749 764 846 676 948 1060 1170 851 1162 1172 1366 1068 966 845 1084 1392 1046 1019 1267 1121 1108 1361 1255 1282 1044 1264 1562 1040 1262 1347 1066 1059 1020 1346 1290 1471 1148 974 1270 1058 1443 1588 1228 1765 962 1555 1683 1486 1447 1476 1790 1501 1073 1452 1337 1359 1278 1166 1153 1183 1294 1688 1726 1204 1611 1823 1692 1877 1472 1573 1388 1189 1405 1184 1263 1534 1487 1498 1606 1938 1258 1772 1543 1297 1507 1568 1623 2130 1181 1971 1683 1185 2299 1799 1557 1794 1708 1214 2127 1775 1764 1718 1715 1810 2032 1659 2241 2212 2147 1557 1787 1690 2204 2541 1585 2546 1772 1455 997 1319 1832 1469 2351 2338 1648 1287 1740 2086 1948 2025 1507 2371 1851 2069 1948 2701 1743 2214 1870 2266 2053 2176 2552 1942 2197 2243 2169 1389 1550 1889 2589 1490 1265 1544 1965 2078 2298 1774 2489 1470 1979 1854 1190 2059 1657 1496 1290 2081 1280 1977 1809 2296 1727 1499 1555 1782 1451 2288 2170 1769 2161

Tree=0
num_leaves=12
num_cat=0
split_feature=37 24 7 47 47 15 87 63 40 11 60
split_gain=57.7729 31.5224 14.2921 8.12169 7.36049 3.48597 3.07106 2.93881 2.00479 1.17849 0.482427
threshold=0.36100000000000004 0.48250000000000004 0.55128205128205143 1.0000000180025095e-35 1.0000000180025095e-35 1.0000000180025095e-35 0.037248127066505231 0.16250000000000001 0.85150000000000003 0.23333333333333336 1.0000000180025095e-35
decision_type=2 2 2 2 2 2 2 2 2 2 2
left_child=1 2 6 -2 5 9 8 -7 -1 -3 -8
right_child=3 4 -4 -5 -6 7 10 -9 -10 -11 -12
leaf_value=-0.048734376638795693 0.053948878465742499 0.01485757854848546 0.033682369876304574 -0.023470775264415343 -0.031620040213739771 0.044983761479064875 0.01140704061340706 -0.010388330913849086 0.0076390779733822517 -0.014970848273428306 -0.01106875449385601
leaf_weight=21.46204027895693 13.740304011218537 1.454395770848347 1.5150126579901542 0.72464651128029878 1.2198762956140861 6.4158506629319163 0.53208747612370533 0.50500317113437621 0.23084829595973033 1.3149360434326807 0.91861814636285999
leaf_count=53457 10461 2489 1581 1992 2103 7018 524 1192 153 3850 3180
internal_value=0 -0.020557 -0.0389078 0.0486095 0.0204512 0.0296317 -0.0449822 0.0397632 -0.0476921 0 -0.000310167
internal_weight=50.0336 35.5687 24.6586 14.465 10.9101 9.69019 23.1436 6.92085 21.6929 2.76933 1.45071
internal_count=88000 75547 58895 12453 16652 14549 57314 8210 53610 6339 3704
is_linear=0
shrinkage=0.03


Tree=1
num_leaves=11
num_cat=0
split_feature=37 4 49 56 21 2 51 49 75 25
split_gain=169.658 7.49562 3.915 3.80623 2.33191 0.624872 0.0972835 0.0113874 0.0105796 0.00780826
threshold=0.36500000000000005 0.097456732798649234 0.70000000000000007 0.43230000000000007 0.15000000000000005 7.2083333333333348 3.5000000000000004 0.55000000000000016 211.50000000000003 0.72450000000000014
decision_type=2 2 2 2 2 2 2 2 2 2
left_child=4 -2 3 5 6 -3 8 -6 9 -1
right_child=1 2 -4 -5 7 -7 -8 -9 -10 -11
leaf_value=-0.054687325678655863 -0.027028860618312157 0.031728397719743576 -0.018421520604425961 0.052808268294122912 0.0071827919542099758 0.009005133224297546 0 0 0 0
leaf_weight=30.713895484049331 0.98157786646333889 31.315482830761539 0.51386716053821047 13.155000697588546 0.22784494076404271 2.5215332728002968 0.010977019641358221 0.053248238640662748 0.0079752401361464775 0.015308370089768597
leaf_count=75505 1995 9049 59 497 121 688 12 29 8 37
internal_value=0 0.0348186 0.0366892 0.0377257 -0.0537972 0.0304283 -0.0546278 0.00643802 -0.0546625 -0.0546721
internal_weight=79.5167 48.4875 47.5059 46.992 31.0292 33.837 30.7482 0.281093 30.7372 30.7292
internal_count=88000 12288 10293 10234 75712 9737 75562 150 75550 75542
is_linear=0
shrinkage=0.03


Tree=2
num_leaves=2
num_cat=0
split_feature=56
split_gain=265.238
threshold=0.43230000000000007
decision_type=2
left_child=-1
right_child=-2
leaf_value=-0.053345400826792067 0.051353024743393892
leaf_weight=41.740690512080619 43.39893565075181
leaf_count=87101 899
internal_value=0
internal_weight=85.1396
internal_count=88000
is_linear=0
shrinkage=0.03


Tree=3
num_leaves=7
num_cat=0
split_feature=56 4 62 62 48 62
split_gain=227.478 0.430745 0.145241 0.20119 0.00252552 0.00014133
threshold=0.43230000000000007 0.43656382740889788 0.42668490780555246 0.41044896881132853 0.69312556255625568 0.21745209220077158
decision_type=2 2 2 2 2 2
left_child=-1 4 3 5 -2 -3
right_child=1 2 -4 -5 -6 -7
leaf_value=-0.050596154752316033 0.0085933035326943678 0 0.048176811999805974 0.015284009742604104 0 -0.0016301301796175882
leaf_weight=40.390603742685926 0.63980019779410113 0.042683298932387426 41.648033165307424 0.55191901013313327 0.23565149365458637 0.28436737043375615
leaf_count=87101 40 8 664 22 52 113
internal_value=0 0.0471642 0.0477009 0.00991575 0.00795954 -0.00157353
internal_weight=83.7931 43.4025 42.527 0.87897 0.875452 0.327051
internal_count=88000 899 807 143 92 121
is_linear=0
shrinkage=0.03


Tree=4
num_leaves=2
num_cat=0
split_feature=56
split_gain=210.211
threshold=0.43230000000000007
decision_type=2
left_child=-1
right_child=-2
leaf_value=-0.048604372117876729 0.045080733165165351
leaf_weight=40.548228415078484 43.795754536018649
leaf_count=87101 899
internal_value=0
internal_weight=84.344
internal_count=88000
is_linear=0
shrinkage=0.03


Tree=5
num_leaves=4
num_cat=0
split_feature=56 77 77
split_gain=191.79 0.708089 0.396988
threshold=0.43230000000000007 22.677083333333339 20.972222222222225
decision_type=2 2 2
left_child=-1 2 -2
right_child=1 -3 -4
leaf_value=-0.046778057548580873 -0.0085071390902753882 0.043152812009583486 0.013752669844526952
leaf_weight=40.295986984085175 0.24222002642636553 43.48703195006965 0.64139147341484204
leaf_count=87101 251 630 18
internal_value=0 0.042577 0.00478112
internal_weight=84.6666 44.3706 0.883611
internal_count=88000 899 269
is_linear=0
shrinkage=0.03


Tree=6
num_leaves=5
num_cat=0
split_feature=56 37 37 67
split_gain=178.03 0.0906429 0.48394 0.0019825
threshold=0.43230000000000007 0.38700000000000007 0.35700000000000004 2.5000000000000004
decision_type=2 2 2 2
left_child=-1 2 3 -2
right_child=1 -3 -4 -5
leaf_value=-0.045231394891538386 -0.0070606495910357312 0.041090736710137285 0.017886874005217334 0
leaf_weight=40.248579402203177 0.25808872011839301 43.850977003297885 0.7671578249137383 0.023745165541185997
leaf_count=87101 324 529 17 29
internal_value=0 0.0406478 0.00964915 -0.00689473
internal_weight=85.1485 44.9 1.04899 0.281834
internal_count=88000 899 370 353
is_linear=0
shrinkage=0.03


Tree=7
num_leaves=4
num_cat=0
split_feature=56 24 37
split_gain=165.581 0.337894 0.673067
threshold=0.43230000000000007 0.67250000000000021 0.8670000000000001
decision_type=2 2 2
left_child=-1 2 -2
right_child=1 -3 -4
leaf_value=-0.043826143909320527 -0.0096060048923310836 0.039528019899141703 0.018429124312482528
leaf_weight=40.112432787213038 0.27355423237895493 43.866384130036749 1.2005261250305919
leaf_count=87101 222 664 13
internal_value=0 0.0388818 0.0102341
internal_weight=85.4529 45.3405 1.47408
internal_count=88000 899 235
is_linear=0
shrinkage=0.03


Tree=8
num_leaves=5
num_cat=0
split_feature=51 21 65 16
split_gain=153.501 2.80486 0.831814 0.0234145
threshold=1.5000000000000002 0.15000000000000005 0.19375000000000003 0.19562500000000002
decision_type=2 2 2 2
left_child=1 -1 3 -2
right_child=2 -3 -4 -5
leaf_value=-0.04267325356408052 0 0.0089277391025098258 0.038328298298621749 0.005315312091482078
leaf_weight=40.172574963027728 0.35629230242920928 0.55045045782753632 44.129490591360081 0.6903179278542666
leaf_count=86972 25 40 914 49
internal_value=0 -0.0417066 0.0376846 0.00361075
internal_weight=85.8991 40.723 45.1761 1.04661
internal_count=88000 87012 988 74
is_linear=0
shrinkage=0.03


Tree=9
num_leaves=3
num_cat=0
split_feature=51 80
split_gain=149.78 0.3886
threshold=1.5000000000000002 1.5000000000000002
decision_type=2 2
left_child=1 -1
right_child=-2 -3
leaf_value=-0.041624200389528625 0.036701265643355324 0
leaf_weight=40.485123657352233 45.975863370436855 0.072027497895759462
leaf_count=87002 988 10
internal_value=0 -0.0414868
internal_weight=86.533 40.5572
internal_count=88000 87012
is_linear=0
shrinkage=0.03


Tree=10
num_leaves=4
num_cat=0
split_feature=56 24 24
split_gain=140.924 0.549048 0.235975
threshold=0.43230000000000007 0.75750000000000017 0.67250000000000021
decision_type=2 2 2
left_child=-1 2 -2
right_child=1 -3 -4
leaf_value=-0.040600064936102978 -0.006417775720325803 0.035732445131805304 0.010456176601245624
leaf_weight=40.195091269179102 0.21707011171383683 45.517180915900099 0.73693421756615862
leaf_count=87101 235 619 45
internal_value=0 0.0352324 0.00376192
internal_weight=86.6663 46.4712 0.954004
internal_count=88000 899 280
is_linear=0
shrinkage=0.03


Tree=11
num_leaves=5
num_cat=0
split_feature=56 24 24 62
split_gain=133.482 0.353992 0.314694 0.00530923
threshold=0.43230000000000007 0.86250000000000016 0.75250000000000006 0.77584420170327928
decision_type=2 2 2 2
left_child=-1 2 3 -2
right_child=1 -3 -4 -5
leaf_value=-0.039686624051904096 -0.0067375160821014505 0.034589534058850152 0.012914961256534262 0
leaf_weight=40.020029070263263 0.24534537948784307 45.612702785838337 0.83995007065823302 0.031217703595757484
leaf_count=87101 275 580 40 4
internal_value=0 0.034108 0.00596962 -0.00636718
internal_weight=86.7492 46.7292 1.11651 0.276563
internal_count=88000 899 319 279
is_linear=0
shrinkage=0.03


Tree=12
num_leaves=5
num_cat=0
split_feature=56 68 37 60
split_gain=126.699 0.290317 0.372895 0.00219698
threshold=0.43230000000000007 0.29166666666666669 0.54300000000000015 0.38333333333333336
decision_type=2 2 2 2
left_child=-1 2 -2 -4
right_child=1 -3 3 -5
leaf_value=-0.038864930694592952 -0.0052364611026545198 0.033788704930242511 0.0017146610924261981 0.017703996468928909
leaf_weight=39.797917720738042 0.26075560163007994 44.779477767231583 0.70708550981362339 1.228530256426893
leaf_count=87101 276 568 30 25
internal_value=0 0.0330501 0.0111937 0.0154588
internal_weight=86.7738 46.9758 2.19637 1.93562
internal_count=88000 899 331 55
is_linear=0
shrinkage=0.03


Tree=13
num_leaves=6
num_cat=0
split_feature=51 75 80 16 65
split_gain=121.331 0.535349 0.320061 0.103695 0.00600357
threshold=1.5000000000000002 90.500000000000014 1.5000000000000002 0.27687500000000004 0.14835164835164838
decision_type=2 2 2 2 2
left_child=2 3 -1 4 -2
right_child=1 -3 -4 -5 -6
leaf_value=-0.038151275049219752 0 0.03292849788283897 0 0.0085408514447271964 -0.0030235440951087698
leaf_weight=39.737427854459384 0.11355817656476475 45.680231236576219 0.070001658517866328 1.0155398990100364 0.16431919392198324
leaf_count=87002 26 823 10 71 68
internal_value=0 0.0323456 -0.0380258 0.00506953 -0.00202513
internal_weight=86.7811 46.9736 39.8074 1.29342 0.277877
internal_count=88000 988 87012 165 94
is_linear=0
shrinkage=0.03


Tree=14
num_leaves=6
num_cat=0
split_feature=56 75 37 37 60
split_gain=115.8 0.621944 0.0510938 0.0439616 0.0214232
threshold=0.43230000000000007 95.500000000000014 0.42500000000000004 0.65300000000000014 0.39374999999999999
decision_type=2 2 2 2 2
left_child=-1 2 -2 -4 -5
right_child=1 -3 3 4 -6
leaf_value=-0.037372377256866915 -0.0026587786072297392 0.031942051420252394 0.0074862925202872493 -0.0036577636215041594 0.0017624014989351144
leaf_weight=39.517082820038922 0.11931621548137528 46.227226018789224 0.45255166586139239 0.16926499959663488 0.17093781795119867
leaf_count=87101 124 713 16 37 9
internal_value=0 0.031455 0.00140423 0.00483111 0
internal_weight=86.6564 47.1393 0.912071 0.792754 0.340203
internal_count=88000 899 186 62 46
is_linear=0
shrinkage=0.03


Tree=15
num_leaves=4
num_cat=0
split_feature=56 75 24
split_gain=110.532 0.379762 0.0952348
threshold=0.43230000000000007 98.500000000000014 0.99750000000000016
decision_type=2 2 2
left_child=-1 2 -2
right_child=1 -3 -4
leaf_value=-0.036747741386138726 -0.003711006753917544 0.030988870268157175 0.006918172096561581
leaf_weight=39.187638342158607 0.15787321768584561 46.424456111315521 0.65817729824630078
leaf_count=87101 162 686 51
internal_value=0 0.0306134 0.00229877
internal_weight=86.4281 47.2405 0.816051
internal_count=88000 899 213
is_linear=0
shrinkage=0.03


Tree=16
num_leaves=5
num_cat=0
split_feature=51 16 30 52
split_gain=105.368 0.276344 0.104913 0.00234093
threshold=1.5000000000000002 0.29937500000000006 0.65500000000000014 21.267857142857146
decision_type=2 2 2 2
left_child=-1 2 -2 -4
right_child=1 -3 3 -5
leaf_value=-0.036164527537617785 0.010598292913352469 0.030356181700747768 0 -0.0012996673364960355
leaf_weight=38.757645544188563 1.2973540036273323 45.574833116606897 0.087469655816675984 0.30420600433717482
leaf_count=87012 113 793 13 69
internal_value=0 0.0297907 0.0078029 -0.000262842
internal_weight=86.0215 47.2639 1.68903 0.391676
internal_count=88000 988 195 82
is_linear=0
shrinkage=0.03


Tree=17
num_leaves=7
num_cat=0
split_feature=51 52 2 16 60 60
split_gain=101.379 0.522762 0.362163 0.184142 0.338605 0.117147
threshold=1.5000000000000002 17.071428571428573 2.2916666666666674 0.32187500000000008 0.30625000000000008 0.43541666666666673
decision_type=2 2 2 2 2 2
left_child=-1 -2 5 4 -4 -3
right_child=1 2 3 -5 -6 -7
leaf_value=-0.035623986130562744 0.00025391566417923029 -0.0040098909946613311 -0.0058984072472631323 0.030490157584084958 0.013677957595694122 0.007693855978542284
leaf_weight=38.530949294188758 0.78042469716092355 0.2157203714014021 0.27319760552199923 44.014912782309693 1.3232898530150121 0.67576736019691452
leaf_count=87012 26 76 149 643 71 23
internal_value=0 0.0291664 0.0295729 0.0299665 0.00819107 0.00265305
internal_weight=85.8143 47.2833 46.5029 45.6114 1.59649 0.891488
internal_count=88000 988 962 863 220 99
is_linear=0
shrinkage=0.03


Tree=18
num_leaves=10
num_cat=0
split_feature=56 68 0 71 0 75 75 28 2
split_gain=98.3604 0.965676 0.111659 0.098451 0.238262 0.0385228 0.0380982 0.00994302 0.00216131
threshold=0.43230000000000007 0.29166666666666669 5.4500000000000011 0.87250000000000016 3.1500000000000008 124.50000000000001 217.50000000000003 0.7125726145535114 4.541666666666667
decision_type=2 2 2 2 2 2 2 2 2
left_child=-1 2 5 4 -3 8 7 -4 -2
right_child=1 3 6 -5 -6 -7 -8 -9 -10
leaf_value=-0.03513090367633049 -0.0013346596360802147 0.018081722276962559 -0.008582059486448447 0.030180054412954446 4.5618751472287801e-05 0.007385604427525904 0 0 0
leaf_weight=38.444068980319571 0.091991424385922782 1.6859631518600502 0.26406150092952885 43.06642532103433 1.3369099805713629 0.56378624839999247 0.078865731367841363 0.026966474950313568 0.078340963751543313
leaf_count=87101 73 16 210 523 29 37 3 1 7
internal_value=0 0.0287531 0 0.0294037 0.0128449 0.00540335 -0.00603319 -0.00807353 0
internal_weight=85.6374 47.1933 1.10401 46.0893 3.02287 0.734119 0.369894 0.291028 0.170332
internal_count=88000 899 331 568 45 117 214 211 80
is_linear=0
shrinkage=0.03


Tree=19
num_leaves=6
num_cat=0
split_feature=51 16 60 75 16
split_gain=97.6644 0.638108 0.0741045 0.0237054 0.000566294
threshold=1.5000000000000002 0.32187500000000008 0.30625000000000008 104.50000000000001 0.31937500000000008
decision_type=2 2 2 2 2
left_child=-1 2 4 -4 -2
right_child=1 -3 3 -5 -6
leaf_value=-0.034848708389810239 -0.0043980691213304094 0.029232866292950001 0 0.0065793338991502262 0
leaf_weight=38.661628476453188 0.19291608665662252 46.16551826952491 0.17394640710699605 0.51398326913476922 0.035233750124461949
leaf_count=87012 162 733 62 25 6
internal_value=0 0.0287461 0.00019486 0.00511733 -0.00428639
internal_weight=85.7432 47.0816 0.91608 0.68793 0.22815
internal_count=88000 988 255 87 168
is_linear=0
shrinkage=0.03


Tree=20
num_leaves=6
num_cat=0
split_feature=51 16 30 30 56
split_gain=93.1478 0.414296 0.469856 0.229405 0.0265834
threshold=1.5000000000000002 0.32750000000000007 0.32500000000000007 0.38500000000000006 0.52208750000000015
decision_type=2 2 2 2 2
left_child=-1 3 -3 -2 -5
right_child=1 2 -4 4 -6
leaf_value=-0.03434134804846007 0.010645586707545264 0.0057990616129233704 0.029172565410788276 -0.0067943607263035279 0
leaf_weight=38.15407801506808 0.83366691099945345 1.6890626028907707 44.033535721373482 0.30210047509899596 0.15225639738491736
leaf_count=87012 60 70 652 188 18
internal_value=0 0.0280064 0.0285159 0.00404985 -0.00498798
internal_weight=85.1647 47.0106 45.7226 1.28802 0.454357
internal_count=88000 988 722 266 206
is_linear=0
shrinkage=0.03


Tree=21
num_leaves=7
num_cat=0
split_feature=51 16 30 30 28 3
split_gain=90.4868 0.765454 0.222056 0.0884407 0.0313391 0.00416849
threshold=1.5000000000000002 0.33062500000000006 0.37500000000000006 0.38500000000000006 0.33847064835204549 1.0000000180025095e-35
decision_type=2 2 2 2 2 2
left_child=-1 3 4 5 -3 -2
right_child=1 2 -4 -5 -6 -7
leaf_value=-0.033976195475228461 0 0 0.028723545595632286 -0.0061307542087281723 0.010133219006335134 0.0050395325469750184
leaf_weight=37.925119982734032 0.13292141619603981 0.39782260563515537 44.017445948855311 0.32295583702216391 1.7201820243790278 0.32392106272163801
leaf_count=87012 47 41 599 211 73 17
internal_value=0 0.0276014 0.0280902 0 0.00897414 0.00452819
internal_weight=84.8404 46.9152 46.1355 0.779798 2.118 0.456842
internal_count=88000 988 713 275 114 64
is_linear=0
shrinkage=0.03


Tree=22
num_leaves=5
num_cat=0
split_feature=56 24 77 56
split_gain=87.371 0.520429 0.112553 0.0354992
threshold=0.43230000000000007 0.87250000000000016 24.258333333333336 0.58828541666666678
decision_type=2 2 2 2
left_child=-1 2 -2 -3
right_child=1 3 -4 -5
leaf_value=-0.033564443593952317 -0.0052026007267813243 0.022615530862701509 0.0063229110938888503 0.03148751707540276
leaf_weight=37.594108907753252 0.22241726423089758 23.39128937960777 0.74069374904502183 22.378181632841006
leaf_count=87101 265 397 62 175
internal_value=0 0.0271385 0.000838721 0.027598
internal_weight=84.3267 46.7326 0.963111 45.7695
internal_count=88000 899 327 572
is_linear=0
shrinkage=0.03


Tree=23
num_leaves=8
num_cat=0
split_feature=51 60 16 16 46 30 46
split_gain=84.1062 1.43997 0.563994 0.318727 0.112903 0.0379784 1.39658e-05
threshold=1.5000000000000002 0.49375000000000002 0.32187500000000008 0.70687500000000014 0.14365079365079367 0.38500000000000006 0.1297058823529412
decision_type=2 2 2 2 2 2 2
left_child=-1 2 5 4 -4 6 -2
right_child=1 -3 3 -5 -6 -7 -8
leaf_value=-0.033131052886145186 0.00010749512326263529 0.031018588378408769 0.0015878309613035575 0 0.019998306841161106 -0.0070051511754193668 0
leaf_weight=37.362275246421632 0.087754505628256818 29.308337562812085 0.85490963597113179 1.002948140259831 15.46739299289038 0.2434319331223378 0.13170944133889861
leaf_count=87012 2 201 23 21 490 195 56
internal_value=0 0.0264257 0.0174504 0.0183968 0.0193545 -0.00428315 0
internal_weight=84.4588 47.0965 17.7881 17.3253 16.3223 0.462896 0.219464
internal_count=88000 988 787 534 513 253 58
is_linear=0
shrinkage=0.03


Tree=24
num_leaves=9
num_cat=0
split_feature=56 68 56 16 77 16 56 1
split_gain=84.9861 1.33164 0.559153 0.313922 0.0894059 0.0338988 0.0322275 0.0176968
threshold=0.43230000000000007 0.29166666666666669 0.58828541666666678 0.34312500000000007 27.513157894736846 0.32187500000000008 0.58828541666666678 0.47249999999999998
decision_type=2 2 2 2 2 2 2 2
left_child=-1 4 3 5 6 -3 7 -2
right_child=1 2 -4 -5 -6 -7 -8 -9
leaf_value=-0.032889919651002332 0 -0.0033342066004917667 0.030762127499034932 0.02020036505631409 0.0023836044028221186 0.0032582035057125737 0 -0.0097282936835307292
leaf_weight=37.960495691004326 0.098321357741950832 0.2619260473002204 30.916496826685034 13.987592031029633 0.60657981372787617 0.55240385560318828 0.080067129107192159 0.30991145482403226
leaf_count=87101 40 85 167 294 39 22 6 246
internal_value=0 0.0268002 0.0275785 0.0192132 -0.00191723 0 -0.00728739 -0.00875911
internal_weight=84.7738 46.8133 45.7184 14.8019 1.09488 0.81433 0.4883 0.408233
internal_count=88000 899 568 401 331 107 292 286
is_linear=0
shrinkage=0.03


Tree=25
num_leaves=10
num_cat=0
split_feature=51 60 71 56 4 4 51 75 37
split_gain=83.7316 0.758376 0.28874 0.146582 0.10074 0.124111 0.0823203 0.0390391 0.0127085
threshold=1.5000000000000002 0.29583333333333334 0.87250000000000016 0.45506875000000002 0.52647150420429789 0.43656382740889788 5.5000000000000009 165.50000000000003 0.79900000000000015
decision_type=2 2 2 2 2 2 2 2 2
left_child=-1 3 6 -2 5 -4 7 -3 -5
right_child=1 2 4 8 -6 -7 -8 -9 -10
leaf_value=-0.032582221312719394 -0.004895405044263469 0.0025375515689290019 -0.0017768530260425836 0 0.028489403526432838 0.010174960942876449 0.0093232657026381636 -0.0046062955158555205 0.008142265817541466
leaf_weight=37.970259539011749 0.27660345743060943 0.25184767170139721 0.30296420089143683 0.36294526746496547 41.872184653264412 0.90479987704020459 1.093999280943535 0.2760124443739187 1.0945227706106377
leaf_count=87012 220 24 48 32 551 22 29 20 42
internal_value=0 0.0267674 0.0275326 0.00308922 0.028096 0.00637119 0.006416 0 0.00720076
internal_weight=84.4061 46.4359 44.7018 1.73407 43.0799 1.20776 1.62186 0.52786 1.45747
internal_count=88000 988 694 294 621 70 73 44 74
is_linear=0
shrinkage=0.03


Tree=26
num_leaves=7
num_cat=0
split_feature=51 16 49 2 16 59
split_gain=82.6109 0.983468 0.216597 0.0778126 0.0498858 0.0270759
threshold=1.5000000000000002 0.33937500000000004 0.55000000000000016 4.291666666666667 0.32187500000000008 0.66851763961398525
decision_type=2 2 2 2 2 2
left_child=-1 4 -3 -4 5 -2
right_child=1 2 3 -5 -6 -7
leaf_value=-0.032443426374731875 -0.0076291853471578989 0.027761344525351658 0.010569212196009342 0 0.0012246986559132393 0
leaf_weight=37.807996099523734 0.29644485599419468 43.595631202362711 1.4515269758121569 0.55983311585441686 0.33629503112751991 0.078827571298461407
leaf_count=87012 248 605 51 42 35 7
internal_value=0 0.0266082 0.0271592 0.0082271 -0.00218851 -0.00609503
internal_weight=84.1266 46.3186 45.607 2.01136 0.711567 0.375272
internal_count=88000 988 698 93 290 255
is_linear=0
shrinkage=0.03


Tree=27
num_leaves=10
num_cat=0
split_feature=56 68 30 51 71 30 17 1 71
split_gain=80.443 0.99956 0.184531 0.0951678 0.0474461 0.0425151 0.0297789 0.0139723 0.00355902
threshold=0.43230000000000007 0.29166666666666669 0.37500000000000006 5.5000000000000009 0.94750000000000012 0.31500000000000006 1.0000000180025095e-35 0.43750000000000006 0.83250000000000013
decision_type=2 2 2 2 2 2 2 2 2
left_child=-1 3 5 6 8 -3 -2 -8 -4
right_child=1 2 4 -5 -6 -7 7 -9 -10
leaf_value=-0.03222506833209085 0 0 0.00082801596231889718 0.0040065501459580375 0.028007726350954922 0.0087720088103639647 0 -0.0086666705182546488 0.012370235981438871
leaf_weight=37.42491945740403 0.064577828394248082 0.48713581665651773 0.79144250357057844 0.45747946880874224 41.167606093527866 1.1201227469136936 0.097873107231862377 0.35884542799612973 1.6374399344203991
leaf_count=87101 3 40 31 32 416 43 37 259 38
internal_value=0 0.0262437 0.0268847 -0.000468053 0.0273817 0.00692066 -0.00641929 -0.00783787 0.0108225
internal_weight=83.6074 46.1825 45.2037 0.978776 43.5965 1.60726 0.521296 0.456719 2.42888
internal_count=88000 899 568 331 485 83 299 296 69
is_linear=0
shrinkage=0.03


Tree=28
num_leaves=10
num_cat=0
split_feature=51 60 30 56 75 62 30 75 75
split_gain=77.969 0.645049 0.289157 0.109152 0.0586062 0.0123616 0.00486172 0.00133079 0.174747
threshold=1.5000000000000002 0.29583333333333334 0.37500000000000006 0.45506875000000002 223.50000000000003 0.54204201610979041 0.32500000000000007 305.00000000000006 270.50000000000006
decision_type=2 2 2 2 2 2 2 2 2
left_child=-1 3 4 -2 6 -5 -3 8 -4
right_child=1 2 7 5 -6 -7 -8 -9 -10
leaf_value=-0.031933080682151775 -0.0042172646619130436 0 0.02151507059537406 0 -0.00082468346585297598 0.0072108242651179712 0.0075149259909707018 0.029835128254862835 0.0010016359797396239
leaf_weight=37.005387232689827 0.25736510826391068 0.27623741574643534 15.618135670567426 0.30562314006965585 0.24734264073777013 0.94020909527898766 0.72350415561231785 26.711735691940703 0.80168321327073577
leaf_count=87012 220 49 447 28 17 46 39 122 20
internal_value=0 0.025887 0.0265485 0.00235509 0.00427467 0.00632189 0.00681798 0.0270131 0.0208007
internal_weight=82.8872 45.8818 44.3786 1.5032 1.24708 1.24583 0.999742 43.1316 16.4198
internal_count=88000 988 694 294 105 74 88 589 467
is_linear=0
shrinkage=0.03


Tree=29
num_leaves=12
num_cat=0
split_feature=68 21 16 18 16 71 71 71 77 7 38
split_gain=76.3627 1.02292 0.71958 0.227954 0.118355 0.0876918 0.0470311 0.0211072 0.0203074 0.00838102 0.00301571
threshold=0.29166666666666669 0.35000000000000003 0.34812500000000007 0.50000000000000011 0.32750000000000007 0.89250000000000018 0.83250000000000013 0.76000000000000012 27.513157894736846 0.78728596984410937 0.62500000000000011
decision_type=2 2 2 2 2 2 2 2 2 2 2
left_child=1 3 4 -1 9 6 7 -4 10 -2 -3
right_child=2 8 5 -5 -6 -7 -8 -9 -10 -11 -12
leaf_value=-0.031749299613835151 -0.0066972319285544821 0 0.0029237202310001538 0 0.0058816001842291032 0.027249718218789486 0.0097658350015408305 -0.0024337521033419786 0.0036493292295579818 0 -0.0016903946778278939
leaf_weight=37.036050203234481 0.26728850218932965 0.084955121827077984 0.25190401589497813 0.068813517689703896 0.65409869022550993 42.23250017265309 0.84899209410650656 0.40044725537518389 0.45759597697178833 0.1111690713732969 0.1007399069640087
leaf_count=87015 209 13 10 1 46 529 26 42 36 35 38
internal_value=0 -0.0309916 0.0262391 -0.0316356 0 0.0268115 0.0073196 0 0.000976245 -0.00598027 -0.000603016
internal_weight=82.5146 37.7482 44.7664 37.1049 1.03256 43.7338 1.50134 0.652351 0.643291 0.378458 0.185695
internal_count=88000 87103 897 87016 290 607 78 52 87 244 51
is_linear=0
shrinkage=0.03


Tree=30
num_leaves=9
num_cat=0
split_feature=56 30 16 62 16 21 68 7
split_gain=74.9097 0.647367 0.392582 0.160046 0.127656 0.0155134 0.0144722 0.00841575
threshold=0.43230000000000007 0.37500000000000006 0.35250000000000009 0.46512794115524775 0.33062500000000006 0.45000000000000007 1.4166666666666667 0.74543369474562138
decision_type=2 2 2 2 2 2 2 2
left_child=-1 3 4 6 -3 -4 7 -2
right_child=1 2 5 -5 -6 -7 -8 -9
leaf_value=-0.031502029383528057 -0.007256860619610405 -0.0053722619841516366 0.017236254915490398 0.0072721825309036859 0.006978645761730593 0.028129124830438858 0 0
leaf_weight=36.521026293557952 0.24517360777826869 0.20847248578502231 8.0914049130369659 0.9642942656064406 0.70507649425417185 34.924010758637451 0.069253397174179554 0.078832309576682746
leaf_count=87101 134 87 287 73 22 285 4 7
internal_value=0 0.0255363 0.0261662 0.00142896 0.00125782 0.0265864 -0.00568153 -0.0066186
internal_weight=81.8075 45.2865 43.929 1.35755 0.913549 43.0154 0.393259 0.324006
internal_count=88000 899 681 218 109 572 145 141
is_linear=0
shrinkage=0.03


Tree=31
num_leaves=8
num_cat=0
split_feature=51 60 4 49 49 14 0
split_gain=71.8638 0.762544 0.406116 0.216446 0.274976 0.201043 0.185054
threshold=1.5000000000000002 0.49375000000000002 0.43656382740889788 0.55000000000000016 0.70000000000000007 0.50000000000000011 6.9500000000000011
decision_type=2 2 2 2 2 2 2
left_child=-1 2 -2 6 -5 -3 -4
right_child=1 5 3 4 -6 -7 -8
leaf_value=-0.031159216707020248 -0.0042677451640697863 0.018278699061454538 0.018934507965497348 0.0084875780130209983 -0.0093985314323279823 0.03102416996060527 0
leaf_weight=35.982522790822259 0.2341580353677245 8.7587800749170146 12.33091423245423 0.95469908723316688 0.22908192669274285 22.169923763722181 0.47628482291475016
leaf_count=87012 74 106 573 56 68 95 16
internal_value=0 0.0249675 0.0163637 0.0171708 0.000933746 0.0281942 0.018278
internal_weight=81.1364 45.1538 14.2251 13.991 1.18378 30.9287 12.8072
internal_count=88000 988 787 713 124 201 589
is_linear=0
shrinkage=0.03


Tree=32
num_leaves=7
num_cat=0
split_feature=56 75 68 2 75 77
split_gain=70.8808 1.16551 0.602035 0.214897 0.169923 0.0953908
threshold=0.43230000000000007 305.00000000000006 0.29166666666666669 6.791666666666667 98.500000000000014 27.513157894736846
decision_type=2 2 2 2 2 2
left_child=-1 2 5 4 -4 -2
right_child=1 -3 3 -5 -6 -7
leaf_value=-0.03088661827738912 -0.0083129891676327946 0.029294267180960721 0 0 0.019148373251325103 0.0021104040376836376
leaf_weight=36.034087801621354 0.35019048725371504 27.409987506951438 0.56987743619538456 0.77227258950006294 15.379625813737219 0.48710474311519647
leaf_count=87101 292 129 76 13 351 38
internal_value=0 0.0248832 0.0166284 0.0178703 0.0185825 -0.00276805
internal_weight=81.0031 44.9691 17.5591 16.7218 15.9495 0.837295
internal_count=88000 899 770 440 427 330
is_linear=0
shrinkage=0.03


Tree=33
num_leaves=9
num_cat=0
split_feature=67 16 51 75 0 2 16 65
split_gain=69.3333 0.906587 0.805177 0.452885 0.429878 0.125648 0.0689257 0.00707932
threshold=1.0000000180025095e-35 0.34312500000000007 5.5000000000000009 379.50000000000006 7.3500000000000005 2.3750000000000004 0.32750000000000007 0.38278388278388281
decision_type=2 2 2 2 2 2 2 2
left_child=2 6 -1 4 5 -3 7 -2
right_child=1 3 -4 -5 -6 -7 -8 -9
leaf_value=-0.030723564141033919 -0.0070396316489919931 0.001460026555723249 0.0020564340600671932 0.030047858776780914 0.0034962059980248057 0.021778076879528499 0.002383385432268605 0
leaf_weight=35.907581093852059 0.30006849463097651 0.75377183192177355 0.3892286197951752 22.191094294423237 2.2258538285095701 18.01396527185716 0.40483077632961795 0.10824595086160116
leaf_count=87054 221 57 43 95 17 454 33 26
internal_value=0 0.0250695 -0.0302459 0.0256598 0.0197297 0.0212289 -0.00148575 -0.00642054
internal_weight=80.2946 43.9978 36.2968 43.1847 20.9936 18.7677 0.813145 0.408314
internal_count=88000 903 87097 623 528 511 280 247
is_linear=0
shrinkage=0.03


Tree=34
num_leaves=12
num_cat=0
split_feature=68 51 2 83 62 7 19 62 52 2 4
split_gain=69.4773 0.838027 0.744977 0.333517 0.400117 0.264605 0.196733 0.172206 0.0105372 0.00823233 0.00768238
threshold=0.29166666666666669 5.5000000000000009 4.541666666666667 13.500000000000002 0.73183170716701407 0.39854368932038842 0.37500000000000006 0.60194924975595343 19.354166666666668 4.2083333333333348 0.3731868824889637
decision_type=2 2 2 2 2 2 2 2 2 2 2
left_child=1 -1 5 4 -4 10 9 -5 -8 -7 -2
right_child=2 -3 3 7 -6 6 8 -9 -10 -11 -12
leaf_value=-0.030696175140774811 -0.0035070242613473314 0.0022886723393908239 0.014931853530979132 0.017589611751394174 -0.0043099188620724302 0.0018924343074485236 0.0015029639317033377 0.031162524254323191 0.017190596884470694 -0.0010324093705483318 0
leaf_weight=35.947888902235718 0.14262989928829384 0.39834136341232707 2.5164663503965126 7.0845590800963718 0.542407787288539 0.69533854164910636 0.67508305139562974 24.305698391297483 7.3691658515745075 0.25491073602461256 0.11484479359933175
leaf_count=87059 50 44 99 161 15 101 37 161 237 21 15
internal_value=0 -0.0302027 0.0252333 0.0276355 0.0105595 0.0141734 0.0151385 0.0288295 0.0165175 0 -0.00238275
internal_weight=80.0473 36.3462 43.7011 34.4491 3.05887 9.25197 8.9945 31.3903 8.04425 0.950249 0.257475
internal_count=88000 87103 897 436 114 461 396 322 274 122 65
is_linear=0
shrinkage=0.03


Tree=35
num_leaves=9
num_cat=0
split_feature=68 75 16 51 2 2 16 7
split_gain=69.6588 1.19126 0.752958 0.601265 0.133188 0.142969 0.0286497 0.0100577
threshold=0.29166666666666669 305.00000000000006 0.33062500000000006 5.5000000000000009 2.2083333333333335 6.791666666666667 0.32750000000000007 0.49763502716522862
decision_type=2 2 2 2 2 2 2 2
left_child=3 2 6 -1 7 -6 -2 -4
right_child=1 -3 4 -5 5 -7 -8 -9
leaf_value=-0.030620701565196994 -0.0088428333864153299 0.02956603012289891 -0.0014927070178985652 0.00055807693396493763 0.018771969605769368 0 0 0.002247930918221821
leaf_weight=36.001366029253404 0.36095594204380432 27.59924087419131 0.23315441113663737 0.3376539786986531 14.488096787554237 0.67618255503475744 0.076812819519545883 0.24757323770609219
leaf_count=87059 244 131 42 44 446 15 10 9
internal_value=0 0.0252733 0.0164315 -0.0302435 0.0176907 0.0181572 -0.00748894 0
internal_weight=80.021 43.682 16.0828 36.339 15.645 15.1643 0.437769 0.480728
internal_count=88000 897 766 87103 512 461 254 51
is_linear=0
shrinkage=0.03


Tree=36
num_leaves=9
num_cat=0
split_feature=68 75 16 77 75 4 16 87
split_gain=67.9343 1.08848 0.720355 0.312134 0.178992 0.17996 0.028239 0.000257888
threshold=0.29166666666666669 305.00000000000006 0.33062500000000006 32.464102564102568 270.50000000000006 0.49536997342021788 0.32750000000000007 0.21334649140991044
decision_type=2 2 2 2 2 2 2 2
left_child=3 2 6 -1 5 -4 -2 -5
right_child=1 -3 4 7 -6 -7 -8 -9
leaf_value=-0.03034066158154369 -0.0085517108649740339 0.029126775847829633 0 0 0 0.018767358737206353 0 0.00045296528534719888
leaf_weight=35.607937407177815 0.35697713548142829 27.572626992874575 0.52399066110956027 0.052054036881599042 0.60436537445639338 14.215709073017933 0.077755044039804488 0.13121023331768811
leaf_count=86989 244 131 55 110 22 435 10 4
internal_value=0 0.0250011 0.0163067 -0.0301386 0.0175537 0.0181714 -0.00717316 0
internal_weight=79.1426 43.3514 15.7788 35.7912 15.3441 14.7397 0.434732 0.183264
internal_count=88000 897 766 87103 512 490 254 114
is_linear=0
shrinkage=0.03


Tree=37
num_leaves=11
num_cat=0
split_feature=68 60 15 77 62 4 49 0 2 87
split_gain=66.2371 0.909034 0.407984 0.312296 0.102206 0.097354 0.0493964 0.0482782 0.00297657 0.000290581
threshold=0.29166666666666669 0.49375000000000002 4.5000000000000009 32.464102564102568 0.59347715689129299 0.50890215553677109 0.55000000000000016 6.1500000000000012 2.2916666666666674 0.21334649140991044
decision_type=2 2 2 2 2 2 2 2 2 2
left_child=3 2 7 -1 -3 8 -7 -2 -4 -5
right_child=1 4 5 9 -6 6 -8 -9 -10 -11
leaf_value=-0.030144273035966125 -0.0062239892369940651 0.014497645872795175 0 0 0.029801967375126585 0.017970359840088348 0.0021828445311233499 0.0011274904174958145 0.0014533422549044166 0.00048076896358762887
leaf_weight=35.211732937110355 0.26630068602389556 4.2692057788663105 0.26260058651677987 0.050100806758563432 25.160462497122353 11.511740679492503 0.93388002237770784 0.31779385943082161 0.26830421530758031 0.13145412784069777
leaf_count=86989 180 71 44 110 119 366 56 49 12 4
internal_value=0 0.0247697 0.0156313 -0.0299403 0.0282298 0.0167421 0.0172593 -0.00214359 0 0
internal_weight=78.3836 42.9903 13.5606 35.3933 29.4297 12.9765 12.4456 0.584095 0.530905 0.181555
internal_count=88000 897 707 87103 190 478 422 229 56 114
is_linear=0
shrinkage=0.03


Tree=38
num_leaves=10
num_cat=0
split_feature=68 75 16 77 75 4 14 16 87
split_gain=64.4961 0.907368 0.751868 0.315768 0.218693 0.145601 0.0367859 0.023904 0.000380735
threshold=0.29166666666666669 305.00000000000006 0.33937500000000004 32.464102564102568 262.50000000000006 0.49536997342021788 0.50000000000000011 0.32750000000000007 0.21334649140991044
decision_type=2 2 2 2 2 2 2 2 2
left_child=3 2 7 -1 5 -4 -3 -2 -5
right_child=1 6 4 8 -6 -7 -8 -9 -10
leaf_value=-0.029881052123944974 -0.0082310856217071605 0.016204482369259837 0 0 0 0.018869524305209859 0.030450422842771368 0 0.00054991142009125089
leaf_weight=34.871666997620196 0.35707733021990762 5.1494002479812506 0.46639015647815085 0.050769653142196058 0.58856317590107288 13.995341630776238 21.790008106734604 0.17054188155452721 0.13312946574296802
leaf_count=86989 244 53 50 110 25 422 78 25 4
internal_value=0 0.0245844 0.016301 -0.0296722 0.01767 0.0183533 0.0285122 -0.00679 0
internal_weight=77.5729 42.5173 15.5779 35.0556 15.0503 14.4617 26.9394 0.527619 0.183899
internal_count=88000 897 766 87103 497 472 131 269 114
is_linear=0
shrinkage=0.03


Tree=39
num_leaves=10
num_cat=0
split_feature=68 75 75 77 75 4 60 64 87
split_gain=62.7069 0.886347 0.339425 0.322245 0.209307 0.121121 0.0131803 0.00693068 0.00052661
threshold=0.29166666666666669 305.00000000000006 95.500000000000014 32.464102564102568 262.50000000000006 0.50890215553677109 0.39374999999999999 4.5000000000000009 0.21334649140991044
decision_type=2 2 2 2 2 2 2 2 2
left_child=3 2 6 -1 5 -4 7 -2 -5
right_child=1 -3 4 8 -6 -7 -8 -9 -10
leaf_value=-0.029622513000900557 -0.0043120813422861254 0.028292925614984157 0 0 0 0.01809972244475715 0 0 0.00064585556208415979
leaf_weight=34.499076408828842 0.2091753792919907 26.574543970855302 0.55112942261620901 0.051591493553131751 0.54513594281161282 13.95454216923099 0.16101310349768028 0.064507119823247194 0.13621581182815135
leaf_count=86989 137 131 66 110 25 509 18 11 4
internal_value=0 0.0243713 0.0161516 -0.0294066 0.0169321 0.0175763 -0.00174797 -0.00357142 0
internal_weight=76.7469 42.06 15.4855 34.6869 15.0508 14.5057 0.434696 0.273682 0.187807
internal_count=88000 897 766 87103 600 575 166 148 114
is_linear=0
shrinkage=0.03


Tree=40
num_leaves=12
num_cat=0
split_feature=68 16 71 75 2 77 84 16 60 87 87
split_gain=60.8301 0.979395 0.595527 0.388465 0.639808 0.325816 0.106158 0.0956268 0.013549 0.00441622 0.000643614
threshold=0.29166666666666669 0.34812500000000007 0.87250000000000016 379.50000000000006 7.2083333333333348 32.464102564102568 3.5000000000000004 0.32750000000000007 0.39374999999999999 0.27450109762702374 0.21334649140991044
decision_type=2 2 2 2 2 2 2 2 2 2 2
left_child=5 7 6 4 -4 -1 8 -2 -3 -9 -7
right_child=1 2 3 -5 -6 10 -8 9 -10 -11 -12
leaf_value=-0.029416552025704777 -0.0081120521602392557 0 0.020333788519685918 0.0294160255626175 -0.00056784113898727462 0 -0.0045385648094187544 0 0.00728797410138253 0.0030694114336322553 0.00071346596755756287
leaf_weight=34.010499829892069 0.36458786489674722 0.3526659301132884 16.670753934107783 21.84367170848418 1.0669394084834483 0.050860445531724419 0.37711759842932224 0.19755500243627466 0.53391956706764176 0.27168869331944734 0.13794571405742317
leaf_count=86989 244 35 438 91 12 110 8 37 23 9 4
internal_value=0 0.0240787 0.0247411 0.0253838 0.0189532 -0.0291952 0.000964055 -0.00253014 0.00605988 0.00233437 0
internal_weight=75.8782 41.6789 40.8451 39.5814 17.7377 34.1993 1.2637 0.833832 0.886585 0.469244 0.188806
internal_count=88000 897 607 541 450 87103 66 290 58 46 114
is_linear=0
shrinkage=0.03


Tree=41
num_leaves=11
num_cat=0
split_feature=56 30 71 60 16 28 51 7 38 62
split_gain=60.7509 0.984699 0.614288 0.456133 0.359223 0.209479 0.096985 0.0354278 0.0204004 0.00662855
threshold=0.43230000000000007 0.37500000000000006 0.87250000000000016 0.49375000000000002 0.34812500000000007 0.46715429530116909 5.5000000000000009 0.59843597262952108 0.95500000000000007 0.49916147013495421
decision_type=2 2 2 2 2 2 2 2 2 2
left_child=-1 5 6 4 -4 8 7 -3 9 -2
right_child=1 2 3 -5 -6 -7 -8 -9 -10 -11
leaf_value=-0.02942218945599195 -0.010317435634415378 0 -0.001085099349057386 0.028400868565372675 0.017845641592448402 0.0062234041546943416 0.0059248131506546963 -0.006874730145681583 0 0
leaf_weight=33.785695299171493 0.33006334316450991 0.23943584359949344 0.53678743302589182 27.359326486301143 11.110195715227745 0.84020950904960046 0.88622299500275403 0.17365606552630197 0.065530643798410892 0.10377119819168001
leaf_count=87101 139 43 97 233 270 62 24 14 5 12
internal_value=0 0.0239997 0.0248218 0.0254929 0.0167191 0 0.00104492 -0.00408531 -0.00884338 -0.00972547
internal_weight=75.4309 41.6452 40.3056 39.0063 11.647 1.33957 1.29931 0.413092 0.499365 0.433835
internal_count=88000 899 681 600 367 218 81 57 156 151
is_linear=0
shrinkage=0.03


Tree=42
num_leaves=11
num_cat=0
split_feature=68 16 51 77 71 16 59 28 21 87
split_gain=58.9039 0.999538 0.538252 0.320392 0.228458 0.0812388 0.0759732 0.0378289 0.0361477 0.000583652
threshold=0.29166666666666669 0.34812500000000007 5.5000000000000009 32.464102564102568 0.89250000000000018 0.33937500000000004 0.41615298571674414 0.5397489069749376 0.95000000000000007 0.21334649140991044
decision_type=2 2 2 2 2 2 2 2 2 2
left_child=3 5 4 -1 7 8 -6 -3 -2 -5
right_child=1 2 -4 9 6 -7 -8 -9 -10 -11
leaf_value=-0.029250990614389235 -0.0091972058559604535 -0.0046555324092380545 0.026819214445156791 0 3.0098471536329841e-05 0.0020063429931607901 0.0160721184837181 0.002254835775938263 0 0.00067946333603444663
leaf_weight=33.337006738802302 0.4111570081586241 0.27570207900134747 31.475491819583112 0.05016707158938416 0.66926222091569609 0.28652492060791701 7.527784653386334 0.25935886068327818 0.079218680504709482 0.13779517251532525
leaf_count=86989 263 42 254 110 55 21 239 17 6 4
internal_value=0 0.0238703 0.0245338 -0.0290277 0.0140782 -0.00326126 0.0152342 -6.47694e-05 -0.00763307 0
internal_weight=74.5095 40.9845 40.2076 33.525 8.73211 0.776901 8.19705 0.535061 0.490376 0.187962
internal_count=88000 897 607 87103 353 290 294 59 269 114
is_linear=0
shrinkage=0.03


Tree=43
num_leaves=9
num_cat=0
split_feature=56 75 0 16 63 57 52 75
split_gain=57.1858 1.01375 0.629109 0.627808 0.371025 0.338436 0.0431451 0.0134151
threshold=0.43230000000000007 350.50000000000006 7.3500000000000005 0.33937500000000004 0.21250000000000005 0.84025000000000016 22.535714285714288 151.50000000000003
decision_type=2 2 2 2 2 2 2 2
left_child=-1 2 3 7 -5 6 -4 -2
right_child=1 -3 5 4 -6 -7 -8 -9
leaf_value=-0.029019810783940937 -0.0067955694669709563 0.028096294870524962 0 0.019152758426019951 0 0.0063561801728052461 -0.014953846393402413 0
leaf_weight=32.802508017062792 0.29484983677685406 23.493841869407333 0.057361759420017644 15.297609726927472 0.6816262775682852 0.59347685053944588 0.32093531417194754 0.096282392943976447
leaf_count=87101 111 109 10 409 96 4 151 9
internal_value=0 0.0234473 0.0157972 0.0171805 0.0182328 -0.00287864 -0.0136432 -0.00585701
internal_weight=73.6385 40.836 17.3421 16.3704 15.9792 0.971774 0.378297 0.391132
internal_count=88000 899 790 625 505 165 161 120
is_linear=0
shrinkage=0.03


Tree=44
num_leaves=11
num_cat=0
split_feature=68 60 16 14 77 4 64 7 75 87
split_gain=56.2465 0.898895 0.584916 0.348497 0.3158 0.163774 0.10145 0.0216653 0.0170907 0.000551148
threshold=0.29166666666666669 0.47083333333333338 0.33937500000000004 0.50000000000000011 32.464102564102568 0.57761297922467347 8.5000000000000018 0.51260593220339012 157.50000000000003 0.21334649140991044
decision_type=2 2 2 2 2 2 2 2 2 2
left_child=4 2 8 -3 -1 7 -7 -4 -2 -6
right_child=1 3 5 -5 9 6 -8 -9 -10 -11
leaf_value=-0.029033545274579142 -0.0079666867496620587 0.0161418818253601 -0.0032813020807572185 0.029260693025147992 0 0.016459496469944584 0.00010033731826035602 0.0022390813766204848 0 0.00066020570243820935
leaf_weight=32.447705523292825 0.36816887659369868 8.3360486695528397 0.21855922386748616 21.804929458186962 0.050335404914220727 8.4856723557968472 0.75356482114148171 0.27229659992735833 0.09659880431718193 0.13802552549168468
leaf_count=86989 248 148 41 110 110 309 15 11 15 4
internal_value=0 0.0234401 0.0129457 0.0263636 -0.0288058 0.0147394 0.0155583 0 -0.00698437 0
internal_weight=72.9719 40.3358 10.1949 30.141 32.6361 9.73009 9.23924 0.490856 0.464768 0.188361
internal_count=88000 897 639 258 87103 376 324 52 263 114
is_linear=0
shrinkage=0.03


Tree=45
num_leaves=14
num_cat=0
split_feature=56 30 2 83 4 60 28 59 4 60 38 62 83
split_gain=55.0161 1.00166 0.632785 0.361789 0.291184 0.250356 0.215628 0.118497 0.0600242 0.0290035 0.0218538 0.0063004 0.00154906
threshold=0.43230000000000007 0.37500000000000006 4.541666666666667 13.500000000000002 0.43944219262690604 0.41458333333333336 0.46715429530116909 0.60018817204301078 0.41310856547774022 0.55000000000000016 0.95500000000000007 0.49916147013495421 15.500000000000002
decision_type=2 2 2 2 2 2 2 2 2 2 2 2 2
left_child=-1 6 4 9 8 -5 10 -6 -3 -4 11 -2 -8
right_child=1 2 3 5 7 -7 12 -9 -10 -11 -12 -13 -14
leaf_value=-0.028813543261122301 -0.010835581456862101 -0.0067693236259488265 0.0098881978130105127 0.011977993218037983 0.015803020170655841 0.029055905651083208 0 0.00062044542365585125 0.0017970518516985928 0 0 0 0.0064765482659380307
leaf_weight=32.059488673483429 0.33578409993788116 0.22289968346012567 1.5901630091684666 3.5011262893094708 6.6781440885388292 24.657322057275451 0.30466468843223993 1.0292084959801284 0.26276678778231144 0.8409857116639613 0.065857537207193673 0.10237194260116667 0.52620456856675446
leaf_count=87101 139 54 56 98 214 208 28 33 10 8 5 12 34
internal_value=0 0.0231668 0.0240285 0.0263799 0.0130086 0.027519 -0.000152201 0.0144242 -0.00202532 0.00813655 -0.00935038 -0.0102523 0.00584844
internal_weight=72.177 40.1175 38.7826 30.5896 8.19302 28.1584 1.33488 7.70735 0.485666 2.43115 0.504014 0.438156 0.830869
internal_count=88000 899 681 370 311 306 218 247 64 64 156 151 62
is_linear=0
shrinkage=0.03


Tree=46
num_leaves=9
num_cat=0
split_feature=68 75 75 77 75 4 64 87
split_gain=53.478 0.988443 0.377562 0.303376 0.292472 0.165142 0.00612156 0.000412595
threshold=0.29166666666666669 305.00000000000006 95.500000000000014 32.464102564102568 270.50000000000006 0.50890215553677109 4.5000000000000009 0.21334649140991044
decision_type=2 2 2 2 2 2 2 2
left_child=3 2 6 -1 5 -4 -2 -5
right_child=1 -3 4 7 -6 -7 -8 -9
leaf_value=-0.028646734258734406 -0.0040873623228402179 0.027312077072293051 0 0 -0.00086473753272648713 0.016998420447018551 0 0.00057152536082996836
leaf_weight=31.685431710197012 0.3135557427740413 24.444656427556765 0.51476547188940003 0.050785901556081536 0.48682693392038423 13.617475253493467 0.065584107825998217 0.13682868820615113
leaf_count=86989 155 131 66 110 22 512 11 4
internal_value=0 0.0230998 0.0147689 -0.0284191 0.0156243 0.0164102 -0.00345214 0
internal_weight=71.3159 39.4429 14.9982 31.873 14.6191 14.1322 0.37914 0.187615
internal_count=88000 897 766 87103 600 578 166 114
is_linear=0
shrinkage=0.03


Tree=47
num_leaves=11
num_cat=0
split_feature=56 30 71 75 16 62 86 87 68 60
split_gain=52.5843 0.975435 0.644465 0.472982 0.455879 0.19343 0.140643 0.0466917 0.0164626 0.00819866
threshold=0.43230000000000007 0.37500000000000006 0.87250000000000016 314.00000000000006 0.34312500000000007 0.46512794115524775 0.27222222222222231 0.21334649140991044 1.4166666666666667 0.39374999999999999
decision_type=2 2 2 2 2 2 2 2 2 2
left_child=-1 5 6 4 -4 8 9 -7 -2 -3
right_child=1 2 3 -5 -6 7 -8 -9 -10 -11
leaf_value=-0.028572214592356787 -0.010356009874030585 0 -0.0035627586951154861 0.027805249522497022 0.017589472172950635 0 -0.006228077385068166 0.0073356137080302711 0 0.0071071700003769028
leaf_weight=31.23920692512911 0.31985562504269072 0.31961161113576853 0.40907985871308383 23.59498010808602 12.792305226510505 0.25197708162886556 0.36451421678066254 0.66506881052919198 0.069358719978481531 0.60566390841268003
leaf_count=87101 141 28 96 115 389 44 8 29 4 45
internal_value=0 0.0228049 0.0236622 0.0243793 0.016518 -0.000311569 0.000181545 0.00498175 -0.00955129 0.00618821
internal_weight=70.6316 39.3924 38.0862 36.7964 13.2014 1.30626 1.28979 0.917046 0.389214 0.925276
internal_count=88000 899 681 600 485 218 81 73 145 73
is_linear=0
shrinkage=0.03


Tree=48
num_leaves=12
num_cat=0
split_feature=68 51 16 77 83 2 62 62 65 30 87
split_gain=50.5811 0.961197 0.380332 0.297679 0.218682 0.388465 0.308511 0.205822 0.163319 0.160579 0.000374523
threshold=0.29166666666666669 5.5000000000000009 0.35812500000000008 32.464102564102568 13.500000000000002 4.541666666666667 0.65467125165727436 0.59347715689129299 0.61721611721611735 0.44500000000000006 0.21334649140991044
decision_type=2 2 2 2 2 2 2 2 2 2 2
left_child=3 2 -2 -1 6 -6 -3 -7 9 -4 -5
right_child=1 4 8 10 5 7 -8 -9 -10 -11 -12
leaf_value=-0.028355394777989817 -0.0058631507162141064 0.014637128869205459 0 0 0.01048693233111268 0.012791630541965896 -0.0015413399613328357 0.029919913729640882 0 0.015094032873131486 0.00054455547001053609
leaf_weight=30.719021790639093 0.32244312729744606 1.8191085758444416 1.0066887168213705 0.050921889771415318 3.4729417112539549 3.5765573434473508 0.9404755648865829 20.421763462072704 0.5578923103166743 6.5691942796765943 0.13667525909841061
leaf_count=86989 210 47 97 110 90 69 39 96 11 238 4
internal_value=0 0.0226096 0.0109612 -0.028123 0.0253166 0.0264262 0.00938208 0.028101 0.0125255 0.0135733 0
internal_weight=69.5937 38.6871 8.45622 30.9066 30.2308 27.4713 2.75958 23.9983 8.13378 7.57588 0.187597
internal_count=88000 897 556 87103 341 255 86 165 346 335 114
is_linear=0
shrinkage=0.03


Tree=49
num_leaves=9
num_cat=0
split_feature=68 75 16 4 18 49 4 21
split_gain=49.4851 0.917575 0.693173 0.285353 0.17782 0.113148 0.0451744 0.0331844
threshold=0.29166666666666669 314.00000000000006 0.33937500000000004 0.49536997342021788 0.50000000000000011 0.55000000000000016 0.41310856547774022 0.95000000000000007
decision_type=2 2 2 2 2 2 2 2
left_child=4 2 7 6 -1 -5 -4 -2
right_child=1 -3 3 5 -6 -7 -8 -9
leaf_value=-0.028117822316954495 -0.0088244091467481918 0.026748868424611771 -0.0056737429938316878 0.017434383213852444 0 0.0015814153042007929 0.001829914557295259 0
leaf_weight=30.440661489199559 0.42635568154218972 23.176083481725072 0.16263869934482222 13.022049523053282 0.066375650465487435 1.0714566827082315 0.28471851529320702 0.078928715141955763
leaf_count=87102 263 127 37 395 1 55 14 6
internal_value=0 0.0224904 0.0144857 0.0158612 -0.0279976 0.0166125 -0.000860595 -0.00734482
internal_weight=68.7293 38.2222 15.0461 14.5409 30.507 14.0935 0.447357 0.505284
internal_count=88000 897 770 501 87103 450 51 269
is_linear=0
shrinkage=0.03


Tree=50
num_leaves=9
num_cat=0
split_feature=68 56 16 0 4 18 14 75
split_gain=47.8308 0.933863 0.622027 0.445224 0.351689 0.177645 0.160653 0.0148904
threshold=0.29166666666666669 0.58828541666666678 0.33937500000000004 7.2500000000000009 0.50890215553677109 0.50000000000000011 0.50000000000000011 157.50000000000003
decision_type=2 2 2 2 2 2 2 2
left_child=5 2 7 4 -4 -1 -3 -2
right_child=1 6 3 -5 -6 -7 -8 -9
leaf_value=-0.02792750441420563 -0.0079547977658853998 0.014381696395563512 -0.0020219806300085389 -0.0027240277787124074 0.017219042922430174 0 0.028311741346125425 0
leaf_weight=29.90666355787835 0.39385267472243768 5.4352077904623028 0.41141429211711056 0.64297986263409335 11.637386436901579 0.066857971251009896 19.202578376745805 0.10387134167831391
leaf_count=87102 250 80 53 15 396 1 87 16
internal_value=0 0.0221805 0.0134388 0.0149195 0.0162275 -0.0278047 0.0260365 -0.007067
internal_weight=67.8008 37.8273 13.1895 12.6918 12.0488 29.9735 24.6378 0.497724
internal_count=88000 897 730 464 449 87103 167 266
is_linear=0
shrinkage=0.03


Tree=51
num_leaves=9
num_cat=0
split_feature=67 75 16 75 4 18 0 21
split_gain=46.7768 0.991803 0.653336 0.220602 0.185191 0.178325 0.0746064 0.0332213
threshold=1.0000000180025095e-35 305.00000000000006 0.33937500000000004 262.50000000000006 0.43944219262690604 0.50000000000000011 7.2500000000000009 0.95000000000000007
decision_type=2 2 2 2 2 2 2 2
left_child=5 2 7 4 -4 -1 -3 -2
right_child=1 6 3 -5 -6 -7 -8 -9
leaf_value=-0.027824115122529889 -0.0087111425518296235 0.028346764923509439 0 0 0.016454043676627918 0 0.01392623809222803 0
leaf_weight=29.511458910390505 0.43029939603002176 18.363342056152764 0.35719091264763392 0.56412506179185662 13.238650727827917 0.067463524639605477 4.4575178487575604 0.080206825630739331
leaf_count=87096 266 101 43 25 432 1 30 6
internal_value=0 0.022005 0.0137909 0.0151721 0.0158963 -0.0276988 0.0263589 -0.0072153
internal_weight=67.0703 37.4913 14.6705 14.16 13.5958 29.5789 22.8209 0.510506
internal_count=88000 903 772 500 475 87097 131 272
is_linear=0
shrinkage=0.03


Tree=52
num_leaves=12
num_cat=0
split_feature=68 51 16 2 1 75 65 7 28 2 16
split_gain=45.5484 0.956275 0.357269 0.296706 0.207007 0.17173 0.140005 0.0482708 0.0407437 0.0256192 8.48372e-06
threshold=0.29166666666666669 5.5000000000000009 0.35812500000000008 4.541666666666667 0.54250000000000009 297.50000000000006 0.6132478632478634 0.51366531557614381 0.5397489069749376 7.2083333333333348 0.50312500000000016
decision_type=2 2 2 2 2 2 2 2 2 2 2
left_child=5 2 -2 7 8 -1 -6 10 -4 -5 -3
right_child=1 3 4 9 6 -7 -8 -9 -10 -11 -12
leaf_value=-0.027708311702813522 -0.0057940994166711312 7.4643719137007441e-05 -0.0051987532599488554 0.027904719245451341 0.01419606698305691 0 0 0.012510940476465348 0.0017740852292008466 0.013516171761043668 0
leaf_weight=29.04087484578486 0.32430156033660651 0.37038386028143833 0.25326604512519946 20.357192067705913 6.9287720059073763 0.06915950682014127 0.68278924259357143 3.6292501633288339 0.24762552481843159 4.0025958148762575 0.34762064274400473
leaf_count=87101 210 31 38 180 277 2 14 92 17 28 10
internal_value=0 0.021774 0.0103434 0.0245711 0.0118828 -0.0275836 0.0130735 0.0112864 -0.000867502 0.026285 0
internal_weight=66.2538 37.1438 8.43675 28.707 8.11245 29.11 7.61156 4.34725 0.500892 24.3598 0.718005
internal_count=88000 897 556 341 346 87103 291 133 55 208 41
is_linear=0
shrinkage=0.03


Tree=53
num_leaves=11
num_cat=0
split_feature=56 51 66 0 2 22 7 30 46 64
split_gain=44.2723 1.00217 0.527826 0.37126 0.528248 0.254899 0.148323 0.105906 0.063224 0.0387564
threshold=0.43230000000000007 5.5000000000000009 1.0000000180025095e-35 7.3500000000000005 4.541666666666667 0.41533333333333339 0.57884139296913684 0.78500000000000014 0.76417112299465251 5.5000000000000009
decision_type=2 2 2 2 2 2 2 2 2 2
left_child=-1 2 6 4 8 -4 7 -2 -3 -8
right_child=1 3 5 -5 -6 -7 9 -9 -10 -11
leaf_value=-0.027539743784955523 -0.012734674568363982 0.00041888691701796253 0 0.0088191714241105234 0.027977172730778814 0.015351062770848599 -0.0007888896862585749 0.00027772259770942313 0.012649843269126292 0.0049849134866518773
leaf_weight=28.52837409292988 0.41994141915347238 1.0775726999563691 0.71187443344388146 3.2479829476214936 21.145574515830958 5.6534640199970454 0.34010499512078218 0.19137943012174219 3.2219215406803414 0.88770341313647805
leaf_count=87101 283 44 32 29 178 150 39 9 95 40
internal_value=0 0.0214579 0.0097661 0.0242586 0.0257079 0.0134808 -0.00225378 -0.00915499 0.010808 0.00240274
internal_weight=65.4259 36.8975 8.20447 28.6931 25.4451 6.36534 1.83913 0.611321 4.29949 1.22781
internal_count=88000 899 553 346 317 182 371 292 139 79
is_linear=0
shrinkage=0.03


Tree=54
num_leaves=13
num_cat=0
split_feature=56 30 2 83 4 60 62 52 62 40 38 48
split_gain=43.8326 0.960372 0.681483 0.533163 0.353219 0.29992 0.20169 0.190011 0.186932 0.0303227 0.0358852 0.0165533
threshold=0.43230000000000007 0.37500000000000006 4.541666666666667 13.500000000000002 0.43656382740889788 0.41458333333333336 0.52145124061233206 17.535714285714288 0.65467125165727436 0.85450000000000015 0.95500000000000007 0.62716878948951971
decision_type=2 2 2 2 2 2 2 2 2 2 2 2
left_child=-1 6 4 8 11 -5 9 -6 -4 10 -2 -3
right_child=1 2 3 5 7 -7 -8 -9 -10 -11 -12 -13
leaf_value=-0.027571233301235558 -0.011338358512330659 0 0.010429120966793378 0.010647450649577962 -4.872285808355139e-05 0.02771143452368682 0.005701118112840819 0.013933298698152147 -0.0021670233650083986 0 0 -0.0066113705166031579
leaf_weight=28.198581754972111 0.46085659333038964 0.090516406518871828 1.2680350378941541 3.3863027817715219 0.50453226835816156 22.269148674648022 0.68965581156953704 6.6065212169851293 0.88078274251893152 0.1141036674962379 0.083111333195120096 0.20941019820747897
leaf_count=87101 164 10 38 98 26 208 42 225 26 8 4 50
internal_value=0 0.0214317 0.0223659 0.0247915 0.0110434 0.0260556 -0.000829616 0.0126877 0.00526481 -0.00879373 -0.0100359 -0.00540425
internal_weight=64.7616 36.563 35.2152 27.8043 7.41098 25.6555 1.34773 7.11105 2.14882 0.658072 0.543968 0.299927
internal_count=88000 899 681 370 311 306 218 251 64 176 168 60
is_linear=0
shrinkage=0.03


Tree=55
num_leaves=10
num_cat=0
split_feature=68 71 75 75 0 62 60 18 64
split_gain=41.8997 1.204 0.872863 0.358608 0.311795 0.247298 0.197539 0.168554 0.00536857
threshold=0.29166666666666669 0.83250000000000013 305.00000000000006 95.500000000000014 3.1500000000000008 0.60767318066541653 0.25625000000000003 0.50000000000000011 4.5000000000000009
decision_type=2 2 2 2 2 2 2 2 2
left_child=7 4 3 8 -2 -4 -5 -1 -3
right_child=1 2 5 6 -6 -7 -8 -9 -10
leaf_value=-0.027253590426249325 0.0035732344826545593 -0.004084940027266672 0.011291882304242069 0 -0.016506557914464634 0.028337641349144922 0.015730374994406597 0 0
leaf_weight=27.726987495894722 0.58677428087685157 0.32132449136406549 3.4130777992468238 0.93911138147814099 0.22717225871019764 17.81750120111974 12.545404842596325 0.065779194235800698 0.064436391170602292
leaf_count=87102 39 142 37 131 39 88 411 1 10
internal_value=0 0.0211573 0.0220384 0.0138887 -0.00638744 0.0263635 0.0148029 -0.0271255 -0.00352479
internal_weight=63.7076 35.9148 35.1009 13.8703 0.813947 21.2306 13.4845 27.7928 0.385761
internal_count=88000 897 819 694 78 125 542 87103 152
is_linear=0
shrinkage=0.03


Tree=56
num_leaves=8
num_cat=0
split_feature=56 75 4 16 63 62 75
split_gain=41.2223 0.994156 0.514418 0.458279 0.38388 0.307182 0.014359
threshold=0.43230000000000007 314.00000000000006 0.41310856547774022 0.33937500000000004 0.21250000000000005 0.60468082393021316 151.50000000000003
decision_type=2 2 2 2 2 2 2
left_child=-1 2 -2 6 -5 -3 -4
right_child=1 5 3 4 -6 -7 -8
leaf_value=-0.027189645561834282 -0.0078302771680411002 0.0098301775702064383 -0.0061531746247540974 0.016135750270164766 -0.001637100710313161 0.027417120437970153 0
leaf_weight=27.342368466845073 0.24131640652194342 3.1128097474575069 0.30439724652387745 13.358492662708155 0.66908004821743894 18.005521671031602 0.085913635164615698
leaf_count=87101 81 37 103 394 189 89 6
internal_value=0 0.0209535 0.0129708 0.0139988 0.0150359 0.0255221 -0.00512121
internal_weight=63.1199 35.7775 14.6592 14.4179 14.0276 21.1183 0.390311
internal_count=88000 899 773 692 583 126 109
is_linear=0
shrinkage=0.03


Tree=57
num_leaves=11
num_cat=0
split_feature=56 71 30 16 1 2 62 16 28 11
split_gain=40.4917 1.08889 0.983921 0.543978 0.349625 0.334711 0.200724 0.0727146 0.0535822 0.0108465
threshold=0.43230000000000007 0.83250000000000013 0.37500000000000006 0.35250000000000009 0.40250000000000008 4.541666666666667 0.52145124061233206 0.33937500000000004 0.51058058938501916 0.4333333333333334
decision_type=2 2 2 2 2 2 2 2 2 2
left_child=-1 4 6 7 9 -5 8 -4 -3 -2
right_child=1 2 3 5 -6 -7 -8 -9 -10 -11
leaf_value=-0.027144481545954793 0 -0.011114483748042163 -0.0059247269181882277 0.012508590643007082 -0.016672162318122102 0.02524646811669749 0.0055117809087913971 0.0037354363754780059 0 0.0056767858199860879
leaf_weight=26.979794503822632 0.25310521014034648 0.46358106791740172 0.2899013226851811 6.5711594890890401 0.22371796949300915 26.043593734983006 0.67131570314813871 0.44512566819321364 0.16719544160878286 0.31912767887115479
leaf_count=87101 46 139 91 199 33 315 39 14 20 3
internal_value=0 0.0208379 0.0216741 0.0226556 -0.00569421 0.0232178 -0.00108241 0 -0.0090164 0.00456389
internal_weight=62.4276 35.4478 34.6519 33.3498 0.795951 32.6148 1.30209 0.735027 0.630777 0.572233
internal_count=88000 899 817 619 82 514 198 105 159 49
is_linear=0
shrinkage=0.03


Tree=58
num_leaves=9
num_cat=0
split_feature=68 75 4 0 75 62 18 7
split_gain=38.1814 1.08699 0.384278 0.351625 0.33548 0.323673 0.159071 0.0201975
threshold=0.29166666666666669 314.00000000000006 0.43656382740889788 7.5500000000000007 96.500000000000014 0.60194924975595343 0.50000000000000011 0.48061862244897968
decision_type=2 2 2 2 2 2 2 2
left_child=6 2 7 4 -4 -3 -1 -2
right_child=1 5 3 -5 -6 -7 -8 -9
leaf_value=-0.026729401421419094 -0.0069884878296545437 0.0086451584922222335 -0.0029882032371252045 -0.0033002851800436393 0.014990916460026203 0.026980544879285934 0 0
leaf_weight=26.400366829744602 0.20402874823775796 2.7150946449619395 0.38660620855807692 0.46816843468695957 13.165666130618773 17.728860579256434 0.064750365912913277 0.081201665103435516
leaf_count=87102 61 35 148 11 540 92 1 10
internal_value=0 0.0204359 0.0122269 0.0131399 0.0141018 0.0252021 -0.0266001 -0.00562225
internal_weight=61.2147 34.7496 14.3057 14.0204 13.5523 20.444 26.4651 0.28523
internal_count=88000 897 770 699 688 127 87103 71
is_linear=0
shrinkage=0.03


Tree=59
num_leaves=13
num_cat=0
split_feature=68 60 0 14 22 87 59 8 18 75 75 28
split_gain=38.5524 1.06091 0.490535 0.49941 0.332699 0.219878 0.273432 0.194137 0.16117 0.0637663 0.051386 0.0488781
threshold=0.29166666666666669 0.47083333333333338 7.2500000000000009 0.50000000000000011 0.43675000000000014 0.17450563774927239 0.60018817204301078 0.70000000000000007 0.50000000000000011 106.50000000000001 136.50000000000003 0.29294735972178926
decision_type=2 2 2 2 2 2 2 2 2 2 2 2
left_child=8 4 3 -3 7 6 -6 11 -1 -7 -9 -2
right_child=1 2 -4 -5 5 9 -8 10 -10 -11 -12 -13
leaf_value=-0.026980553405161332 0 0.014175745038032549 0.0079686280206272518 0.029559711290762836 0.0068491771149916158 0 -0.010096810770536251 0 0 0.015914986809998231 0.0079526996288327607 -0.0093029278738513931
leaf_weight=26.205737616852279 0.24677684425841873 6.721475889156868 3.2421738808043292 15.029114156030118 1.6365109497492083 0.43471202410000831 0.22541936603374768 0.20351978525286518 0.064885661005972817 5.3518185581124271 0.85250771074788645 0.70777263739728369
leaf_count=87102 26 139 31 88 157 59 17 66 1 147 32 135
internal_value=0 0.0205377 0.0239712 0.0257696 0.00995646 0.0125219 0.000938214 0 -0.0268496 0.0151197 0.00587294 -0.00728773
internal_weight=60.9224 34.6518 24.9928 21.7506 9.65904 7.64846 1.86193 2.01058 26.2706 5.78653 1.05603 0.954549
internal_count=88000 897 258 227 639 380 174 259 87103 206 98 161
is_linear=0
shrinkage=0.03


Tree=60
num_leaves=14
num_cat=0
split_feature=56 62 2 87 30 75 62 2 2 2 68 40 16
split_gain=37.0963 1.04436 0.704554 0.581274 0.419872 0.142835 0.113675 0.101517 0.0615039 0.0700106 0.0592265 0.0382372 0.0342902
threshold=0.43230000000000007 0.60194924975595343 4.541666666666667 0.17450563774927239 0.37500000000000006 210.00000000000003 0.46512794115524775 7.291666666666667 4.291666666666667 3.2916666666666674 0.29166666666666669 0.88450000000000017 0.54937500000000017
decision_type=2 2 2 2 2 2 2 2 2 2 2 2 2
left_child=-1 3 8 5 6 10 -5 12 9 -3 -2 -6 -4
right_child=1 2 7 4 11 -7 -8 -9 -10 -11 -12 -13 -14
leaf_value=-0.026716314899697981 -0.0033307755112613599 0 0.012949279917436777 -0.0088872035502028171 0.016105369645795939 -0.01120828323423243 0.0025963555537100971 0.010227373041107947 0 0.01100804630263523 0.004655726418849886 0.0021885344190235904 0.029363967567563855
leaf_weight=25.664966892029042 0.21717374260333489 0.61264443465188678 3.2384086634119802 0.28921526740304937 6.1873786588621442 0.35377488163067017 0.57913324004039168 2.5595875352737485 0.65406688262009982 2.878976097679697 0.90918919844261836 1.0756400919926816 14.800289666512979
leaf_count=87101 249 54 88 33 157 19 35 23 22 73 41 29 76
internal_value=0 0.0201494 0.0235701 0.00966889 0.0126969 -0.0041687 -0.00233229 0.0259858 0.00826708 0.00951949 0.000862755 0.0149217 0.0274096
internal_weight=60.0204 34.3555 24.744 9.61151 8.13137 1.48014 0.868349 20.5983 4.14569 3.49162 1.12636 7.26302 18.0387
internal_count=88000 899 336 563 254 309 68 187 149 127 290 186 164
is_linear=0
shrinkage=0.03


Tree=61
num_leaves=11
num_cat=0
split_feature=56 51 9 0 14 63 16 83 87 62
split_gain=36.7854 1.00745 0.680931 0.598739 0.438549 0.1656 0.169283 0.0593356 0.0566805 0.024472
threshold=0.43230000000000007 5.5000000000000009 0.75000000000000011 7.3500000000000005 0.50000000000000011 0.23750000000000002 0.38062500000000005 13.500000000000002 0.21334649140991044 0.47302186405126129
decision_type=2 2 2 2 2 2 2 2 2 2
left_child=-1 2 7 4 9 6 -4 -2 -9 -3
right_child=1 3 5 -5 -6 -7 -8 8 -10 -11
leaf_value=-0.026727801615483292 0 0.00018523545025248746 0 0.0057234979847499935 0.028476161088013489 0 0.014653668856603116 -0.011802933170675715 0 0.014955902774362883
leaf_weight=25.421689523020177 0.30688394374737782 0.55053535848856405 0.39428683280129906 2.7859483743086448 15.643439628125634 0.61454978643450875 5.8771543847833527 0.5463150159775978 0.27338428550865501 7.0494672241984517
leaf_count=87101 25 27 46 29 114 13 168 282 19 176
internal_value=0 0.0201528 0.00864459 0.0231335 0.0247744 0.0122082 0.0134957 -0.00722475 -0.00950508 0.0143807
internal_weight=59.4637 34.042 8.01257 26.0294 23.2434 6.88599 6.27144 1.12658 0.819699 7.6
internal_count=88000 899 553 346 317 227 214 326 301 203
is_linear=0
shrinkage=0.03


Tree=62
num_leaves=16
num_cat=0
split_feature=87 66 60 16 0 14 87 23 38 87 25 60 62 21 63
split_gain=33.9073 1.86197 0.974897 0.441285 0.431743 0.388694 0.359356 0.213007 0.114242 0.0935027 0.0783178 0.0405353 0.0355353 0.0260298 0.000698124
threshold=0.095124165753281295 1.0000000180025095e-35 0.47083333333333338 0.33937500000000004 7.3500000000000005 0.50000000000000011 0.17450563774927239 0.4585833333333334 0.9850000000000001 0.13723221096665394 0.69750000000000012 0.31875000000000003 0.60194924975595343 0.95000000000000007 0.18750000000000003
decision_type=2 2 2 2 2 2 2 2 2 2 2 2 2 2 2
left_child=1 8 3 13 5 -4 9 -8 10 -5 -1 14 -7 -2 -3
right_child=2 11 4 6 -6 12 7 -9 -10 -11 -12 -13 -14 -15 -16
leaf_value=-0.026804000248397859 -0.0081624137611508042 -0.00074129023695871711 0.013953031319157384 0.0033240400410702435 0.0069575973499613059 0.012579581415921168 0 0.015046207842808605 0 -0.0066054545751163167 0 0.0070681974940485053 0.030789117214329913 0 0
leaf_weight=24.852702316122315 0.42867592647234953 0.14340011423337173 6.5301048282417513 0.48826839085086227 2.7497240584343663 2.7370491569745363 0.53939703400828864 6.1746168743193266 0.059245253796688213 0.64235649685724638 0.1274893680238155 1.0477635122297213 12.02473649184685 0.077804320171708241 0.066795779974199831
leaf_count=86764 268 83 140 28 28 48 49 185 5 74 210 59 50 7 2
internal_value=0 -0.0248013 0.0202742 0.00917788 0.0234884 0.0250808 0.0112182 0.0136274 -0.0265828 -0.00136178 -0.0266874 0.00539923 0.0286155 -0.00690169 0
internal_weight=58.6901 26.2974 32.3927 8.35112 24.0416 21.2919 7.84464 6.71401 25.0394 1.13062 24.9802 1.25796 14.7618 0.50648 0.210196
internal_count=88000 87123 877 611 266 238 336 234 86979 102 86974 144 98 275 85
is_linear=0
shrinkage=0.03


Tree=63
num_leaves=8
num_cat=0
split_feature=56 75 4 22 0 75 46
split_gain=34.9119 1.09554 0.529324 0.364873 0.352073 0.350227 0.128263
threshold=0.43230000000000007 314.00000000000006 0.41310856547774022 0.51916666666666689 7.0500000000000007 221.50000000000003 0.16754385964912283
decision_type=2 2 2 2 2 2 2
left_child=-1 2 -2 5 -3 -4 -5
right_child=1 4 3 6 -6 -7 -8
leaf_value=-0.02647004603838576 -0.0086688832973831603 0.02731020204226316 0.0075906775782089786 0 0.010355291409430983 -0.0082800598134397819 0.016916141523019936
leaf_weight=24.650280960006057 0.25763939780881351 15.25752563099377 3.8477746956705241 0.56058315343398035 3.6887407684698692 0.62562913371948514 9.0403674089029646
leaf_count=87101 81 92 353 28 34 25 286
internal_value=0 0.0198074 0.0117672 0.0128906 0.0248442 0.00371571 0.0161287
internal_weight=57.9285 33.2783 14.332 14.0744 18.9463 4.4734 9.60095
internal_count=88000 899 773 692 126 378 314
is_linear=0
shrinkage=0.03


Tree=64
num_leaves=14
num_cat=0
split_feature=68 51 2 2 30 63 84 22 15 2 14 40 9
split_gain=33.8798 0.979357 0.618252 0.645977 0.291807 0.285306 0.148787 0.137141 0.107856 0.0614644 0.0610339 0.0584295 0.0368798
threshold=0.29166666666666669 5.5000000000000009 7.2083333333333348 4.541666666666667 0.46500000000000002 0.21250000000000005 5.5000000000000009 0.41925000000000007 7.5000000000000009 3.2083333333333335 0.50000000000000011 0.85750000000000004 0.30000000000000004
decision_type=2 2 2 2 2 2 2 2 2 2 2 2 2
left_child=6 4 3 9 8 7 12 -6 11 -3 -5 -2 -1
right_child=1 2 -4 10 5 -7 -8 -9 -10 -11 -12 -13 -14
leaf_value=-0.028835301513364862 -0.0098344946880181156 0 0.0050211448416400146 0.01501699315316055 0 -0.0011936786893725351 0 0.01463757666915734 0.003201722318064067 0.010250834406589525 0.02976320905469888 0 -0.016245827033144273
leaf_weight=17.750613038719173 0.47389879601541796 0.5663765836507143 2.6577712818980208 4.823813704701025 0.85933791117713543 0.93341979974502454 0.066424488555638983 4.757409608537273 0.55325411638477817 3.523314115620451 13.364195385569474 0.25015222077490762 6.5400787039980051
leaf_count=60653 137 48 28 102 125 21 2 221 25 85 78 27 26448
internal_value=0 0.0196813 0.0226941 0.0243673 0.00826028 0.0106486 -0.0262056 0.0129529 -0.00196767 0.00908393 0.026995 -0.00722373 -0.0263407
internal_weight=57.1201 32.7629 24.9355 22.2777 7.82747 6.55017 24.3571 5.61675 1.27731 4.08969 18.188 0.724051 24.2907
internal_count=88000 897 341 313 556 367 87103 346 189 133 180 164 87101
is_linear=0
shrinkage=0.03


Tree=65
num_leaves=15
num_cat=0
split_feature=68 7 59 14 71 22 35 14 7 18 0 35 46 9
split_gain=33.0512 1.20722 1.04838 0.659798 0.635394 0.473485 0.34608 0.2725 0.185329 0.15117 0.118572 0.127757 0.0801169 0.0655927
threshold=0.29166666666666669 0.64488487702773434 0.60018817204301078 0.50000000000000011 0.94750000000000012 0.56075000000000019 0.19500000000000003 0.50000000000000011 0.47766907294832839 0.50000000000000011 3.0500000000000003 0.84500000000000008 0.7026315789473685 0.30000000000000004
decision_type=2 2 2 2 2 2 2 2 2 2 2 2 2 2
left_child=9 2 5 -4 10 12 -6 -8 -7 13 -3 -12 -2 -1
right_child=1 4 3 -5 6 8 7 -9 -10 -11 11 -13 -14 -15
leaf_value=-0.028781313509402055 -0.0059529513337600237 0.0068661320634494667 0.0038361048108616702 -0.023469775021484073 0.0022648784612109619 0 0.014288921764907665 0.027968112670265308 0.018261398513014716 0 0.0020984267125914516 -0.010458313137690651 0.0029260741366913031 -0.016001764685090167
leaf_weight=17.4569413226127 0.50448091998987177 0.38672622118611133 0.90008886193390913 0.48992186645045877 1.1538662043894898 0.57676103732956097 6.6403004544918085 15.436951913376106 4.4006695977586787 0.063882857561110451 0.37088947446318343 0.37400546757271513 1.194600218979758 6.4968035198617136
leaf_count=60653 64 6 31 26 35 53 212 151 129 1 22 40 128 26449
internal_value=0 0.0195161 0.00756866 -0.010326 0.0228993 0.0125448 0.0239263 0.0247812 0.0165347 -0.026078 0 -0.00486738 0 -0.0262156
internal_weight=56.4469 32.4293 8.06652 1.39001 24.3627 6.67651 23.2311 22.0773 4.97743 24.0176 1.13162 0.744895 1.69908 23.9537
internal_count=88000 897 431 57 466 374 398 363 182 87103 68 62 192 87102
is_linear=0
shrinkage=0.03


Tree=66
num_leaves=13
num_cat=0
split_feature=68 7 23 22 0 75 9 21 21 59 18 16
split_gain=32.0427 1.26934 0.74836 0.676763 0.663599 0.45563 0.174766 0.138398 0.131002 0.0906051 0.0782722 0.0700104
threshold=0.29166666666666669 0.64488487702773434 0.7703000000000001 0.56075000000000019 7.3500000000000005 129.50000000000003 0.30000000000000004 0.45000000000000007 0.65000000000000002 0.57835937500000012 0.50000000000000011 0.33937500000000004
decision_type=2 2 2 2 2 2 2 2 2 2 2 2
left_child=6 2 3 8 5 11 -1 -7 -2 -5 -8 -3
right_child=1 4 -4 9 -6 7 10 -9 -10 -11 -12 -13
leaf_value=-0.028720318401596501 -0.0069939558792201451 -0.0028986953190213833 -0.011185354393475762 0.017524081533659995 0.0028063635966776809 0.011330499943965344 -0.015698261711863639 0.02699890769546813 0.0031716473371533591 0 0 0.0055267149407537209
leaf_weight=17.098962313524684 1.1462312791700235 0.19141172927630279 0.77753875814960327 4.0214564878260717 2.0337870001094407 3.4218006232986253 6.4479579851395092 17.606729728460778 1.1265209394041447 0.61640536278719071 0.064046032726764568 1.1418117820358018
leaf_count=60653 162 95 37 150 27 127 26449 153 52 30 1 64
internal_value=0 0.019283 0.0068592 0.010426 0.022656 0.0241354 -0.0259215 0.0252156 -0.00160907 0.0160952 -0.0153283 0.00230738
internal_weight=55.6947 32.0837 7.68815 6.91061 24.3955 22.3618 23.611 21.0285 2.27275 4.63786 6.512 1.33322
internal_count=88000 897 431 394 466 439 87103 280 214 180 26450 159
is_linear=0
shrinkage=0.03


Tree=67
num_leaves=13
num_cat=0
split_feature=56 56 7 0 16 82 23 52 14 60 9 75
split_gain=31.6917 1.19751 0.738898 0.622573 0.504004 0.481974 0.243582 0.0948744 0.0804443 0.0358713 0.0160893 0.00929166
threshold=0.43230000000000007 0.58828541666666678 0.63341924398625449 7.3500000000000005 0.33937500000000004 1.0000000180025095e-35 0.40825 22.535714285714288 0.50000000000000011 0.31875000000000003 0.30000000000000004 151.50000000000003
decision_type=2 2 2 2 2 2 2 2 2 2 2 2
left_child=10 3 5 4 11 -3 -6 -5 -4 -9 -1 -2
right_child=1 2 8 7 6 -7 -8 9 -10 -11 -12 -13
leaf_value=-0.028638699067523466 -0.0072489954215275518 -0.005843201445460724 0.012427603195533928 0 0 0.013725990378838815 0.014714103044056013 0 0.028295994836596502 -0.014433989795343261 -0.016218342259428975 0
leaf_weight=16.641863411408853 0.36907787184463892 1.1652276903623744 3.4897937078494587 0.19337034830823618 1.3437658601324063 1.2957296706736086 10.031429780079632 0.052370611578226089 13.704906128812581 0.21074418252101168 6.5641641277616136 0.10092143918154761
leaf_count=60408 108 33 61 13 60 16 380 1 69 149 26693 9
internal_value=0 0.0191435 0.0239037 0.0100868 0.0117688 0.00458235 0.0132394 -0.00961235 0.0261003 -0.0131963 -0.0260645 -0.00657659
internal_weight=55.1634 31.9573 19.6557 12.3017 11.8452 2.46096 11.3752 0.456485 17.1947 0.263115 23.206 0.469999
internal_count=88000 899 179 720 557 49 440 163 130 150 87101 117
is_linear=0
shrinkage=0.03


Tree=68
num_leaves=13
num_cat=0
split_feature=56 7 59 22 56 0 7 56 21 49 77 40
split_gain=31.0965 1.33036 0.730204 0.622238 0.589273 0.463469 0.277555 0.220792 0.131953 0.118504 0.00723532 0.00173953
threshold=0.43230000000000007 0.64488487702773434 0.57835937500000012 0.4921666666666667 0.52208750000000015 7.3500000000000005 0.47766907294832839 0.58828541666666678 0.65000000000000002 0.46428571428571436 28.029411764705888 0.72350000000000014
decision_type=2 2 2 2 2 2 2 2 2 2 2 2
left_child=-1 2 3 8 9 -6 -5 10 -2 -3 -4 -11
right_child=1 4 7 6 5 -7 -8 -9 -10 11 -12 -13
leaf_value=-0.026029247799583922 -0.0094248059547102792 0.0093521148708973628 0 0 0.026178388575704419 0.0050063300634673284 0.017459355765485202 -0.014720955022603725 0.0022662767447202306 -0.0013359128728364783 0.0021870673995119726 0
leaf_weight=22.874181900879194 0.66261850426963309 3.1562127661527515 0.28545834094984435 0.6156046914984471 18.348741731140766 1.9218051927164186 4.3781511809866061 0.63363769755233079 0.57488057826412842 0.27265298952988803 0.56537441035470692 0.27924401371274143
leaf_count=87101 263 110 38 55 184 22 110 20 30 24 23 20
internal_value=0 0.0190072 0.00647771 0.0109473 0.022498 0.0246419 0.0152264 -0.00793119 -0.00406737 0.00739636 0.000726103 -0.000674329
internal_weight=54.5686 31.6944 7.71573 6.23125 23.9787 20.2705 4.99376 1.48447 1.2375 3.70811 0.850833 0.551897
internal_count=88000 899 539 458 360 206 165 81 293 154 61 44
is_linear=0
shrinkage=0.03


Tree=69
num_leaves=16
num_cat=0
split_feature=68 7 14 22 1 2 0 60 46 18 75 2 30 51 77
split_gain=30.894 1.05794 0.845896 0.47798 0.39254 0.256933 0.248813 0.214912 0.183774 0.146402 0.0919085 0.1954 0.0580108 0.0464762 0.0266095
threshold=0.29166666666666669 0.64488487702773434 0.50000000000000011 0.56075000000000019 0.99850000000000005 5.9583333333333348 7.2500000000000009 0.44791666666666669 0.28633540372670813 0.50000000000000011 166.50000000000003 5.041666666666667 0.43500000000000005 5.5000000000000009 26.379807692307697
decision_type=2 2 2 2 2 2 2 2 2 2 2 2 2 2 2
left_child=9 3 4 10 13 8 7 -4 -5 -1 14 -12 -6 -3 -2
right_child=1 2 6 5 12 -7 -8 -9 -10 -11 11 -13 -14 -15 -16
leaf_value=-0.026191663931536002 -0.00089701202969398586 -0.0064204976398810057 0.0090531483279327595 0 0 -0.00022414243940141205 0.0070373926046301402 0.029892438171297244 0.015756155523936107 0 -0.013370602739580913 0.0019986534217523656 0.014104686598651427 0.00044257196234669815 0.0037649194616973265
leaf_weight=22.611351679544899 0.36051986421807958 0.49018764565699058 2.0571279097348478 0.36927143110369787 0.69114272721344594 0.86451791168656189 1.7856929078698147 12.433272516471332 4.0318081168516073 0.062441956251858666 0.52089077921846161 0.49625388745334931 6.1286707745821332 0.31424175691790879 0.85610389169596601
leaf_count=87102 75 44 101 24 60 26 19 64 160 1 44 18 163 15 84
internal_value=0 0.0190346 0.0221764 0.00723746 0.010942 0.0116654 0.0263274 0.0279031 0.0141655 -0.0260505 -0.00265234 -0.00711141 0.0132167 -0.00331745 0.0012486
internal_weight=54.0735 31.3997 23.9003 7.49937 7.62424 5.2656 16.2761 14.4904 4.40108 22.6738 2.23377 1.01714 6.81981 0.804429 1.21662
internal_count=88000 897 466 431 282 210 184 165 184 87103 221 62 223 59 159
is_linear=0
shrinkage=0.03


Tree=70
num_leaves=13
num_cat=0
split_feature=56 7 14 59 14 48 30 71 71 56 2 0
split_gain=30.477 1.15616 0.845237 0.602495 0.494396 0.409557 0.252358 0.220684 0.0665667 0.0152918 0.0119164 0.0110724
threshold=0.43230000000000007 0.64488487702773434 0.50000000000000011 0.57835937500000012 0.50000000000000011 0.58896499238965005 0.37500000000000006 0.99750000000000016 0.92250000000000021 0.58828541666666678 4.791666666666667 4.6500000000000012
decision_type=2 2 2 2 2 2 2 2 2 2 2 2
left_child=-1 3 7 5 10 6 -2 8 -3 -4 -5 -9
right_child=1 2 9 4 -6 -7 -8 11 -10 -11 -12 -13
leaf_value=-0.02617976750111865 -0.0012960529435811924 -0.0058198401252581326 0.01190774979774482 0 -0.018737295259298663 -0.0062623557404512331 0.014765049011722604 0.0022389896488218338 0.0030535699695772877 0.028187261869913174 0.0053269412232116878 0.013559806375680402
leaf_weight=22.2579978045178 0.46028171894431835 0.40534805981588107 2.9218868108000615 0.33939308400294954 0.45731147017795593 0.32733930542599399 5.3186019290587865 1.2217840901139423 0.37722825550008565 13.287099811015651 0.64761571944109164 5.5066199502325617
leaf_count=87101 122 30 77 23 25 83 253 40 15 67 33 131
internal_value=0 0.0188683 0.0221539 0.00681179 -0.0064824 0.0108482 0.0130408 0.0108365 -0.000546085 0.0262895 0.00425817 0.012448
internal_weight=53.5285 31.2705 23.72 7.55054 1.44432 6.10622 5.77888 7.51098 0.782576 16.209 0.987009 6.7284
internal_count=88000 899 360 539 81 458 375 216 45 144 56 171
is_linear=0
shrinkage=0.03


Tree=71
num_leaves=9
num_cat=0
split_feature=56 75 9 0 49 75 4 46
split_gain=29.7341 1.1472 0.474804 0.411496 0.325388 0.238858 0.189704 0.18276
threshold=0.43230000000000007 305.00000000000006 0.75000000000000011 7.0500000000000007 0.70000000000000007 256.50000000000006 0.52647150420429789 0.37207792207792217
decision_type=2 2 2 2 2 2 2 2
left_child=-1 2 4 -3 7 6 -4 -2
right_child=1 3 5 -5 -6 -7 -8 -9
leaf_value=-0.026086153195347583 -0.0052186927983576608 0.026691691446247907 0 0.0088803615758563676 -0.013709133037898827 -6.9523830615787608e-05 0.014834712544919663 0.0081148037492762785
leaf_weight=21.903844866632426 0.2841555287595855 13.828599040163683 0.44273524232266659 3.3004921348765484 0.26674969610758115 0.71639000601135272 10.29896539652691 1.8061703856074016
leaf_count=87101 191 94 41 35 41 23 330 144
internal_value=0 0.0187036 0.0106299 0.0241044 -0.000386089 0.0129859 0.0140439 0.0042293
internal_weight=52.8481 30.9443 13.8152 17.1291 2.35708 11.4581 10.7417 2.09033
internal_count=88000 899 770 129 376 394 371 335
is_linear=0
shrinkage=0.03


Tree=72
num_leaves=13
num_cat=0
split_feature=68 60 0 22 7 54 8 30 18 30 75 21
split_gain=28.7548 1.26066 0.552534 0.390098 0.372597 0.337406 0.236928 0.198804 0.140828 0.109686 0.0469135 0.0434793
threshold=0.29166666666666669 0.47083333333333338 7.3500000000000005 0.43675000000000014 0.64488487702773434 0.20410958904109591 0.70000000000000007 0.42500000000000004 0.50000000000000011 0.71500000000000008 136.50000000000003 0.75000000000000011
decision_type=2 2 2 2 2 2 2 2 2 2 2 2
left_child=8 3 4 6 9 -5 11 -7 -1 -3 -8 -2
right_child=1 2 -4 5 -6 7 10 -9 -10 -11 -12 -13
leaf_value=-0.025961171719303688 -0.011774669519609976 0.010689172532208363 0.0041238743091849975 -0.0056080544260028991 0.02627961463649546 0 -0.00018514064883857226 0.013647881381405722 0 0 0.0067164827876674419 0
leaf_weight=21.538001602864828 0.66102398945077023 2.1584870673687031 2.1908224318176499 0.26901720865862611 16.202696315012872 0.7133721518184738 0.21259081849711925 6.3157934365153778 0.061046607792376473 0.72416307020466764 0.80569451139308512 0.22063712586532347
leaf_count=87102 141 61 28 18 147 97 66 265 1 22 32 20
internal_value=0 0.0185375 0.0225866 0.00758102 0.0242458 0.0105293 -0.00243528 0.0121421 -0.0258177 0.00821721 0.00441138 -0.0100792
internal_weight=52.0733 30.4743 21.2762 9.19813 19.0853 7.29818 1.89995 7.02917 21.599 2.88265 1.01829 0.881661
internal_count=88000 897 258 639 230 380 259 362 87103 83 98 161
is_linear=0
shrinkage=0.03


Tree=73
num_leaves=12
num_cat=0
split_feature=56 56 2 0 16 30 0 58 11 0 0
split_gain=27.8948 1.10999 0.488059 0.470499 0.518169 0.317184 0.253239 0.0753514 0.028553 0.0269881 0.023944
threshold=0.43230000000000007 0.58828541666666678 4.541666666666667 7.3500000000000005 0.34312500000000007 0.36500000000000005 7.0500000000000007 0.83607881012506657 0.96666666666666679 4.3500000000000005 6.2500000000000009
decision_type=2 2 2 2 2 2 2 2 2 2 2
left_child=-1 3 9 4 10 -6 -4 8 -5 -3 -2
right_child=1 2 6 7 5 -7 -8 -9 -10 -11 -12
leaf_value=-0.025792846094821388 -0.0079932700828317053 0.007521732537328683 0.027361445155938954 -0.012224012075323048 -0.0015644998505218543 0.013952209436013411 0.0093671389019428595 0 0 0 0
leaf_weight=21.101205093320459 0.40389765890722706 1.3749905566219269 12.941174469422547 0.21045951038831923 0.73416394635569204 10.323868522129485 2.7864302108064285 0.16389546013670042 0.056888712395448238 1.0592142518144099 0.18514618383778725
leaf_count=87101 106 26 98 157 100 333 28 4 2 27 18
internal_value=0 0.0182475 0.0230856 0.00953423 0.0109807 0.0126289 0.0251033 -0.0078127 -0.0110654 0.00566161 -0.00654879
internal_weight=51.3413 30.2401 18.1618 12.0783 11.6471 11.058 15.7276 0.431244 0.267348 2.4342 0.589044
internal_count=88000 899 179 720 557 433 126 163 159 53 124
is_linear=0
shrinkage=0.03


Tree=74
num_leaves=12
num_cat=0
split_feature=68 60 0 16 2 16 71 18 62 2 21
split_gain=27.4115 1.31738 0.618358 0.437196 0.308327 0.238991 0.161451 0.137745 0.126042 0.0541686 0.0271614
threshold=0.29166666666666669 0.47083333333333338 7.2500000000000009 0.33937500000000004 4.1250000000000009 0.71937499999999999 0.87250000000000016 0.50000000000000011 0.59347715689129299 3.7916666666666674 0.95000000000000007
decision_type=2 2 2 2 2 2 2 2 2 2 2
left_child=7 3 4 10 9 6 -5 -1 -6 -3 -2
right_child=1 2 -4 5 8 -7 -8 -9 -10 -11 -12
leaf_value=-0.025846996968071679 -0.0091807319486949378 0.0087390902132479641 0.003900935157422545 -0.00041795591272042926 0.01148298794016955 -0.0019686591936848188 0.011829323497256039 0 0.02806906696728214 0 0
leaf_weight=20.807848744130755 0.49841442385514056 1.6513259452694975 2.3027909570373586 0.49769948897301031 3.2023862568312351 0.7953421089623588 7.2168534694210393 0.060098011046647026 13.082497424504252 0.56759407103527326 0.077827742148656398
leaf_count=87102 257 56 31 47 64 17 312 1 89 18 6
internal_value=0 0.0181932 0.0223633 0.00707595 0.0241893 0.00915251 0.0107377 -0.0257014 0.025834 0.00691084 -0.00803838
internal_weight=50.7607 29.8927 20.8066 9.08614 18.5038 8.5099 7.71455 20.8679 16.2849 2.21892 0.576242
internal_count=88000 897 258 639 227 376 359 87103 153 74 263
is_linear=0
shrinkage=0.03


Tree=75
num_leaves=11
num_cat=0
split_feature=56 75 16 16 0 46 9 87 21 75
split_gain=25.3563 1.32565 0.699459 0.506096 0.408595 0.299079 0.229737 0.179469 0.0640768 0.00848973
threshold=0.43230000000000007 305.00000000000006 0.69500000000000006 0.33937500000000004 7.0500000000000007 0.2255434782608696 0.30000000000000004 0.27450109762702374 0.55000000000000016 151.50000000000003
decision_type=2 2 2 2 2 2 2 2 2 2
left_child=6 2 3 9 -3 -5 -1 8 -4 -2
right_child=1 4 7 5 -6 -7 -8 -9 -10 -11
leaf_value=-0.028230609753289324 -0.0076161481045617513 0.026069950029129152 -0.018227848181963213 -0.00022459285983916649 0.0080922820254330768 0.013655263089564489 -0.013976522840226664 0.0011088322259606767 0 0
leaf_weight=14.466306857604652 0.40333826914138704 12.927756201708691 0.22039768830291073 1.0654028333374288 3.0818371027708045 11.344226725428596 5.7555911763120085 0.20947807678021491 0.046440378297120333 0.10116514106630348
leaf_count=60408 111 94 194 63 35 386 26693 5 2 9
internal_value=0 0.0175672 0.00916688 0.0108929 0.0234648 0.012312 -0.0251647 -0.011278 -0.0165696 -0.00700191
internal_weight=49.6219 29.4 13.3904 12.9141 16.0096 12.4096 20.2219 0.476316 0.266838 0.504503
internal_count=88000 899 770 569 129 449 87101 201 196 120
is_linear=0
shrinkage=0.03


Tree=76
num_leaves=10
num_cat=0
split_feature=68 60 0 14 16 0 4 18 54
split_gain=26.3654 1.3802 0.698076 0.41763 0.409913 0.444375 0.358009 0.137248 0.0190105
threshold=0.29166666666666669 0.47083333333333338 7.3500000000000005 0.50000000000000011 0.33937500000000004 6.8500000000000005 0.55891487029594455 0.50000000000000011 0.24246575342465757
decision_type=2 2 2 2 2 2 2 2 2
left_child=7 4 3 -3 8 6 -6 -1 -2
right_child=1 2 -4 -5 5 -7 -8 -9 -10
leaf_value=-0.025791335894999587 0 0.012593052269568574 0.0024047145080988925 0.027919396996935068 -0.005205766075038783 -0.0076130036463440539 0.012362520253050202 0 -0.0088153549613173114
leaf_weight=20.17080522522156 0.089803941518766806 5.8381488433296971 2.0267883082851759 12.425197578384539 0.37796197441639012 0.45333617972210127 7.6415437859541271 0.060062877833842232 0.4821023519034523
leaf_count=87102 16 140 28 90 49 16 311 1 247
internal_value=0 0.0179461 0.0222739 0.0240839 0.00668787 0.00871899 0.0107165 -0.0256416 -0.0078985
internal_weight=49.5658 29.3349 20.2901 18.2633 9.04475 8.47284 8.01951 20.2309 0.571906
internal_count=88000 897 258 230 639 376 360 87103 263
is_linear=0
shrinkage=0.03


Tree=77
num_leaves=10
num_cat=0
split_feature=67 60 0 14 16 16 30 18 21
split_gain=25.4566 1.40402 0.715081 0.396138 0.392787 0.249854 0.18747 0.135723 0.0265397
threshold=1.0000000180025095e-35 0.47083333333333338 7.3500000000000005 0.50000000000000011 0.33937500000000004 0.71937499999999999 0.51500000000000012 0.50000000000000011 0.95000000000000007
decision_type=2 2 2 2 2 2 2 2 2
left_child=7 4 3 -3 8 6 -6 -1 -2
right_child=1 2 -4 -5 5 -7 -8 -9 -10
leaf_value=-0.025624771174674255 -0.0089820242951851158 0.012514861835134557 0.0020511883630074672 0.027706493434199012 0 -0.0028155559059233289 0.012322158731172967 0 0
leaf_weight=19.776938228271323 0.49453766139049804 5.7819990750722416 1.9914336544461537 12.254050505463963 1.7829378544556655 0.76118366012815375 5.8579204023626517 0.059903774410485222 0.077492345590144396
leaf_count=87096 259 140 28 91 138 17 224 1 6
internal_value=0 0.0176917 0.0220775 0.0239072 0.00637087 0.00838884 0.0100489 -0.0254731 -0.00784255
internal_weight=48.8384 29.0016 20.0275 18.036 8.97407 8.40204 7.64086 19.8368 0.57203
internal_count=88000 903 259 231 644 379 362 87097 265
is_linear=0
shrinkage=0.03


Tree=78
num_leaves=10
num_cat=0
split_feature=56 0 75 62 49 75 9 23 14
split_gain=24.7191 1.12248 1.28918 0.484626 0.385926 0.301058 0.269658 0.0982346 0.0453565
threshold=0.43230000000000007 7.3500000000000005 314.00000000000006 0.62871198183628008 0.55000000000000016 95.500000000000014 0.75000000000000011 0.67558333333333342 0.50000000000000011
decision_type=2 2 2 2 2 2 2 2 2
left_child=-1 2 4 7 5 -2 -6 -3 -4
right_child=1 3 8 -5 6 -7 -8 -9 -10
leaf_value=-0.025461616380065097 -0.0032301419127769835 -0.01912674641015449 0.011119905909278386 0.0056066091764169568 -0.011732640576197707 0.013353949373069983 0.005175646469046862 0 0.027962243486124128
leaf_weight=19.376328536956862 0.38804400380468607 0.21173171242116895 2.7420533185359082 1.764753140567336 0.44215730942960252 11.342865802012964 0.90852189667930361 0.24787655239924788 10.735880273394285
leaf_count=87101 111 139 42 24 49 416 36 23 59
internal_value=0 0.0174193 0.0190886 -0.00132069 0.0106735 0.0123591 -0.00171971 -0.0155927 0.0257477
internal_weight=48.1602 28.7839 26.5595 2.22436 13.0816 11.7309 1.35068 0.459608 13.4779
internal_count=88000 899 713 186 612 527 85 162 101
is_linear=0
shrinkage=0.03


Tree=79
num_leaves=11
num_cat=0
split_feature=56 0 75 86 16 87 4 21 14 30
split_gain=24.6729 1.18775 1.17027 0.782394 0.506718 0.474269 0.254893 0.142137 0.0204314 0.00757583
threshold=0.43230000000000007 7.3500000000000005 314.00000000000006 0.45299145299145305 0.33937500000000004 0.38333719036541136 0.49536997342021788 0.8500000000000002 0.50000000000000011 0.35500000000000004
decision_type=2 2 2 2 2 2 2 2 2 2
left_child=-1 2 4 5 9 7 -6 -3 -4 -2
right_child=1 3 8 -5 6 -7 -8 -9 -10 -11
leaf_value=-0.025631675867821432 0 -0.013186512488752227 0.01120395088551788 -0.018634461267004021 -0.0016874168589620442 0.014927385508667325 0.013293033197924606 0.0019131858460578609 0.027774742401259919 -0.0075481968246625779
leaf_weight=19.124210688845778 0.10929941943323385 0.18288380364538093 2.7276292867027214 0.58794625336304296 0.50321188551606333 1.2827695375308394 12.095448788168142 0.14099396765232086 10.589478458277879 0.39479654270689934
leaf_count=87101 18 156 42 13 67 16 425 1 59 102
internal_value=0 0.0174178 0.0191375 -0.00185624 0.010997 0.00792612 0.012394 -0.00786718 0.0256098 -0.00694996
internal_weight=47.7387 28.6145 26.4199 2.19459 13.1028 1.60665 12.5987 0.323878 13.3171 0.504096
internal_count=88000 899 713 186 612 173 492 157 101 120
is_linear=0
shrinkage=0.03


Tree=80
num_leaves=15
num_cat=0
split_feature=68 60 2 2 14 22 49 54 8 18 21 40 40 63
split_gain=23.9186 1.28809 0.447218 0.286036 0.353797 0.238028 0.265654 0.17099 0.15093 0.132304 0.131402 0.0574089 0.0487993 0.0303174
threshold=0.29166666666666669 0.47083333333333338 4.2083333333333348 7.2083333333333348 0.50000000000000011 0.43675000000000014 0.55000000000000016 0.20410958904109591 0.70000000000000007 0.50000000000000011 0.55000000000000016 0.59950000000000003 0.59650000000000014 0.13750000000000004
decision_type=2 2 2 2 2 2 2 2 2 2 2 2 2 2
left_child=9 5 10 4 -4 8 7 -7 12 -1 -3 -8 -2 -10
right_child=1 2 3 -5 -6 6 11 -9 13 -11 -12 -13 -14 -15
leaf_value=-0.025555193657976753 0 -0.0011816324581071464 0.011501380080781722 0.0062249134567506342 0.028676147377998635 -0.0018660454532841788 -0.0068009481891150485 0.011918974990082565 0 0 0.0089782654336124368 0.0009676449063775232 -0.0098141155663101342 0.0058013970161396649
leaf_weight=18.804602398253341 0.3051594778662563 0.86532709346647907 4.1393347427365397 2.0530497720465055 10.623575865582096 0.22858075672411526 0.33190361282322545 5.8936025173752551 0.27267823036527261 0.058692011982201531 1.6746419006958602 0.52032699671690352 0.61571997686405666 0.69311303843278438
leaf_count=87102 40 37 86 26 66 17 17 313 70 1 43 33 121 28
internal_value=0 0.0172681 0.0215782 0.0234303 0.025086 0.0063155 0.00868842 0.0107933 -0.00138823 -0.0253997 0.00531347 -0.00247651 -0.0076257 0.00388683
internal_weight=47.0803 28.217 19.3559 16.816 14.7629 8.86108 6.97441 6.12218 1.88667 18.8633 2.53997 0.852231 0.920879 0.965791
internal_count=88000 897 258 178 152 639 380 330 259 87103 80 50 161 98
is_linear=0
shrinkage=0.03


Tree=81
num_leaves=15
num_cat=0
split_feature=56 7 14 59 22 14 1 62 4 21 71 9 0 24
split_gain=22.5146 1.27445 0.78982 0.600184 0.689208 0.485624 0.309353 0.266374 0.234999 0.135897 0.0922404 0.091552 0.0162395 0.00597285
threshold=0.43230000000000007 0.64488487702773434 0.50000000000000011 0.57835937500000012 0.4921666666666667 0.50000000000000011 0.99850000000000005 0.59347715689129299 0.50890215553677109 0.65000000000000002 0.92250000000000021 0.30000000000000004 5.1500000000000012 0.96750000000000014
decision_type=2 2 2 2 2 2 2 2 2 2 2 2 2 2
left_child=11 3 6 4 9 12 10 -4 -6 -2 -3 -1 -5 -8
right_child=1 2 7 5 8 -7 13 -9 -10 -11 -12 -13 -14 -15
leaf_value=-0.027939177069383748 -0.011281475399424663 -0.0081822254655784799 0.0078617160688930869 0 -0.00019146318917095029 -0.020432958026610645 0.00065259172739049495 0.027061946174091068 0.015809268810884496 0.0010403281609233119 0.0021962739121772061 -0.014152100081784282 0.0044481432408325586 0.01223629038681125
leaf_weight=13.056601904667334 0.65250252198893821 0.4060482775457811 2.2752116627525529 0.35020906104909932 0.52497419039718796 0.42201436043251306 0.72670561759150576 11.493943007779306 4.108026762623922 0.54430117679294199 0.34465557476505637 5.2550543378165449 0.59931422624504194 5.4304766495188233
leaf_count=60408 263 30 54 25 45 25 36 90 120 30 15 26693 31 135
internal_value=0 0.0167687 0.020488 0.00452753 0.00884741 -0.00855742 0.00939071 0.0248396 0.0137515 -0.00638932 -0.00317094 -0.0250756 0.00295545 0.0115705
internal_weight=46.19 27.8784 20.677 7.20134 5.8298 1.37154 6.90789 13.7692 4.633 1.1968 0.750704 18.3117 0.949523 6.15718
internal_count=88000 899 360 539 458 81 216 144 165 293 45 87101 56 171
is_linear=0
shrinkage=0.03


Tree=82
num_leaves=10
num_cat=0
split_feature=56 56 7 71 16 4 82 14 51
split_gain=22.4983 1.20218 0.440076 0.423731 0.36544 0.282433 0.228127 0.222574 0.0943054
threshold=0.43230000000000007 0.58828541666666678 0.64488487702773434 0.83250000000000013 0.32187500000000008 0.41310856547774022 1.0000000180025095e-35 0.50000000000000011 3.5000000000000004
decision_type=2 2 2 2 2 2 2 2 2
left_child=-1 3 6 8 -5 -6 -3 -4 -2
right_child=1 2 7 4 5 -7 -8 -9 -10
leaf_value=-0.025207887354443008 -0.012356502994325167 -0.0019850740586206945 0.0093799623344227711 -0.0064885345619121607 -0.0045879600802406035 0.01170554219500816 0.011522239993703278 0.026831842097465829 2.4699068353345888e-06
leaf_weight=18.122495767289365 0.18399234056414648 1.1694544714409887 2.8659900637576348 0.34872819150041401 0.25276319280964976 10.555990208435105 1.2345412904396651 10.858725736849008 0.22565750032663345
leaf_count=87101 59 35 59 95 57 493 18 67 16
internal_value=0 0.0167982 0.0221204 0.00796866 0.0094403 0.0107142 0.00541728 0.0242758 -0.00824813
internal_weight=45.8183 27.6958 16.1287 11.5671 11.1575 10.8088 2.404 13.7247 0.40965
internal_count=88000 899 179 720 645 550 53 126 75
is_linear=0
shrinkage=0.03


Tree=83
num_leaves=14
num_cat=0
split_feature=56 56 7 71 22 82 16 14 21 79 62 8 7
split_gain=20.9276 1.29189 0.562163 0.40068 0.434578 0.227088 0.224203 0.196695 0.181693 0.0708404 0.0664225 0.0179531 0.00154993
threshold=0.43230000000000007 0.58828541666666678 0.64488487702773434 0.83250000000000013 0.43675000000000014 1.0000000180025095e-35 0.35812500000000008 0.50000000000000011 0.55000000000000016 1.0000000180025095e-35 0.49916147013495421 0.70000000000000007 0.57884139296913684
decision_type=2 2 2 2 2 2 2 2 2 2 2 2 2
left_child=9 3 5 10 8 -3 -6 -4 -5 11 -2 12 -1
right_child=1 2 7 4 6 -7 -8 -9 -10 -11 -12 -13 -14
leaf_value=-0.026145624092040458 0 -0.0031793666016747563 0.0093827401536838492 -0.0071637815989401563 -0.0014832343357630753 0.010426785496545982 0.013413892274815686 0.026589692471753835 0.0041833753526712451 -0.0073218775682726825 -0.011252590365098286 -0.00076550430199729281 0
leaf_weight=15.509232409778631 0.15516886245313699 1.0953515059081849 2.8309790402417994 1.1231247901159807 0.41562270226131648 1.1403404455631969 7.3980199458019342 10.721149195218457 2.1179246724641416 1.6586301465722488 0.24971424818068044 0.333422284289555 0.13649176759645421
leaf_count=75817 36 35 59 244 75 18 236 67 90 8686 39 1862 736
internal_value=0 0.0162806 0.0218171 0.00727337 0.00874218 0.00391106 0.0122027 0.0240932 0 -0.0246749 -0.00837161 -0.0257621 -0.0260366
internal_weight=44.8852 27.2474 15.7878 11.4596 11.0547 2.23569 7.81364 13.5521 3.24105 17.6378 0.404883 15.9791 15.6457
internal_count=88000 899 179 720 645 53 311 126 334 87101 75 78415 76553
is_linear=0
shrinkage=0.03


Tree=84
num_leaves=17
num_cat=0
split_feature=68 2 62 9 19 0 16 57 65 7 28 38 18 62 62 16
split_gain=19.2598 1.2957 0.860317 0.569969 0.461331 0.45764 0.546017 0.417067 0.192909 0.187817 0.174048 0.0997286 0.043197 0.0215001 0.00604476 0.00214108
threshold=0.29166666666666669 4.541666666666667 0.51356191423029551 0.30000000000000004 0.37500000000000006 7.2500000000000009 0.38437500000000008 0.8307500000000001 0.36038961038961043 0.66832924150407036 0.38247358799554004 0.90500000000000014 0.50000000000000011 0.44559830818033364 0.45846899755168202 0.59312500000000012
decision_type=2 2 2 2 2 2 2 2 2 2 2 2 2 2 2 2
left_child=3 4 9 -1 10 6 -4 8 -6 13 15 -12 -5 -3 -11 -2
right_child=1 2 5 12 7 -7 -8 -9 -10 14 11 -13 -14 -15 -16 -17
leaf_value=-0.027782649188681174 0 0 0 -0.011117066506421877 0 0.0042938802497507382 0.024723538189857008 -0.0070367239876809222 0.012696143927723356 0 -0.017947478178350056 0 0 -0.010309321460320899 0.0058550755415497395 0.0012951807706456165
leaf_weight=12.299779846362073 0.20998375727504281 0.22697193062049592 1.0229012403870026 4.8991270136102676 1.4637338674219789 2.1995027016964732 14.660436525446128 0.66028504297719326 4.0457737830438418 0.40765512516372815 0.297160527727101 0.12068661140801851 0.055247884243726619 0.22405808049370535 0.85900500627758447 0.26599457539850846
leaf_count=60653 49 19 107 26449 135 34 196 38 147 22 67 17 1 27 31 8
internal_value=0 0.0157825 0.0196495 -0.0239184 0.00357401 0.0214995 0.0233307 0.00695252 0.00991337 0 -0.00951974 -0.0152115 -0.0107663 -0.00873624 0.00507112 0.000365086
internal_weight=43.9183 26.6641 19.6005 17.2542 7.06362 17.8828 15.6833 6.16979 5.50951 1.71769 0.893825 0.417847 4.95437 0.45103 1.26666 0.475978
internal_count=88000 897 436 87103 461 337 303 320 282 99 141 84 26450 46 53 57
is_linear=0
shrinkage=0.03


Tree=85
num_leaves=15
num_cat=0
split_feature=75 51 0 2 22 71 14 49 16 78 67 58 59 75
split_gain=19.6771 1.61646 0.755251 0.502913 0.449813 0.514762 0.327102 0.199207 0.163785 0.10173 0.0756621 0.0472995 0.0410364 0.00721637
threshold=95.500000000000014 5.5000000000000009 7.2500000000000009 4.1250000000000009 0.41925000000000007 0.83250000000000013 0.50000000000000011 0.70000000000000007 0.61812500000000004 0.75000000000000011 4.5000000000000009 0.57234164262626408 0.7070512820512822 198.50000000000003
decision_type=2 2 2 2 2 2 2 2 2 2 2 2 2 2
left_child=10 4 3 8 9 11 -5 -7 -3 12 -1 -6 -2 -11
right_child=1 2 -4 6 5 7 -8 -9 -10 13 -12 -13 -14 -15
