tree
version=v4
num_class=1
num_tree_per_iteration=1
label_index=0
max_feature_idx=81
objective=lambdarank
feature_names=Column_0 Column_1 Column_2 Column_3 Column_4 Column_5 Column_6 Column_7 Column_8 Column_9 Column_10 Column_11 Column_12 Column_13 Column_14 Column_15 Column_16 Column_17 Column_18 Column_19 Column_20 Column_21 Column_22 Column_23 Column_24 Column_25 Column_26 Column_27 Column_28 Column_29 Column_30 Column_31 Column_32 Column_33 Column_34 Column_35 Column_36 Column_37 Column_38 Column_39 Column_40 Column_41 Column_42 Column_43 Column_44 Column_45 Column_46 Column_47 Column_48 Column_49 Column_50 Column_51 Column_52 Column_53 Column_54 Column_55 Column_56 Column_57 Column_58 Column_59 Column_60 Column_61 Column_62 Column_63 Column_64 Column_65 Column_66 Column_67 Column_68 Column_69 Column_70 Column_71 Column_72 Column_73 Column_74 Column_75 Column_76 Column_77 Column_78 Column_79 Column_80 Column_81
feature_infos=[1:16.600000000000001] [0:1] [0:25.75] [0:15] [0:1] [0:1] [0:1] [0.25:1] [0.25:1] [0.10000000000000001:1] [0:1] [0:1] [0.22222222222222221:1] [0.59999999999999998:0.90000000000000002] [0:1] [0:14] [0:1] [0:1] [0:1] [0:1] [0:1] [0:1] [0:0.93900000000000006] [0:0.93900000000000006] [0.02:1] [0:0.94999999999999996] [0.34999999999999998:1] [0:1] [0.049787068367863944:0.71653131057378927] [0.55000000000000004:1] [0.02:0.94999999999999996] [0.29999999999999999:1] [0.30000000000000004:1] [0.65000000000000002:1] [0.5:1] [0:1] [0:1] [0:1] [0.29999999999999999:1] [0:0.93000000000000005] [0.25:0.99900000000000011] [0:1] [0.02:1] [0:1] [0:10] [0.72222222222222221:1] [0:1] [0:1] [0.095890410958904104:1] [0:1] [0:0.95599999999999996] [0.27500000000000002:0.9544999999999999] [0.38495741367357278:0.94330626211475788] [0:0.92000000000000015] [0:1] [0.0044000000000000003:0.99999999999999989] [0.20000000000000001:0.86594556741329332] [0:0.32500000000000001] [0:13] [0:0.7857142857142857] [0:1] [0:5] [0:2] [0.10000000000000001:1] [0.20000000000000001:1] [0.25:1] [0.59999999999999998:1] [0.5:1] [0.5:1] [0:718] [0:1] [4.2857142857142856:58.882352941176471] [0.29999999999999999:1] [0:1] [0:2] [0:1] [0:3] [5:23] [0:12] [0:13] [0:0.7142857142857143] [0:1]
tree_sizes=468 1054 2052 1316 2181 1312 1212 1952 2086 1521 1531 1423 1292 1640 1424 1730 1420 1531 1422 1746 2613 1415 1620 1525 1628 2580 1619 1714 1736 1607 2591 1710 2592 1497 1837 1632 1298 1413 1851 1634 1634 2677 2679 1531 1421 2891 2658 1521 2384 1505 1530 1308 2669 1526 1525 1532 1511 2772 1527 1522 2780 2772 1517 2868 1417 1419 1419 1401 1415 2891 1291 1417 1621 1289 1316 1302 1377 1489 2860 1406 1305 2705 1309 1305 1382 1417 1303 1419 1415 2658 1312 1303 1419 1418 2546 1305 2307 2483 1292 1204 1313 1411 1511 1474 1516 1517 1418 2439 1397 1313 1319 2577 1311 1527 2134 1628 2321 1320 1323 2422 1424 1407 1536 1639 1616 2879 1432 2441 1417 1404 1411 2873 1404 1530 1423 1435 1642 1522 1408 1532 1429 1421 2337 1431 3006 1319 1329 1433 1285 1393 2437 1504 1387 1304 1392 1390 2651 1389 960 1000 1607 975 1205 2232 975 1325 999 2399 1196 956 864 1205 1394 1839 1347 1594 1609 1615 1960 1502 1770 2653 1615 2940 1971 1686 1740 1931 1669 1790 2115 1907 2123 1840 1928 1594 2097 1542 2019 1783

Tree=0
num_leaves=3
num_cat=0
split_feature=9 4
split_gain=1656.32 253.721
threshold=0.30000000000000004 1.0000000180025095e-35
decision_type=2 2
left_child=-1 -2
right_child=1 -3
leaf_value=-0.059723225107058069 -0.056673705449327851 0.057686685205139615
leaf_weight=226.62180243429611 17.939994351152563 253.31705749881803
leaf_count=55205 4242 20553
internal_value=0 0.0499319
internal_weight=497.879 271.257
internal_count=80000 24795
is_linear=0
shrinkage=0.03


Tree=1
num_leaves=9
num_cat=0
split_feature=9 2 0 50 73 0 24 24
split_gain=1736.02 194.541 60.4217 33.7936 8.20468 3.5798 2.52228 1.44355
threshold=0.30000000000000004 1.0000000180025095e-35 8.7500000000000018 0.43145000000000006 0.29166666666666669 9.7500000000000018 0.20250000000000004 0.12250000000000001
decision_type=2 2 2 2 2 2 2 2
left_child=-1 -2 3 7 6 -6 -4 -3
right_child=1 2 4 -5 5 -7 -8 -9
leaf_value=-0.056487761478509126 -0.054179917608937297 0 -0.015562070370947459 0.054360586610572109 0 -0.027600261391116088 0.01579762674321265 0.034339300030399644
leaf_weight=314.4285486843437 22.175024966476485 0.96506008825963263 1.5553940562240303 99.325491796756978 13.396208777819995 5.0395502028113688 48.844308220330277 378.77396746993691
leaf_count=55205 4242 34 61 567 416 97 1987 17391
internal_value=0 0.0312005 0.034754 0.0385272 0.0082758 -0.00842315 0.0144875 0.034246
internal_weight=884.504 570.075 547.9 479.065 68.8355 18.4358 50.3997 379.739
internal_count=80000 24795 20553 17992 2561 513 2048 17425
is_linear=0
shrinkage=0.03


Tree=2
num_leaves=18
num_cat=0
split_feature=50 15 73 77 2 57 35 24 71 57 2 2 15 2 2 24 43
split_gain=1477.23 101.844 36.8573 22.6827 21.1276 16.7605 13.792 9.87309 8.94718 10.4486 8.56805 1.96494 1.80799 1.68829 0.625559 0.449293 0.342949
threshold=0.41595000000000004 1.0000000180025095e-35 0.22500000000000003 11.500000000000002 1.0000000180025095e-35 0.16250000000000001 0.80500000000000016 0.96750000000000014 21.343137254901965 0.16250000000000001 8.6250000000000018 3.7916666666666674 3.5000000000000004 0.62500000000000011 7.291666666666667 0.21250000000000002 0.55000000000000016
decision_type=2 2 2 2 2 2 2 2 2 2 2 2 2 2 2 2 2
left_child=1 2 3 6 -3 10 -1 -7 9 -2 -6 16 -10 -5 -14 -13 -4
right_child=8 4 11 13 5 7 -8 -9 12 -11 -12 15 14 -15 -16 -17 -18
leaf_value=-0.048259993542422067 0.03578458950541543 -0.050387956750305926 -0.0057456498659582593 -0.035058809995729565 -0.010428069637865767 -0.050117361273166933 -0.015499895226318764 0.018995871873622294 0.0352720962533545 -0.034949576065530834 -0.045227032512513032 0 0.053362194528638107 -0.0094487349568041813 0.036853261660302526 -0.017307866217768135 0.0028202725070720432
leaf_weight=236.77942095627077 4.6976277984213075 13.9103709498886 6.1469898808281895 2.1123722956981537 247.96672426490113 14.323194870259609 13.691008533816783 1.5247551258653409 14.937774233520029 1.8438344495370982 5.7068367335014036 1.1332099800929416 289.05715867970139 19.480953349033371 13.062461617402731 14.094338899943976 8.9321287549100798
leaf_count=49668 17 3393 360 480 16849 3273 1095 38 41 342 1176 66 554 1190 22 984 452
internal_value=0 -0.0284065 -0.0405086 -0.0439992 -0.0153881 -0.0133911 -0.04655 -0.042557 0.0513526 0.0134585 -0.0113972 -0.00867346 0.0520802 -0.0135277 0.0527822 -0.0159287 -0.000625208
internal_weight=909.401 585.802 302.37 272.064 283.432 269.522 250.47 15.8479 323.599 6.54146 253.674 30.3067 317.057 21.5933 302.12 15.2275 15.0791
internal_count=80000 79024 54295 52433 24729 21336 50763 3311 976 359 18025 1862 617 1670 576 1050 812
is_linear=0
shrinkage=0.03


Tree=3
num_leaves=11
num_cat=0
split_feature=9 50 15 2 0 2 0 56 16 16
split_gain=1375.92 299.935 86.7211 45.2181 36.7818 31.4907 25.1044 1.5797 0.135837 0.0334085
threshold=0.30000000000000004 0.36922500000000003 1.0000000180025095e-35 1.0000000180025095e-35 8.7500000000000018 1.0000000180025095e-35 8.7500000000000018 0.42105388528162818 0.32750000000000007 0.41250000000000003
decision_type=2 2 2 2 2 2 2 2 2 2
left_child=-1 2 3 -2 -5 -4 -7 9 -9 -3
right_child=1 7 5 4 -6 6 -8 8 -10 -11
leaf_value=-0.052384558004632417 -0.045854768410896793 0.013341061857872236 -0.048995041400312023 0.031841774800436595 -0.04428462814160903 -0.00078914052509803029 -0.047542747806093758 0.039811780852679668 0.050349073352721048 0.03219043948973338
leaf_weight=297.4069883339107 6.9435078073292962 3.1942780232056966 14.603323351591824 118.9905529365642 5.117433905019424 143.5592470515985 10.154628749703987 27.673732705414295 247.1700797136873 4.144523227121681
leaf_count=55205 1321 30 2899 4748 887 12429 1666 166 624 25
internal_value=0 0.0268335 0.00586503 0.0240782 0.0283499 -0.00835641 -0.00418449 0.0489693 0.0494471 0.0269296
internal_weight=878.958 581.551 299.369 131.051 124.108 168.317 153.714 282.183 274.844 7.3388
internal_count=80000 24795 23950 6956 5635 16994 14095 845 790 55
is_linear=0
shrinkage=0.03


Tree=4
num_leaves=19
num_cat=0
split_feature=50 73 35 77 15 69 71 15 2 0 69 4 2 57 7 2 77 4
split_gain=1014.89 261.624 149.932 113.186 110.659 81.8508 59.0685 57.9096 15.6591 11.7051 3.90804 2.41661 1.77114 0.724846 0.677275 0.62842 0.24264 0.151885
threshold=0.36922500000000003 0.22500000000000003 0.80500000000000016 11.500000000000002 1.0000000180025095e-35 8.5000000000000018 17.256578947368425 1.0000000180025095e-35 1.0000000180025095e-35 8.7500000000000018 15.500000000000002 0.41898326898326904 0.95833333333333337 0.16250000000000001 0.36159907745531433 3.7916666666666674 16.500000000000004 0.25078616352201261
decision_type=2 2 2 2 2 2 2 2 2 2 2 2 2 2 2 2 2 2
left_child=1 2 3 10 9 -5 -2 8 -4 15 -1 14 -9 16 17 -3 -6 -8
right_child=6 4 7 5 13 -7 11 12 -10 -11 -12 -13 -14 -15 -16 -17 -18 -19
leaf_value=-0.050003097508734828 -0.04290240713334148 0.042374352049941874 -0.035251863011013788 0.025716623775403236 -0.02482483850118572 -0.035631696448100145 -0.0024568009487110423 -0.042329646006609933 0.03351167150084941 -0.030227631474216136 -0.033163408729089267 0.047652319512089536 -0.02056895540459458 0.0046220735140367246 0.027837574779507268 0.031039960341118219 -0.0066770865205966782 0.0084135797482538729
leaf_weight=286.38608379324432 5.9221362229436627 49.842881096992642 2.3749940767884246 34.576582413981669 37.441772277001292 42.534111557877623 1.0106100505217903 5.6624251563334864 39.699480146286078 1.5213750626426179 22.631749353604391 282.61784513574094 21.344910472864285 0.32615511934272845 2.5893891751766205 26.493180639808998 2.0428552455268791 1.3444791436195371
leaf_count=52855 1087 754 432 1535 5360 6826 35 1098 1182 318 3680 810 2949 12 19 790 245 13
internal_value=0 -0.0232328 -0.0335281 -0.0407957 0.0165175 -0.00810753 0.045275 0.00705323 0.0288322 0.037176 -0.0488904 0.0472437 -0.0265869 -0.0237314 0.0192962 0.0389317 -0.0241481 0.00351281
internal_weight=866.363 572.879 455.21 386.129 117.668 77.1107 293.484 69.0818 42.0745 77.8574 309.018 287.562 27.0073 39.8108 4.94448 76.3361 39.4846 2.35509
internal_count=80000 78036 70557 64896 7479 8361 1964 5661 1614 1862 56535 877 4047 5617 67 1544 5605 48
is_linear=0
shrinkage=0.03


Tree=5
num_leaves=11
num_cat=0
split_feature=9 50 15 2 0 77 35 73 7 7
split_gain=1251.85 219.106 169.16 48.1878 24.1837 20.2209 15.869 3.19868 0.399783 0.533239
threshold=0.30000000000000004 0.36922500000000003 1.0000000180025095e-35 1.0000000180025095e-35 8.7500000000000018 16.500000000000004 0.80500000000000016 0.22500000000000003 0.41676528599605533 0.37016949152542383
decision_type=2 2 2 2 2 2 2 2 2 2
left_child=-1 2 3 -2 -5 6 -4 -7 9 -3
right_child=1 8 5 4 -6 7 -8 -9 -10 -11
leaf_value=-0.048777180250700658 -0.04361614863733642 0.0044124107752367232 -0.036907426672648125 0.031853715865627193 -0.038253906621823784 -0.0074967801817434118 -0.011944354039660739 0.029429712775634415 0.045598324937242377 0.030346310201652141
leaf_weight=304.33048399537802 7.5454286779277018 1.6517246952280391 53.612748343031853 154.43221008987166 3.71204550564289 2.3036071937531215 42.622413564939052 6.4490997805260122 277.27360330894589 3.6044475436210632
leaf_count=55205 1321 44 10437 4748 887 316 5994 247 783 18
internal_value=0 0.0268729 0.00752334 0.0263491 0.0299592 -0.0221271 -0.0261187 0.0196313 0.0453083 0.0246842
internal_weight=857.538 553.207 270.678 165.69 158.144 104.988 96.2352 8.75271 282.53 5.25617
internal_count=80000 24795 23950 6956 5635 16994 16431 563 845 62
is_linear=0
shrinkage=0.03


Tree=6
num_leaves=10
num_cat=0
split_feature=9 50 16 2 77 0 70 73 54
split_gain=1174.64 193.656 218.754 45.8642 30.693 20.3468 16.6278 3.97354 1.42996
threshold=0.30000000000000004 0.36922500000000003 1.0000000180025095e-35 1.0000000180025095e-35 16.500000000000004 8.7500000000000018 0.14166666666666669 0.22500000000000003 0.29583333333333334
decision_type=2 2 2 2 2 2 2 2 2
left_child=-1 2 3 -2 6 -5 -4 -6 -3
right_child=1 8 4 5 7 -7 -8 -9 -10
leaf_value=-0.047268745330583152 -0.042224730489099589 0.034314796098280705 -0.0082889066065087863 0.031285155325784728 -0.013192207852135674 -0.035810167604643728 -0.044268530309538097 0.028747415124684591 0.044688610774341012
leaf_weight=303.35917503526434 7.4602295756340018 35.640509902499616 15.075380122172644 169.38763391540851 1.945582635817116 3.3314743053633711 61.854454469401389 7.1102037618402392 246.01003192085773
leaf_count=55205 1321 235 2132 4748 316 887 14299 247 610
internal_value=0 0.026214 0.00780353 0.0265608 -0.0313205 0.029775 -0.0374532 0.0190227 0.0435126
internal_weight=851.175 547.816 266.165 180.179 85.9856 172.719 76.9298 9.05579 281.651
internal_count=80000 24795 23950 6956 16994 5635 16431 563 845
is_linear=0
shrinkage=0.03


Tree=7
num_leaves=17
num_cat=0
split_feature=62 73 35 37 2 15 16 77 16 15 77 0 54 16 2 16
split_gain=717.205 231.796 160.983 68.3837 32.6322 30.0462 39.9095 22.9013 19.1181 14.7874 13.5666 7.59915 5.08676 1.734 1.48405 0.352495
threshold=1.0000000180025095e-35 0.18333333333333338 0.80500000000000016 0.36100000000000004 1.0000000180025095e-35 1.0000000180025095e-35 0.21312500000000004 11.500000000000002 1.0000000180025095e-35 1.0000000180025095e-35 16.500000000000004 8.7500000000000018 0.21458333333333335 0.32750000000000007 3.7916666666666674 0.20687500000000003
decision_type=2 2 2 2 2 2 2 2 2 2 2 2 2 2 2 2
left_child=1 2 3 7 -4 11 10 -1 -5 -6 -7 14 -8 15 -3 -2
right_child=13 5 4 8 9 6 12 -9 -10 -11 -12 -13 -14 -15 -16 -17
leaf_value=-0.042393949126298638 0.0083295868927263667 0.034803303428737671 -0.041444871276880992 0.017549303465173895 0.028911239585208515 -0.040724963862263167 0 -0.0200238463064897 -0.022790220866353843 -0.0001412493182523347 0.021795445008367123 -0.025939198110665196 0.032305063446334749 0.043694522316978394 0.023250708929349245 0.03170684796372393
leaf_weight=304.67307859857101 1.8531612809747482 49.573412560857832 8.0840623835101706 25.124002773896791 45.352572127943859 17.610181954572912 5.6402422653045532 51.390564174740575 16.753412624588236 23.571409596712328 3.0272904806770375 1.3933883468853299 18.140614910051227 227.86633594892919 28.159890256589279 19.190039090113714
leaf_count=54138 48 761 1441 1417 1157 4616 671 7242 3088 3004 110 362 371 581 808 185
internal_value=0 -0.0177986 -0.0273133 -0.0349849 0.0122315 0.0186809 -0.00102198 -0.0392388 0.00118603 0.0190727 -0.0308318 0.0296534 0.0249267 0.042696 0.0310048 0.0302555
internal_weight=847.404 598.494 474.949 397.941 77.008 123.545 44.4183 356.064 41.8774 68.924 20.6375 79.1267 23.7809 248.91 77.7333 21.0432
internal_count=80000 79186 71487 65885 5602 7699 5768 61380 4505 4161 4726 1931 1042 814 1569 233
is_linear=0
shrinkage=0.03


Tree=8
num_leaves=18
num_cat=0
split_feature=50 73 35 37 15 15 71 15 2 24 0 24 15 54 15 57 2
split_gain=746.187 209.591 116.979 68.7645 61.9664 53.6766 45.9055 36.1824 11.8175 9.66578 7.08941 6.36687 1.09215 1.0706 0.47733 0.441794 0.130501
threshold=0.36922500000000003 0.18333333333333338 0.80500000000000016 0.36100000000000004 1.0000000180025095e-35 1.0000000180025095e-35 17.256578947368425 1.0000000180025095e-35 1.0000000180025095e-35 0.62250000000000016 8.7500000000000018 0.99750000000000016 2.5000000000000004 0.28541666666666671 2.5000000000000004 1.0000000180025095e-35 8.1250000000000018
decision_type=2 2 2 2 2 2 2 2 2 2 2 2 2 2 2 2 2
left_child=1 2 3 9 10 8 -2 -5 -4 -1 16 12 -6 -8 -13 -7 -3
right_child=6 4 5 7 11 15 13 -9 -10 -11 -12 14 -14 -15 -16 -17 -18
leaf_value=-0.041364571964640592 -0.038286649299375641 0.030801297537596938 -0.031493762057467727 0.019554052585523979 -0.035334207040260489 -0.014540901941724636 0.031671164431342748 -0.04010630911967919 0.027431487724167952 -0.018769797291946038 -0.024844902798406142 -0.008204647126971807 -0.012832849911280765 0.04226170764969623 0.0055415088904846015 -0.037398298611676359 0.0067864672667507682
leaf_weight=319.46526855629781 5.8932817485183469 81.358812041347846 2.414861316792666 28.586397614097223 14.659032008727086 3.155826136586259 27.960074600297958 12.241271222170324 45.932373508694582 21.059951554110739 1.3626684548216861 2.5090454513265277 4.5622764294239451 250.03797777416185 5.3382615547743626 15.631992467489907 1.1762303803116072
leaf_count=56949 1087 1539 432 1418 3885 506 234 3079 1157 3310 362 466 857 643 552 3494 30
internal_value=0 -0.0200954 -0.02922 -0.0356359 0.0166879 0.00716871 0.0395329 0.0010633 0.0238489 -0.040035 0.0293627 -0.0221367 -0.0310405 0.0413246 0.000376731 -0.0346394 0.0305803
internal_weight=843.346 559.454 448.488 381.353 110.966 67.1351 283.891 40.8277 48.3472 340.525 83.8977 27.0686 19.2213 277.998 7.84731 18.7878 82.535
internal_count=80000 78036 70345 64756 7691 5589 1964 4497 1589 60259 1931 5760 4742 877 1018 4000 1569
is_linear=0
shrinkage=0.03


Tree=9
num_leaves=13
num_cat=0
split_feature=9 50 15 2 77 0 73 58 4 7 54 4
split_gain=1007.29 151.827 162.154 40.5712 25.7298 6.08027 3.89405 3.83157 0.966153 0.759296 0.418254 0.161296
threshold=0.30000000000000004 0.36922500000000003 1.0000000180025095e-35 1.0000000180025095e-35 16.500000000000004 8.8500000000000032 0.22500000000000003 1.0000000180025095e-35 0.43599383073067288 0.36159907745531433 0.36041666666666666 0.25793850806451618
decision_type=2 2 2 2 2 2 2 2 2 2 2 2
left_child=-1 2 3 -2 7 -5 -6 -4 9 11 -10 -3
right_child=1 8 4 5 6 -7 -8 -9 10 -11 -12 -13
leaf_value=-0.04380453926032829 -0.039911665939096973 -0.0066319086274456646 -0.016161287976046056 0.027206433484569879 -0.017025741782141633 -0.0044491720695363744 0.026304883901706703 -0.038223334314560473 0.035443412448090947 0.024890668580872036 0.041964254054804549 0.006215279049935003
leaf_weight=301.49836000707 7.8499341290444127 0.70330775529146083 11.10034314511722 173.04694401875895 1.5638656900337062 5.2015594723488894 7.3804675948340446 55.762825701254769 70.567346807569265 3.0127983205020428 200.39424400404096 0.81857140362262726
leaf_count=55205 1321 31 1994 4815 316 820 247 14437 371 24 408 11
internal_value=0 0.0246113 0.0081929 0.0232412 -0.0285314 0.0262463 0.0174768 -0.034897 0.0401229 0.0180477 0.0404136 0
internal_weight=838.901 537.402 261.906 186.098 75.8075 178.249 8.94433 66.8632 275.496 4.53468 270.962 1.52188
internal_count=80000 24795 23950 6956 16994 5635 563 16431 845 66 779 42
is_linear=0
shrinkage=0.03


Tree=10
num_leaves=13
num_cat=0
split_feature=9 16 15 21 2 77 0 4 21 16 21 4
split_gain=949.935 128.227 117.402 53.2995 37.5928 21.2818 10.1152 4.232 2.68251 1.47512 1.03115 0.457345
threshold=0.30000000000000004 0.29812500000000003 1.0000000180025095e-35 0.25000000000000006 1.0000000180025095e-35 16.500000000000004 8.8500000000000032 0.27125213506766527 1.0000000180025095e-35 0.36562500000000003 0.55000000000000016 0.16499849864878394
decision_type=2 2 2 2 2 2 2 2 2 2 2 2
left_child=-1 2 4 5 -2 -4 -6 11 9 -9 -5 -3
right_child=1 7 3 10 6 -7 -8 8 -10 -11 -12 -13
leaf_value=-0.042792162760439831 -0.038887077875613588 -0.016436649251431044 -0.037757052397707054 0.0079384633504787794 0.026180851895293202 0.015737820167048992 -0.019286374384479405 0.0032412206587393677 0.039830999934043002 0.027823935084731022 0.032013847599930187 0.0059959889710904327
leaf_weight=298.62019600113854 7.742320920340716 0.82790153450332471 59.738133875835047 3.1326408479799275 178.67844321144366 6.8865468402727847 3.7576622049527932 3.552610730403102 249.32726424874272 9.0770888442202686 12.474036158528177 0.52035329258069396
leaf_count=55205 1321 101 15849 77 4815 444 820 377 683 213 71 24
internal_value=0 0.0238887 0.0093903 -0.0203771 0.0223164 -0.0320323 0.025128 0.0387847 0.0390631 0.0218743 0.028131 -0.00763484
internal_weight=834.335 535.715 272.41 82.2314 190.178 66.6247 182.436 263.305 261.957 12.6297 15.6067 1.34825
internal_count=80000 24795 23397 16441 6956 16293 5635 1398 1273 590 148 125
is_linear=0
shrinkage=0.03


Tree=11
num_leaves=12
num_cat=0
split_feature=9 50 15 4 77 0 73 54 62 24 56
split_gain=898.403 138.017 151.586 34.7681 25.1754 8.71518 2.81512 1.28299 1.1348 0.389281 0.0815932
threshold=0.30000000000000004 0.36922500000000003 1.0000000180025095e-35 1.0000000180025095e-35 16.500000000000004 8.8500000000000032 0.22500000000000003 0.35208333333333336 0.41666666666666669 0.65250000000000019 0.43462083786227729
decision_type=2 2 2 2 2 2 2 2 2 2 2
left_child=-1 2 3 -2 8 -5 -6 9 -4 -3 -11
right_child=1 7 4 5 6 -7 -8 -9 -10 10 -12
leaf_value=-0.041876403333715874 -0.037967449889772215 0.01193249169490114 -0.038005564324469512 0.024851250214979734 -0.012848875989435375 -0.017283617637433715 0.022875200929234927 0.039670464062407866 -0.0011763219772771289 0.014779533911661261 0.033397265152920491
leaf_weight=295.57064591581002 7.6508127688430241 2.8074951693415633 58.559170047752559 180.17802538411343 1.7887016027671032 3.7801685050362712 7.1588143338449299 211.30180556885898 0.99893756388337251 3.0827579200267783 56.343698452226818
leaf_count=55205 1321 22 16300 4815 316 820 247 449 131 43 331
internal_value=0 0.0232288 0.00752277 0.021211 -0.0304742 0.0238804 0.0148583 0.0380716 -0.037467 0.0320539 0.0327417
internal_weight=829.221 533.65 260.115 191.609 68.5056 183.958 8.94752 273.536 59.5581 62.234 59.4265
internal_count=80000 24795 23950 6956 16994 5635 563 845 16431 396 374
is_linear=0
shrinkage=0.03


Tree=12
num_leaves=11
num_cat=0
split_feature=9 50 15 4 77 0 73 62 50 69
split_gain=853.424 133.623 139.988 32.2449 21.9829 7.70537 2.09727 1.54198 1.08338 0.0161231
threshold=0.30000000000000004 0.36922500000000003 1.0000000180025095e-35 1.0000000180025095e-35 16.500000000000004 8.8500000000000032 0.22500000000000003 0.41666666666666669 0.45361041666666674 93.500000000000014
decision_type=2 2 2 2 2 2 2 2 2 2
left_child=-1 2 3 -2 7 -5 -6 -4 9 -3
right_child=1 8 4 5 6 -7 -8 -9 -10 -11
leaf_value=-0.041046332815564406 -0.03713346881239793 0.015754043487966371 -0.03734309005541734 0.023591829676765697 -0.010165371343508147 -0.01607378163607228 0.020345318568869692 0 0.038572423998348176 0.031414517900310919
leaf_weight=292.74025269830599 7.5666235308162859 4.0171780474483958 56.68532125546335 181.15971416635875 1.9045948931161527 3.7685578463278935 6.7814112319611013 1.1508139521902183 225.07919725868851 43.013597742188722
leaf_count=55205 1321 55 16300 4815 316 820 247 131 512 278
internal_value=0 0.022658 0.0071758 0.0201386 -0.030033 0.0226853 0.0129867 -0.0366557 0.0373041 0.0304952
internal_weight=823.867 531.127 259.017 192.495 66.5221 184.928 8.68601 57.8361 272.11 47.0308
internal_count=80000 24795 23950 6956 16994 5635 563 16431 845 333
is_linear=0
shrinkage=0.03


Tree=13
num_leaves=14
num_cat=0
split_feature=9 50 15 4 77 0 4 73 62 54 30 7 4
split_gain=810.461 129.468 128.533 29.8228 19.5626 7.02826 2.35646 1.52765 1.35583 1.32962 0.846723 0.346068 0.129523
threshold=0.30000000000000004 0.36922500000000003 1.0000000180025095e-35 1.0000000180025095e-35 16.500000000000004 8.8500000000000032 0.41596460176991151 0.22500000000000003 0.41666666666666669 0.33958333333333335 0.42500000000000004 0.36159907745531433 0.26441531300465476
decision_type=2 2 2 2 2 2 2 2 2 2 2 2 2
left_child=-1 2 3 -2 8 -5 11 -6 -4 10 -8 12 -3
right_child=1 6 4 5 7 -7 9 -9 -10 -11 -12 -13 -14
leaf_value=-0.040296460478507871 -0.036360023756368806 -0.0081231587328026642 -0.036428653681934417 0.022366811655191658 -0.0075771363341123627 -0.015577148094866029 0.019476556923314011 0.01813807939822424 -0.00030617009361839974 0.038323059042727182 0.032967447395794137 0.013492638892306683 0.0030784966566089291
leaf_weight=289.25218933192082 7.4572840400505802 0.69182086735963755 55.230201955491793 181.61612522791256 2.0444039821522875 3.7438746245607026 12.158098850399254 6.4928234140388668 1.1388267493093724 211.63208072260022 44.395499961450696 1.6675435043871401 0.75346219167113304
leaf_count=55205 1321 32 16300 4815 316 820 107 247 131 427 252 17 10
internal_value=0 0.0220673 0.00678303 0.0190754 -0.0294237 0.0215049 0.0364975 0.0115167 -0.0357692 0.0368057 0.0305081 0.00672221 -0.0021858
internal_weight=818.274 529.022 257.724 192.817 64.9063 185.36 271.299 8.53723 56.369 268.186 56.5536 3.11283 1.44528
internal_count=80000 24795 23950 6956 16994 5635 845 563 16431 786 359 59 42
is_linear=0
shrinkage=0.03


Tree=14
num_leaves=12
num_cat=0
split_feature=9 50 15 2 77 0 50 7 61 56 22
split_gain=773.003 125.028 118.093 27.8721 18.5045 7.0877 1.23391 1.0086 0.825586 0.710873 0.573708
threshold=0.30000000000000004 0.36922500000000003 1.0000000180025095e-35 1.0000000180025095e-35 16.500000000000004 8.8500000000000032 0.39687500000000003 0.38467648423005579 1.0000000180025095e-35 0.42332885577442431 0.52575000000000005
decision_type=2 2 2 2 2 2 2 2 2 2 2
left_child=-1 2 3 -2 8 -5 -3 -6 -4 -8 -11
right_child=1 6 4 5 7 -7 9 -9 -10 10 -12
leaf_value=-0.039618721756374105 -0.035665814198418931 0.02011220563036473 -0.035446492580529357 0.021400014387683526 -0.01098810391446148 -0.017436908389636359 0.017576868356384286 0.014474658876874035 -0.0027710876166537534 0.032253087559137056 0.038364214584686217
leaf_weight=285.96787435561419 7.364795171422883 9.3313170131295902 53.964232935191831 182.26012903540686 0.77040061890147438 3.5360404464954618 5.142498009838163 7.8457344716080115 1.0867042620884593 79.875509632751346 174.84651201078668
leaf_count=55205 1321 133 16292 4815 110 820 39 453 139 264 409
internal_value=0 0.0215726 0.00654255 0.0182237 -0.0285847 0.0205554 0.0358238 0.01098 -0.0349159 0.0362972 0.0365932
internal_weight=811.992 526.024 256.828 193.161 63.6671 185.796 269.196 8.61614 55.0509 259.865 254.722
internal_count=80000 24795 23950 6956 16994 5635 845 563 16431 712 673
is_linear=0
shrinkage=0.03


Tree=15
num_leaves=15
num_cat=0
split_feature=9 50 15 4 0 24 4 73 54 57 0 15 4 4
split_gain=736.964 123.687 109.329 25.9958 6.42176 4.61566 1.81188 1.68973 1.5711 0.965354 0.500381 0.436228 0.253483 0.238756
threshold=0.30000000000000004 0.36922500000000003 1.0000000180025095e-35 1.0000000180025095e-35 8.8500000000000032 0.99750000000000016 0.41898326898326904 0.22500000000000003 0.36041666666666666 0.087500000000000008 7.3500000000000005 3.5000000000000004 0.30195010763581115 0.19163509180996796
decision_type=2 2 2 2 2 2 2 2 2 2 2 2 2 2
left_child=-1 2 3 -2 -5 9 12 -7 11 -4 -10 -8 13 -3
right_child=1 6 5 4 -6 7 8 -9 10 -11 -12 -13 -14 -15
leaf_value=-0.038997034135127402 -0.035033965008072203 -0.0093687729188368218 -0.032904891471232295 0.020284940424255247 -0.016664042527404013 -0.021649991423560701 0.014997660283790768 0 0.037797910285053929 -0.0068416698312351301 0.024761016432051614 0.030469857890949692 0.013544500814037474 0.0068066637966229162
leaf_weight=282.30992765119299 7.2887144947890183 0.57244877982884579 48.633290763085824 182.57478506647749 3.5340373636645372 4.8559964809828653 5.6075965370982876 7.0173651183213224 193.09215181320906 2.2297012701310441 11.84869898855686 54.054613841697574 2.2182761020958424 0.66072078328579664
leaf_count=55205 1321 28 14377 4815 820 1157 51 1009 382 451 27 324 21 12
internal_value=0 0.0210367 0.00607487 0.0172423 0.019482 -0.0280343 0.0352464 -0.00975122 0.0355419 -0.0319741 0.0371826 0.0293363 0.00902224 -0.000191632
internal_weight=806.498 524.188 256.134 193.398 186.109 62.7364 268.055 11.8734 264.603 50.863 204.941 59.6622 3.45145 1.23317
internal_count=80000 24795 23950 6956 5635 16994 845 2166 784 14828 409 375 61 40
is_linear=0
shrinkage=0.03


Tree=16
num_leaves=12
num_cat=0
split_feature=9 50 59 2 77 0 54 50 24 22 73
split_gain=705.594 121.972 73.7962 29.6691 8.1631 6.54603 1.94452 1.92344 0.836462 0.543903 0.524347
threshold=0.30000000000000004 0.36395000000000005 0.060661764705882359 1.0000000180025095e-35 16.500000000000004 8.8500000000000032 0.081250000000000003 0.45361041666666674 0.96250000000000002 0.51916666666666689 0.22500000000000003
decision_type=2 2 2 2 2 2 2 2 2 2 2
left_child=-1 2 3 -2 6 -5 -4 8 -3 -9 -6
right_child=1 7 4 5 10 -7 -8 9 -10 -11 -12
leaf_value=-0.03843841604027029 -0.035536854608420855 0.014894439041414347 -0.018711847951204293 0.018236691468090316 -0.0035467572912475476 -0.01613654491886574 -0.032476781401117906 0.030739863788910984 0.02943252221677695 0.037695093667529656 0.012574564638642196
leaf_weight=278.8448223983869 9.1139720084611309 8.7546928893716522 24.0508729248686 181.54062747032731 1.7929428603092663 4.3015071282788986 29.732400522967509 53.982805477455258 35.219780976534821 168.20915327686816 4.5441855867393315
leaf_count=55205 1649 111 5510 6130 253 1012 9171 170 249 342 198
internal_value=0 0.0205973 0.00572072 0.0146868 -0.0230697 0.0173429 -0.02683 0.034768 0.0270004 0.036164 0.00774279
internal_weight=800.088 521.243 255.077 194.956 60.1204 185.842 53.7833 266.166 43.9745 222.192 6.33713
internal_count=80000 24795 23923 8791 15132 7142 14681 872 360 512 451
is_linear=0
shrinkage=0.03


Tree=17
num_leaves=13
num_cat=0
split_feature=9 50 15 2 77 0 50 62 4 16 7 16
split_gain=676.066 120.053 97.7695 23.2173 14.3346 5.66174 1.73779 0.943618 0.81516 0.750338 1.37505 0.661316
threshold=0.30000000000000004 0.36922500000000003 1.0000000180025095e-35 1.0000000180025095e-35 16.500000000000004 8.8500000000000032 0.45361041666666674 0.41666666666666669 0.21712938711367211 0.29812500000000003 0.63341924398625449 0.40312500000000012
decision_type=2 2 2 2 2 2 2 2 2 2 2 2
left_child=-1 2 3 -2 7 -5 11 -4 -6 10 -8 -3
right_child=1 6 4 5 8 -7 9 -9 -10 -11 -12 -13
leaf_value=-0.037929884390254978 -0.033937715261469728 0.01890611903542196 -0.033441992229368889 0.018764773631605731 -0.012450623385950177 -0.015956337964491845 0.0047649747973146387 -0.0010953435146072413 0.011584474624370388 0.036214776375645984 0.029644467020736989 0.030567396923638981
leaf_weight=275.11236326373182 7.1399408983997992 16.408007655292749 52.117143706906063 182.70529834421177 0.53195651946589162 3.5134412350598714 3.7643581181764585 1.0894165879217315 7.6689964948964189 210.36321754567325 6.5005514323711395 26.468122674152255
leaf_count=55205 1321 195 16300 4815 80 820 27 131 483 455 30 138
internal_value=0 0.0201685 0.00543324 0.0159135 -0.0272448 0.0180119 0.0343294 -0.0328675 0.00851563 0.0356702 0.0220199 0.0267058
internal_weight=793.383 518.27 254.766 193.359 61.4075 186.219 263.504 53.2066 8.20095 220.628 10.2649 42.8761
internal_count=80000 24795 23950 6956 16994 5635 845 16431 563 512 57 333
is_linear=0
shrinkage=0.03


Tree=18
num_leaves=12
num_cat=0
split_feature=9 50 16 2 77 54 2 58 62 2 50
split_gain=648.235 116.518 92.4606 21.9874 12.9518 2.13033 1.2658 0.940778 0.90923 0.730636 0.664826
threshold=0.30000000000000004 0.36922500000000003 1.0000000180025095e-35 1.0000000180025095e-35 16.500000000000004 0.33958333333333335 8.5416666666666696 2.5000000000000004 0.41666666666666669 1.0416666666666667 0.41595000000000004
decision_type=2 2 2 2 2 2 2 2 2 2 2
left_child=-1 2 3 -2 8 7 -5 -3 -4 -6 -9
right_child=1 5 4 6 9 -7 -8 10 -10 -11 -12
leaf_value=-0.03745414908065501 -0.033436505809902498 0.0061872421215128596 -0.032967958036426825 0.01756638955643762 -0.012289961144480178 0.035528039362406914 -0.0088922183379916264 0.016950395105279504 -0.0011712845476244849 0.010344280952078694 0.030031253263080503
leaf_weight=271.1821646487806 7.0523272117134175 2.9020136632025233 50.893295453824976 185.57336501361715 0.5321146168280374 204.78604221623391 0.92766916437540103 10.212467296048997 1.0976895395433519 7.5346364405268105 43.012762635946274
leaf_count=55205 1321 30 16300 5504 78 457 131 156 131 485 202
internal_value=0 0.0197747 0.00524415 0.015343 -0.0269715 0.0338132 0.0173721 0.0269916 -0.032388 0.00732953 0.0279356
internal_weight=785.707 514.524 253.611 193.553 60.0577 260.913 186.501 56.1272 51.991 8.06675 53.2252
internal_count=80000 24795 23950 6956 16994 845 5635 388 16431 563 358
is_linear=0
shrinkage=0.03


Tree=19
num_leaves=15
num_cat=0
split_feature=9 50 16 2 77 0 4 54 30 62 7 4 0 7
split_gain=621.549 112.434 88.4126 20.8996 12.3979 3.50569 2.40324 1.97823 0.936176 0.913314 0.855457 0.673538 0.185726 0.184423
threshold=0.30000000000000004 0.36922500000000003 1.0000000180025095e-35 1.0000000180025095e-35 16.500000000000004 8.9500000000000011 0.42545252461098765 0.33958333333333335 0.42500000000000004 0.41666666666666669 0.36159907745531433 0.21712938711367211 7.3500000000000005 0.32932459390139651
decision_type=2 2 2 2 2 2 2 2 2 2 2 2 2 2
left_child=-1 2 3 -2 9 -5 10 8 -8 -4 13 -6 -9 -3
right_child=1 6 4 5 11 -7 7 12 -10 -11 -12 -13 -14 -15
leaf_value=-0.037014895897239719 -0.032968201346037583 -0.013287346116401805 -0.032939041011157785 0.017429396209187636 -0.012064608585006237 -0.0092835756999766483 0.016027646078243165 0.035786826046592841 0.029238507737937347 -0.0011699831434979603 0.016064634496165766 0.0096210922025637812 0.023768640014390618 0.00060453538403700956
leaf_weight=266.97010725107975 6.9634029825683674 0.71373834088444643 49.405378201969143 183.06886669095547 0.52866286388598194 3.7971523967498788 11.642253419384359 190.36736307293177 41.81928338855505 1.1036165521436476 2.132655069231987 7.5103955540762399 10.880985230207441 0.82522063609212637
leaf_count=55205 1321 30 16300 4880 80 755 106 400 249 131 21 483 27 12
internal_value=0 0.0193819 0.00509045 0.0148598 -0.0269082 0.0168241 0.0332563 0.0336101 0.0267638 -0.0323393 0.00613435 0.00668616 0.0352726 -0.00735247
internal_weight=777.729 510.759 252.377 193.829 58.5481 186.866 258.381 254.71 53.4615 50.509 3.67161 8.03906 201.248 1.53896
internal_count=80000 24795 23950 6956 16994 5635 845 782 355 16431 63 563 427 42
is_linear=0
shrinkage=0.03


Tree=20
num_leaves=23
num_cat=0
split_feature=50 37 35 8 15 15 77 50 4 24 77 15 61 4 50 0 22 69 0 57 0 30
split_gain=435.249 82.597 70.2324 46.4722 24.7105 16.4245 12.9625 11.7712 7.7852 7.55855 6.83051 5.85013 5.83467 3.53814 2.52282 1.41839 1.40322 1.87901 0.546469 0.478817 0.185375 0.175974
threshold=0.39687500000000003 0.36100000000000004 0.80500000000000016 0.70000000000000007 1.0000000180025095e-35 1.0000000180025095e-35 11.500000000000002 0.36395000000000005 1.0000000180025095e-35 0.65250000000000019 16.500000000000004 1.0000000180025095e-35 1.0000000180025095e-35 1.0000000180025095e-35 0.35261250000000005 8.9500000000000011 0.52575000000000005 85.500000000000014 4.7500000000000009 0.11250000000000002 6.7500000000000009 0.38500000000000006
decision_type=2 2 2 2 2 2 2 2 2 2 2 2 2 2 2 2 2 2 2 2 2 2
left_child=1 2 3 6 8 13 -1 10 -3 12 -6 -5 19 -4 -7 -10 17 18 -11 -2 -19 -9
right_child=9 4 5 11 7 14 -8 21 15 16 -12 -13 -14 -15 -16 -17 -18 20 -20 -21 -22 -23
leaf_value=-0.033008739382252905 0.0011243341293619463 -0.027429976006011225 -0.020410104645071533 0.016680691296641806 -0.030617210737422278 -0.026170126951284459 -0.014862621179781443 0.0032388385522883361 0.01712644248286771 -0.0050199954456040807 0.0073171916147982538 -0.01848992956813034 0.022675908944207537 0.018153080073533494 0.0094185120468874752 -0.0068281289496405374 0.035304854959689033 0.030307875508743302 0.013071534130392673 -0.029080485288745659 0.016254055902084483 0.018516070503000848
leaf_weight=271.13641743514017 0.24522088095545713 2.8581352117471388 1.3736814137082536 22.20093727105996 22.57332511510322 10.813577915709173 44.258633917495899 1.8646234165644262 81.182630036026239 1.6180071760900308 4.6560252883937201 4.266654604318318 4.0222671926021576 44.298600384121528 1.4546219946350891 1.6052066263800941 174.33054721727967 57.997645862633362 2.4831764316186309 2.6741049571428448 5.7068197967018923 5.9317972490534885
leaf_count=54394 4 521 271 615 7484 3216 6934 41 2000 15 303 1432 18 1057 37 304 420 235 46 521 46 86
internal_value=0 -0.0156037 -0.0221583 -0.0273256 0.00609133 0.00822555 -0.0305268 -0.0148154 0.0147483 0.0325377 -0.023995 0.0104351 0.00106273 0.0165165 -0.0213325 0.0165502 0.0334196 0.0280863 0.00576103 -0.0261384 0.0293659 0.0159869
internal_weight=769.553 520.475 399.803 341.863 120.672 57.9405 315.395 35.0258 85.646 249.078 27.2294 26.4676 6.94159 45.6723 12.2682 82.7878 242.136 67.8056 4.10118 2.91933 63.7045 7.79642
internal_count=80000 78695 67956 63375 10739 4581 61328 7914 2825 1305 7787 2047 543 1328 3253 2304 762 342 61 525 281 127
is_linear=0
shrinkage=0.03


Tree=21
num_leaves=12
num_cat=0
split_feature=9 50 15 4 50 77 54 73 68 56 51
split_gain=580.16 102.712 64.9336 19.5334 17.6878 11.4902 1.17853 0.790998 0.699814 1.08468 0.105365
threshold=0.30000000000000004 0.39687500000000003 1.0000000180025095e-35 1.0000000180025095e-35 0.36395000000000005 16.500000000000004 0.35208333333333336 0.45000000000000007 0.85000000000000009 0.52462473798785247 0.56925000000000014
decision_type=2 2 2 2 2 2 2 2 2 2 2
left_child=-1 2 3 -2 5 -4 8 -5 -3 -10 -6
right_child=1 6 4 7 10 -7 -8 -9 9 -11 -12
leaf_value=-0.036295117053207752 -0.032231788378039194 0.030014678338715475 -0.031691531129762682 0.014755270138781581 0.00447778031059451 0.0062612140101154365 0.034246290874317208 0.020199836544245748 0.0012070210778208261 0.022179899707637604 0.018481564743871085
leaf_weight=260.01816394506022 6.840603116201236 33.370153330266476 48.311546051962068 139.13721022736718 1.9950711990240941 7.9053002877044483 192.23571132961661 47.739269806304947 3.0961303301155594 14.297717545181511 7.4539212446397869
leaf_count=55205 1321 181 16409 4700 46 558 418 935 26 87 114
internal_value=0 0.01882 0.00563871 0.0143776 -0.0199255 -0.026286 0.032797 0.0162622 0.0266953 0.0188784 0.0165234
internal_weight=762.401 502.383 259.383 193.717 65.6658 56.2168 243 186.876 50.764 17.3938 9.44899
internal_count=80000 24795 24083 6956 17127 16967 712 5635 294 113 160
is_linear=0
shrinkage=0.03


Tree=22
num_leaves=14
num_cat=0
split_feature=9 50 15 2 50 77 0 7 22 59 15 2 2
split_gain=557.963 99.463 60.6451 18.5921 16.9372 10.387 2.94763 1.24547 1.96798 0.839871 0.164522 0.144369 0.13753
threshold=0.30000000000000004 0.39687500000000003 1.0000000180025095e-35 1.0000000180025095e-35 0.36395000000000005 16.500000000000004 8.9500000000000011 0.65043103448275874 0.53616666666666679 0.45227272727272733 5.5000000000000009 5.8750000000000009 5.9583333333333348
decision_type=2 2 2 2 2 2 2 2 2 2 2 2 2
left_child=-1 2 3 -2 5 -4 -5 8 9 -3 -9 -6 -10
right_child=1 7 4 6 11 -7 -8 10 12 -11 -12 -13 -14
leaf_value=-0.03594273257590512 -0.031841570544802023 0.02262024668444049 -0.030998714869825177 0.016309674445159093 0.017974331301766403 0.0054283873973585443 -0.0072844946799716379 0.027582236804739736 0.033231081113680484 0.0069704274053613794 0.035904705611186485 0.0025397541973443405 0.021514457076937249
leaf_weight=255.67347839009017 6.7494654206093392 23.822164470329884 47.312299785990035 182.60271713616385 7.8805433555753535 7.77080869799829 4.1810423850765792 26.26260456815362 51.158530647866428 5.5134952263906589 122.69784398563206 1.474474328337237 10.535308137536047
leaf_count=55205 1321 122 16409 4880 133 558 755 122 165 28 246 27 29
internal_value=0 0.0184895 0.00550602 0.0139 -0.0194856 -0.0258011 0.0157296 0.0323526 0.028223 0.0201046 0.0346511 0.0163115 0.0316532
internal_weight=753.635 497.961 257.971 193.533 64.4381 55.0831 186.784 239.99 91.0295 29.3357 148.96 9.35502 61.6938
internal_count=80000 24795 24083 6956 17127 16967 5635 712 344 150 368 160 194
is_linear=0
shrinkage=0.03


Tree=23
num_leaves=13
num_cat=0
split_feature=9 50 15 2 50 77 0 54 15 50 24 7
split_gain=539.611 101.159 57.2205 17.6619 16.6565 9.60054 2.88185 1.55595 1.06127 0.63008 0.127276 0.0411206
threshold=0.30000000000000004 0.39687500000000003 1.0000000180025095e-35 1.0000000180025095e-35 0.36395000000000005 16.500000000000004 8.9500000000000011 0.33958333333333335 3.5000000000000004 0.45361041666666674 0.98250000000000004 0.65043103448275874
decision_type=2 2 2 2 2 2 2 2 2 2 2 2
left_child=-1 2 3 -2 5 -4 -5 8 -3 -10 -6 -9
right_child=1 7 4 6 10 -7 -8 11 9 -11 -12 -13
leaf_value=-0.03561334406425027 -0.031490516227205868 0.0084151940362400587 -0.030720600389856464 0.015620178715072862 0.0053108341067376556 0.0045487529185284144 -0.0076384841036248163 0.029892786400265017 0.018499698551100709 0.030557757106018817 0.018736566437668946 0.035594469414115835
leaf_weight=252.24752133223228 6.686142543796449 4.6144507192075244 46.51449032198434 182.85769369130139 2.5786729373430699 7.6877150609070659 4.1870076975683324 62.74106352776289 14.034009495750068 28.462256127968431 6.7481113186804578 126.51052951067686
leaf_count=55205 1321 36 16409 4880 62 558 755 191 123 127 98 235
internal_value=0 0.0182341 0.00516632 0.0132708 -0.0193243 -0.0256721 0.0150457 0.0323629 0.0256008 0.0271615 0.0161888 0.0338871
internal_weight=745.87 493.622 257.26 193.731 63.529 54.2022 187.045 236.362 47.1107 42.4963 9.32678 189.252
internal_count=80000 24795 24083 6956 17127 16967 5635 712 286 250 160 426
is_linear=0
shrinkage=0.03


Tree=24
num_leaves=14
num_cat=0
split_feature=9 50 15 2 50 77 0 54 56 22 62 0 2
split_gain=519.611 97.9634 53.6531 16.8588 16.0685 8.40845 2.68906 1.39541 1.20889 1.42626 0.878104 0.151908 0.140703
threshold=0.30000000000000004 0.39687500000000003 1.0000000180025095e-35 1.0000000180025095e-35 0.36395000000000005 16.500000000000004 8.9500000000000011 0.33958333333333335 0.47695572088917237 0.65800000000000014 0.29166666666666669 7.3500000000000005 5.8750000000000009
decision_type=2 2 2 2 2 2 2 2 2 2 2 2 2
left_child=-1 2 3 -2 5 -4 -5 8 9 -3 -10 -9 -6
right_child=1 7 4 6 12 -7 -8 11 10 -11 -12 -13 -14
leaf_value=-0.035310276236591331 -0.031143762993341314 -0.0054816642306575779 -0.030038713621209731 0.015145282136527478 0.017605348994564049 0.0034591730455215235 -0.007253483117628942 0.033945635297597303 0.013654152796987631 0.021673333795664728 0.029448760301178038 0.022166578497963208 0.0023008268515753703
leaf_weight=247.74758472922258 6.5916748577728859 2.6549432016909114 45.540479417475581 182.68317838694202 7.8422998395108134 7.4764960440515997 4.2162049456601371 176.37327165529132 7.2581739267334333 2.4026836715638638 34.23496869392693 10.096446849405764 1.4290063206572083
leaf_count=55205 1321 28 16409 4880 133 558 755 399 61 19 178 27 27
internal_value=0 0.0179325 0.00506361 0.0128626 -0.0189361 -0.0252827 0.0145881 0.0319635 0.0253854 0.00837165 0.0271428 0.0334455 0.0159922
internal_weight=736.547 488.8 255.779 193.491 62.2883 53.017 186.899 233.02 46.5508 5.05763 41.4931 186.47 9.27131
internal_count=80000 24795 24083 6956 17127 16967 5635 712 286 47 239 426 160
is_linear=0
shrinkage=0.03


Tree=25
num_leaves=23
num_cat=0
split_feature=50 73 35 37 15 15 71 2 8 2 50 77 50 0 7 15 2 59 50 42 40 50
split_gain=363.305 96.4974 61.0334 44.5411 15.6094 13.1587 10.3211 8.90155 8.05003 4.65055 4.61918 5.01211 3.70213 1.89953 1.74301 1.5495 1.3793 1.07332 0.5884 0.198135 0.19186 0.0697653
threshold=0.39687500000000003 0.18333333333333338 0.80500000000000016 0.36100000000000004 1.0000000180025095e-35 1.0000000180025095e-35 20.449494949494952 1.0000000180025095e-35 0.70000000000000007 1.0000000180025095e-35 0.36395000000000005 16.500000000000004 0.36922500000000003 8.7500000000000018 0.65649683448899621 5.5000000000000009 3.7916666666666674 0.18465909090909094 0.48019250000000008 0.25500000000000006 0.89550000000000007 0.37442500000000006
decision_type=2 2 2 2 2 2 2 2 2 2 2 2 2 2 2 2 2 2 2 2 2 2
left_child=1 2 3 8 9 13 14 -5 -1 -4 11 -7 -6 16 20 17 -3 -8 -19 -15 -2 -12
right_child=6 5 4 7 12 10 15 -9 -10 -11 21 -13 -14 19 -16 -17 -18 18 -20 -21 -22 -23
leaf_value=-0.031734070866818447 -0.026285840261564518 0.021033152495388781 -0.0231656374042131 -0.03035880723901304 -0.026860288334772178 -0.025223719431076801 0.0066197109372254119 0.0068708956370521282 0.0027639898512781379 0.015372593123993897 0.002221841705513193 0.0080450233800791748 0.009775818922524224 0.0021844747088941396 0.011766587390473477 0.033282772859955234 0.011884953660983567 0.019439924598575253 0.030356066495079184 -0.011564383376935241 0 0.016340420713026872
leaf_weight=276.18325605860446 2.6965597132220864 46.17414078861475 2.0636492806952438 5.772411795333027 12.671423625855821 12.844114896040997 3.8405077420175067 38.232265155325877 5.9040553283120962 47.590833010617644 1.2813670171890397 5.043654376640915 2.3564609112218013 0.56530943501274977 0.85222420841455448 179.35451289825141 32.740709001198411 18.480444755405188 27.234731987118721 1.5890314561765988 0.14256896078586567 3.8722045328468084
leaf_count=60158 594 761 432 1158 4000 5501 30 3359 629 1157 29 246 39 58 4 443 808 136 97 304 1 56
internal_value=0 -0.014531 -0.0213606 -0.0266289 0.00515495 0.0110342 0.0308462 0.00135449 -0.0309942 0.013286 -0.00860584 -0.0157551 -0.0206769 0.0166897 -0.0150965 0.0316625 0.0174714 0.0251967 0.026518 -0.00745676 -0.024906 0.0142491
internal_weight=727.486 494.885 390.774 326.092 64.6824 104.111 232.602 44.0047 282.087 49.6545 23.0413 17.8878 15.0279 81.0692 3.69135 228.91 78.9148 49.5557 45.7152 2.15434 2.83913 5.15357
internal_count=80000 78695 70932 65304 5628 7763 1305 4517 60787 1589 5832 5747 4039 1931 599 706 1569 263 233 362 595 85
is_linear=0
shrinkage=0.03


Tree=26
num_leaves=14
num_cat=0
split_feature=9 50 15 2 50 77 0 7 68 15 7 50 2
split_gain=486.194 90.3448 47.5245 15.6472 14.2526 8.73067 2.40272 1.68609 2.40929 1.90545 2.33632 0.9134 0.183586
threshold=0.30000000000000004 0.39687500000000003 1.0000000180025095e-35 1.0000000180025095e-35 0.36395000000000005 16.500000000000004 8.9500000000000011 0.42529105184784083 0.60000000000000009 3.5000000000000004 0.67927055702917793 0.48019250000000008 5.8750000000000009
decision_type=2 2 2 2 2 2 2 2 2 2 2 2 2
left_child=-1 2 3 -2 5 -4 -5 8 -3 10 -9 -11 -6
right_child=1 7 4 6 12 -7 -8 9 -10 11 -12 -13 -14
leaf_value=-0.034804311235316091 -0.030542167221170737 -0.01125452044971666 -0.029025751527029058 0.014558839852659331 0.017095805082041372 0.0045629604409150974 -0.0064207867510028159 -0.0057072625321025099 0.024709435150565551 0.026418738030343569 0.025816341351540324 0.033626205176462594 0.0013234722551828102
leaf_weight=239.67821412789635 6.4133875670377156 2.0191456293687216 43.91321744227389 181.30532193374529 7.6779923575377307 7.7706236235098904 4.3179053240528438 3.0273027606308451 2.9028671905398369 50.413787560537457 3.7871013358235359 164.58008528873324 1.3711427915841339
leaf_count=55205 1321 36 16409 4880 133 558 755 26 16 241 21 372 27
internal_value=0 0.0174332 0.00504971 0.0123686 -0.0178693 -0.023928 0.014023 0.0311429 0.0100403 0.0315505 0.0124898 0.0320802 0.015374
internal_weight=719.178 479.5 252.77 192.037 60.733 51.6838 185.623 226.73 4.92201 221.808 6.8144 214.994 9.04914
internal_count=80000 24795 24083 6956 17127 16967 5635 712 52 660 47 613 160
is_linear=0
shrinkage=0.03


Tree=27
num_leaves=15
num_cat=0
split_feature=9 50 15 2 50 77 0 16 59 7 4 69 0 2
split_gain=468.711 89.805 45.1746 14.8907 13.6081 8.23874 2.11894 1.74824 1.6406 0.669334 1.42694 0.634723 0.491265 0.226182
threshold=0.30000000000000004 0.39687500000000003 1.0000000180025095e-35 1.0000000180025095e-35 0.36395000000000005 16.500000000000004 8.9500000000000011 0.31937500000000008 0.17156862745098042 0.4752118644067797 0.43881221553369554 107.50000000000001 7.3500000000000005 5.8750000000000009
decision_type=2 2 2 2 2 2 2 2 2 2 2 2 2 2
left_child=-1 2 3 -2 5 -4 -5 8 -3 10 -9 -10 -11 -6
right_child=1 7 4 6 13 -7 -8 9 11 12 -12 -13 -14 -15
leaf_value=-0.034553726958859776 -0.030244670073254088 0 -0.028848971096803625 0.013990895977655432 0.016592485807248314 0.0039495152096896422 -0.0055015692180411489 -0.0012757098686319204 0.027124398432981423 0.032722344859079315 0.025043525078470096 0.0077946339139012485 0.020177279533571821 0.00048532978257814134
leaf_weight=235.20458321063779 6.3229707507416597 3.3847186081111458 42.975759356493654 180.79535014269641 7.6329760160806455 7.7235946055443483 4.4411030677183581 2.3076285356655708 10.732727599330245 189.36851478740573 4.6661453731358051 3.502434939146041 10.209163405001162 1.3605151311494408
leaf_count=55205 1321 25 16409 4880 133 558 755 36 70 495 21 34 31 27
internal_value=0 0.0171313 0.00476607 0.011872 -0.0178079 -0.0238146 0.0134804 0.0308942 0.0191914 0.0317808 0.0168905 0.0233892 0.0321994 0.0147484
internal_weight=710.628 475.424 251.252 191.559 59.6928 50.6994 185.236 224.171 17.6199 206.551 6.97377 14.2352 199.578 8.99349
internal_count=80000 24795 24083 6956 17127 16967 5635 712 129 583 57 104 526 160
is_linear=0
shrinkage=0.03


Tree=28
num_leaves=15
num_cat=0
split_feature=9 50 15 2 50 73 0 16 56 50 62 2 14 0
split_gain=452.027 87.4959 42.472 14.2434 13.1679 2.0307 2.01537 1.97442 1.60977 0.547091 0.708079 0.197341 0.187098 0.121333
threshold=0.30000000000000004 0.39687500000000003 1.0000000180025095e-35 1.0000000180025095e-35 0.36395000000000005 0.29166666666666669 8.8500000000000032 0.31937500000000008 0.4869806984374167 0.45361041666666674 0.29166666666666669 5.8750000000000009 0.50000000000000011 7.3500000000000005
decision_type=2 2 2 2 2 2 2 2 2 2 2 2 2 2
left_child=-1 2 3 -2 5 -4 -5 8 -3 10 -9 -6 -10 -11
right_child=1 7 4 6 11 -7 -8 9 12 13 -12 -13 -14 -15
leaf_value=-0.034321057358028775 -0.029962083381558393 0.0005023586926867741 -0.027704853799699 0.013592499396721159 0.016314612615489651 -0.012716222933564779 -0.0044655297509507462 0.0087229976703239662 0.025576313605590106 0.032869718004265497 0.026293958581499993 0.00065574479602302049 0.0091751076678233939 0.021126455556963322
leaf_weight=230.6257674403023 6.2298834417015305 3.9459889121353653 34.394017369384528 179.69571725002606 7.6085130701030703 15.296259751543401 5.0388523707370032 4.3397465758025673 10.511330910027025 169.62242025136948 20.336684841662645 1.3300493166316298 2.9712846754118791 9.3524478822946531
leaf_count=55205 1321 31 12032 4815 133 4935 820 45 69 412 98 27 29 28
internal_value=0 0.0168541 0.00463172 0.0114944 -0.0174889 -0.0234919 0.0130624 0.0305564 0.0184137 0.0314859 0.0237807 0.0145869 0.0230521 0.0323935
internal_weight=701.299 470.673 249.593 190.964 58.6288 49.6903 184.735 221.08 17.4286 203.651 24.6764 8.93856 13.4826 178.975
internal_count=80000 24795 24083 6956 17127 16967 5635 712 129 583 143 160 98 440
is_linear=0
shrinkage=0.03


Tree=29
num_leaves=14
num_cat=0
split_feature=9 50 15 2 50 77 16 59 0 7 2 54 2
split_gain=435.443 84.6079 41.3015 13.6696 12.8076 6.16245 2.87303 2.23955 1.9399 1.62969 1.46802 1.16634 0.233817
threshold=0.30000000000000004 0.39687500000000003 1.0000000180025095e-35 1.0000000180025095e-35 0.36395000000000005 16.500000000000004 0.24250000000000002 0.19375000000000003 8.9500000000000011 0.44822994987468684 2.0416666666666674 0.29583333333333334 5.8750000000000009
decision_type=2 2 2 2 2 2 2 2 2 2 2 2 2
left_child=-1 2 3 -2 5 -4 7 -3 -5 10 -8 -11 -6
right_child=1 6 4 8 12 -7 9 -9 -10 11 -12 -13 -14
leaf_value=-0.034106856623149585 -0.029688308810847427 -0.010209988881952074 -0.028008491714523638 0.013243838622060031 0.015943662073655988 0.0017208209784908383 -0.0061515211527709539 0.021222948780809152 -0.0053214016717012518 0.020217798325318032 0.021200792856770928 0.032008493331335465 0
leaf_weight=225.79536893009208 6.1266339600551865 2.6680883653461924 41.295306131512916 180.01516931669903 7.5449681684549414 7.0167672379757269 2.1089113214984527 3.6626547425985336 4.4744730678576152 16.290135739371181 3.4365782327950001 190.2448804974556 1.3064772405195979
leaf_count=55205 1321 20 16409 4880 133 558 41 25 755 123 19 484 27
internal_value=0 0.016557 0.00450925 0.0112236 -0.0176368 -0.0236825 0.0301282 0.00798066 0.0127511 0.0307347 0.0109899 0.0311949 0.0141113
internal_weight=691.986 466.191 247.78 190.616 57.1635 48.3121 218.411 6.33074 184.49 212.081 5.54549 206.535 8.85145
internal_count=80000 24795 24083 6956 17127 16967 712 45 5635 667 60 607 160
is_linear=0
shrinkage=0.03


Tree=30
num_leaves=23
num_cat=0
split_feature=50 73 37 55 2 15 71 8 15 50 77 15 56 2 54 62 24 2 69 50 22 3
split_gain=306.608 81.0802 48.3874 15.5124 13.2594 10.1176 10.0726 8.66518 4.74623 3.64524 3.13537 2.62096 2.04955 2.02727 1.49595 0.918091 0.555347 0.53174 0.379373 0.191101 0.172111 0.170752
threshold=0.39687500000000003 0.18333333333333338 0.36100000000000004 0.67610000000000015 1.0000000180025095e-35 1.0000000180025095e-35 19.514705882352946 0.70000000000000007 1.0000000180025095e-35 0.36395000000000005 16.500000000000004 1.0000000180025095e-35 0.42332885577442431 3.7916666666666674 0.35208333333333336 0.29166666666666669 0.98250000000000004 8.5416666666666696 380.50000000000006 0.37442500000000006 0.63625000000000009 6.041666666666667
decision_type=2 2 2 2 2 2 2 2 2 2 2 2 2 2 2 2 2 2 2 2 2 2
left_child=1 2 3 7 -4 13 16 -1 -6 10 -7 -5 20 21 15 -14 -2 -15 -16 -11 -8 -3
right_child=6 5 4 11 8 9 12 -9 -10 19 -12 -13 14 17 18 -17 -18 -19 -20 -21 -22 -23
leaf_value=-0.029017531320803966 -0.024602137538666618 0.019442792372481119 -0.031126926536464292 -0.0019175282101988435 0.010827161535205545 -0.022730075202232056 0.00023066471450504974 0.0042529478722954242 -0.010054476882565111 0 0.005057359763604611 -0.021948760031472971 0.011297114261276737 0.0094421696716423687 0.030095157361543744 0.026056964547050809 0.0015444144451633539 -0.0084121202098636494 0.036898493807608831 0.015156079775061835 0.012259300018323378 0.0021980700483561406
leaf_weight=253.22641415650287 2.4259868970839302 44.34596188111027 8.4581663392018509 27.848715225612978 51.012882508715848 11.57503623940284 2.4802875975146881 6.8395273151327265 11.091665954802009 1.2617966439574946 4.4821569998748592 6.6876095081097438 7.6064560767263165 33.403276788754738 119.47226687148213 36.382970210164785 0.52371887862682331 0.65068406984209914 46.009616270661354 3.7100886944681406 2.1904310658574104 1.1974729611538339
leaf_count=58367 592 758 1807 2770 1546 5501 23 687 3673 29 246 2082 69 1028 323 204 4 78 73 56 17 67
internal_value=0 -0.0137203 -0.020282 -0.0256112 0.00197272 0.0100274 0.0293661 -0.0281181 0.00695 -0.00809793 -0.0149559 -0.00638929 0.0301496 0.0148943 0.0306005 0.0238793 -0.0199846 0.00878519 0.032215 0.0123439 0.00756786 0.0191108
internal_weight=682.883 465.791 365.165 294.602 70.5627 100.626 217.092 260.066 62.1045 21.0291 16.0572 34.5363 214.142 79.5974 209.471 43.9894 2.94971 34.054 165.482 4.97189 4.67072 45.5434
internal_count=80000 78695 70932 63906 7026 7763 1305 59054 5219 5832 5747 4852 709 1931 669 273 596 1106 396 85 40 825
is_linear=0
shrinkage=0.03


Tree=31
num_leaves=15
num_cat=0
split_feature=9 50 15 2 50 77 54 0 30 68 53 50 0 2
split_gain=413.573 81.2156 37.1131 12.8412 11.8039 6.45745 1.84455 1.78932 1.01339 1.96228 0.72057 0.701117 0.53966 0.33275
threshold=0.30000000000000004 0.39687500000000003 1.0000000180025095e-35 1.0000000180025095e-35 0.36395000000000005 16.500000000000004 0.35208333333333336 8.8500000000000032 0.44500000000000006 0.85000000000000009 0.34979764138300729 0.41595000000000004 7.3500000000000005 5.8750000000000009
decision_type=2 2 2 2 2 2 2 2 2 2 2 2 2 2
left_child=-1 2 3 -2 5 -4 8 -5 9 -3 -8 -10 -12 -6
right_child=1 6 4 7 13 -7 10 -9 11 -11 12 -13 -14 -15
leaf_value=-0.033763123227111669 -0.029250489518602006 0.019942675620145605 -0.02736402147933021 0.012811435986539849 0.015907047478245256 0.0026316405315060204 0.017501429284657637 -0.0040078417949393893 0.0077291515914239368 -0.0065975925983451141 0.032787203563960393 0.026905427477790605 0.019188689379514953 0
leaf_weight=219.33434575959109 5.978040217421948 6.5661982046440226 39.812654054614541 178.23989112715935 7.4809177152783359 7.2640946993487878 7.9777860026806584 5.1704075513698617 3.3361222697421899 2.9389808978885412 149.37233370542526 31.926981292665005 8.8290739953517896 1.3010008814744649
leaf_count=55205 1321 53 16409 4815 133 558 41 820 48 32 350 161 27 27
internal_value=0 0.0162714 0.00448259 0.0108278 -0.01679 -0.0227147 0.029877 0.0123019 0.0228833 0.011604 0.031595 0.0254371 0.0321724 0.0137392
internal_weight=675.529 456.194 245.247 189.388 55.8587 47.0767 210.947 183.41 44.7683 9.50518 166.179 35.2631 158.201 8.78192
internal_count=80000 24795 24083 6956 17127 16967 712 5635 294 85 418 209 377 160
is_linear=0
shrinkage=0.03


Tree=32
num_leaves=23
num_cat=0
split_feature=50 7 35 10 2 81 71 15 15 50 77 3 7 54 24 2 24 68 28 2 2 22
split_gain=286.526 70.0384 45.6983 13.7904 10.7927 8.18662 8.14637 6.74678 4.91894 4.13591 3.22752 2.17649 1.97013 1.81113 1.34862 1.1002 1.07199 0.92458 0.754524 0.67155 0.323586 0.0337809
threshold=0.39687500000000003 0.55128205128205143 0.80500000000000016 0.93750000000000011 1.0000000180025095e-35 0.0037754653201559235 20.449494949494952 1.0000000180025095e-35 1.0000000180025095e-35 0.36395000000000005 16.500000000000004 2.7083333333333335 0.41781438900082973 0.35208333333333336 0.98250000000000004 3.7916666666666674 0.73250000000000004 0.85000000000000009 0.31314288873202628 8.4583333333333339 5.6250000000000009 0.52350000000000019
decision_type=2 2 2 2 2 2 2 2 2 2 2 2 2 2 2 2 2 2 2 2 2 2
left_child=1 2 3 16 -4 -5 14 15 -6 10 -9 13 21 17 -2 -3 -1 -8 -15 -17 -11 -13
right_child=6 7 4 5 8 -7 11 9 -10 20 -12 12 -14 18 -16 19 -18 -19 -20 -21 -22 -23
leaf_value=-0.03135034144950774 -0.023914629028309761 0.017593854328964036 -0.029640963320156158 -0.0082297663936084803 0.012722193687082642 -0.022975612546458045 0.026641923859914332 -0.021820385717704099 -0.010486648023899779 0.017890234366101914 0.0067228014838315673 -0.010737484631870554 0.021980534498496154 0.023536057508889277 0.0090281429719492306 0.010226968082175171 -0.011459203899819068 0.014391106602497027 0.033171497481517022 -0.0081795346595873088 0 -0.00067602685264075578
leaf_weight=143.00769459320145 2.3502703872509296 34.261263158172369 6.4976778216660014 56.003107232994807 45.420427562610712 95.149283011167427 27.212485406547785 10.872407794588073 9.0496380560798553 4.2982715705875298 4.3408637946995432 1.295778984203934 3.4211172685027122 22.825932625681162 0.87939633429050434 40.313777937437408 4.4934820112102889 14.179652437567709 136.30072940513492 0.97039784293156017 1.285319078247994 1.3342116586863992
leaf_count=35200 594 669 1445 8667 1171 20598 163 5437 3049 61 244 17 15 65 5 1195 820 107 316 112 27 23
internal_value=0 -0.0133471 -0.0194246 -0.0242442 0.00414642 -0.0176219 0.0289333 0.00927434 0.00869266 -0.00555099 -0.0135787 0.0296877 0.00921127 0.030242 -0.0142217 0.013414 -0.0308458 0.0229544 0.0319637 0.00954016 0.0146061 -0.00805205
internal_weight=665.763 455.964 359.621 298.654 60.9677 151.152 209.8 96.3423 54.4701 20.7969 15.2133 206.57 6.05111 200.519 3.22967 75.5454 147.501 41.3921 159.127 41.2842 5.58359 2.62999
internal_count=80000 78695 70950 65285 5665 29265 1305 7745 4220 5769 5681 706 55 651 599 1976 36020 270 381 1307 88 40
is_linear=0
shrinkage=0.03


Tree=33
num_leaves=13
num_cat=0
split_feature=9 54 6 15 21 7 56 8 0 15 30 54
split_gain=391.447 69.6881 34.1184 9.84464 16.1013 3.81155 2.11081 2.06792 1.74349 1.06065 0.529472 0.217822
threshold=0.30000000000000004 0.29583333333333334 1.0000000180025095e-35 1.0000000180025095e-35 0.15000000000000005 0.41676528599605533 0.42105388528162818 0.40000000000000008 8.8500000000000032 5.5000000000000009 0.28500000000000009 0.47083333333333338
decision_type=2 2 2 2 2 2 2 2 2 2 2 2
left_child=-1 2 -2 8 -5 7 10 11 -4 -8 -7 -3
right_child=1 5 3 4 -6 6 9 -9 -10 -11 -12 -13
leaf_value=-0.033459615813312291 -0.032518476976482975 -0.020922206971185284 0.01255880203843562 -0.013549244789377133 0.020841707558316987 -0.0086493193534882707 0.023424761383566715 0.018561245642337406 -0.0040217866424324591 0.0319881978429815 0.010863623343764726 0
leaf_weight=212.1429941438837 18.54034372093156 1.5234719375148413 176.73522682103794 36.944659402171965 17.079069533501752 0.87821905792225097 33.603577711619437 1.7648641556734217 5.1789223711311925 151.08509046165273 2.5820661647594534 0.49400743842124928
leaf_count=55205 4193 83 4815 13856 184 59 308 24 820 404 42 7
internal_value=0 0.0159399 0.00559166 0.00872367 -0.00244118 0.0295449 0.0301412 0 0.012051 0.0305808 0.00440979 -0.0173524
internal_weight=658.553 446.41 254.478 235.938 54.0237 191.931 188.149 3.78234 181.914 184.689 3.46029 2.01748
internal_count=80000 24795 23868 19675 14040 927 813 114 5635 712 101 90
is_linear=0
shrinkage=0.03


Tree=34
num_leaves=16
num_cat=0
split_feature=9 50 16 4 50 77 22 0 77 53 4 68 30 16 4
split_gain=377.376 73.4153 32.4868 11.5813 10.0256 5.47878 2.04198 1.65913 1.52033 1.28529 1.26193 1.11949 0.731503 0.353804 0.163913
threshold=0.30000000000000004 0.39687500000000003 1.0000000180025095e-35 1.0000000180025095e-35 0.36395000000000005 16.500000000000004 0.54825000000000002 8.8500000000000032 12.500000000000002 0.51331050228310515 0.55891487029594455 0.85000000000000009 0.34500000000000003 0.45062500000000011 0.43881221553369554
decision_type=2 2 2 2 2 2 2 2 2 2 2 2 2 2 2
left_child=-1 2 3 -2 5 -4 10 -5 9 -8 14 -12 -10 -6 -3
right_child=1 6 4 7 13 -7 8 -9 12 -11 11 -13 -14 -15 -16
leaf_value=-0.033295416207935663 -0.028579169940234555 -0.00065139756128017616 -0.026049038917749533 0.01218676364718381 0.0060295679451371452 0.0021157380927508389 0.023570751899277417 -0.0039588281358859598 0.017346305419114215 0.00065195596790046189 0.028019076906583232 0.016952850371234035 0.03302757774380595 0.021124059470864411 0.0090835279552066509
leaf_weight=207.366757411859 5.69240680837538 1.9769706558436149 37.883246871148003 175.99121225328417 5.8507845675194385 6.9978581392788319 6.791209599003194 5.1908757907003737 7.1859897673130027 3.5354876220226288 37.130607785657048 21.538294307887554 121.76189849618822 2.538294144673273 1.9414937272667883
leaf_count=55205 1321 28 16409 4815 136 558 34 820 34 26 147 114 317 24 12
internal_value=0 0.0156604 0.004401 0.0103004 -0.0160475 -0.0216418 0.0289526 0.0116885 0.0313109 0.0167394 0.0232476 0.024359 0.032317 0.0126797 0.0044282
internal_weight=649.373 442.007 240.145 186.874 53.2702 44.8811 201.862 181.182 139.275 10.3267 62.5874 58.6689 128.948 8.38908 3.91846
internal_count=80000 24795 24083 6956 17127 16967 712 5635 411 60 301 261 351 160 40
is_linear=0
shrinkage=0.03


Tree=35
num_leaves=14
num_cat=0
split_feature=9 50 15 2 50 77 7 68 73 15 50 2 68
split_gain=365.715 74.149 30.8613 11.0754 9.70608 4.94354 2.23992 2.95435 1.61296 1.60781 1.09624 0.36808 0.218253
threshold=0.30000000000000004 0.39687500000000003 1.0000000180025095e-35 1.0000000180025095e-35 0.36395000000000005 16.500000000000004 0.42529105184784083 0.60000000000000009 0.45000000000000007 5.5000000000000009 0.48019250000000008 5.8750000000000009 0.85000000000000009
decision_type=2 2 2 2 2 2 2 2 2 2 2 2 2
left_child=-1 2 3 -2 5 -4 7 -3 -5 10 -8 -6 -11
right_child=1 6 4 8 11 -7 9 -9 -10 12 -12 -13 -14
leaf_value=-0.033138984051052804 -0.028372908409946822 -0.016787016130026779 -0.025796916682589117 0.0093550600849449279 0.01473405962404468 0.0012581156041994639 0.014048205183157371 0.023448725183348437 0.016174262395566599 0.032943764232225448 0.026714377407928033 -0.0004330517879106091 0.026667062686800747
leaf_weight=203.37439208908472 5.6143192375311619 1.958576414734124 37.157468332457938 133.65720037206484 7.0893044606345921 6.873925482039339 15.412374548614023 2.6874685566872358 46.934545899974182 104.31884636357427 24.679308598861098 1.2258624215610323 49.498188853263855
leaf_count=55205 1321 36 16409 4700 133 558 139 16 935 260 102 27 159
internal_value=0 0.0154591 0.00413751 0.00986808 -0.0159938 -0.0215725 0.0289575 0.00598663 0.0112232 0.029459 0.0223785 0.0123695 0.0311286
internal_weight=640.482 437.107 238.553 186.206 52.3466 44.0314 198.555 4.64604 180.592 193.909 40.0917 8.31517 153.817
internal_count=80000 24795 24083 6956 17127 16967 712 52 5635 660 241 160 419
is_linear=0
shrinkage=0.03


Tree=36
num_leaves=11
num_cat=0
split_feature=9 50 4 15 50 69 7 73 0 7
split_gain=352.928 71.9397 29.3147 16.2445 6.52255 2.09184 2.9009 1.85382 1.31576 1.19013
threshold=0.30000000000000004 0.39687500000000003 1.0000000180025095e-35 1.0000000180025095e-35 0.36395000000000005 380.50000000000006 0.41676528599605533 0.45000000000000007 7.0500000000000007 0.36159907745531433
decision_type=2 2 2 2 2 2 2 2 2 2
left_child=-1 2 -2 7 -5 6 9 -4 -8 -3
right_child=1 5 3 4 -6 -7 8 -9 -10 -11
leaf_value=-0.032991781551698067 -0.031958304285663597 -0.015965970531578527 0.0089068811747287733 -0.016450181942743315 0.012476587050630636 0.035332794568855144 0.027612151377359916 0.016138939499375126 0.010165595177627171 0.012087496810925372
leaf_weight=198.7478369869059 17.778858290985227 1.4522188687697046 132.38579768284399 30.945407929793873 8.0723078682349279 45.277379110455513 141.04778600856662 47.194650021090638 6.1349333450198165 2.0526456795632839
leaf_count=55205 4226 33 4700 14069 153 80 562 935 22 15
internal_value=0 0.0152075 0.00401642 0.00708815 -0.0102284 0.0286022 0.0263405 0.010903 0.0269787 0
internal_weight=631.09 432.342 236.377 218.598 39.0177 195.965 150.688 179.58 147.183 3.50486
internal_count=80000 24795 24083 19857 14222 712 632 5635 584 48
is_linear=0
shrinkage=0.03


Tree=37
num_leaves=12
num_cat=0
split_feature=9 50 2 15 50 16 66 0 71 0 62
split_gain=340.052 69.358 29.0545 10.9005 11.7578 3.71092 3.01765 1.71383 1.22487 1.34526 1.20662
threshold=0.30000000000000004 0.41595000000000004 1.0000000180025095e-35 1.0000000180025095e-35 0.36395000000000005 0.29812500000000003 0.65000000000000002 8.8500000000000032 27.031250000000004 7.3500000000000005 0.41666666666666669
decision_type=2 2 2 2 2 2 2 2 2 2 2
left_child=-1 2 -2 7 -5 6 -3 -4 10 -10 -7
right_child=1 5 3 4 -6 8 -8 -9 9 -11 -12
leaf_value=-0.032851659891561677 -0.031856548701671032 -0.012215574470004818 0.011148843107889288 -0.016502121735300287 0.014521548459931257 0.012472935247425602 0.019528538979703993 -0.0050653494340490001 0.032516329079789824 0.01624139282010752 0.026670805537126752
leaf_weight=193.92309959884733 17.462319549871609 3.066455774009226 173.51431189134018 30.102023481966171 16.000493909727084 10.895225182175635 7.2691649310290813 5.2704534538497674 123.15888135321438 8.727762542665003 32.101211883127689
leaf_count=55205 4232 18 4815 14069 232 53 58 820 341 29 128
internal_value=0 0.0149417 0.00432854 0.00728016 -0.00559155 0.0287146 0.009599 0.0106287 0.0297663 0.0315922 0.0235065
internal_weight=621.491 427.568 242.35 224.887 46.1025 185.219 10.3356 178.785 174.883 131.887 42.9964
internal_count=80000 24795 24168 19936 14301 627 76 5635 551 370 181
is_linear=0
shrinkage=0.03


Tree=38
num_leaves=16
num_cat=0
split_feature=9 50 16 2 50 77 54 73 30 7 53 62 53 16 14
split_gain=330.246 70.5286 27.4011 9.66437 8.82182 2.42015 2.27216 2.1973 1.49528 0.984395 3.09519 0.876884 0.860759 0.506378 0.0750185
threshold=0.30000000000000004 0.39687500000000003 1.0000000180025095e-35 1.0000000180025095e-35 0.36395000000000005 16.500000000000004 0.35208333333333336 0.45000000000000007 0.52500000000000013 0.65043103448275874 0.62002873563218408 0.29166666666666669 0.55661904761904768 0.45062500000000011 0.50000000000000011
decision_type=2 2 2 2 2 2 2 2 2 2 2 2 2 2 2
left_child=-1 2 3 -2 5 -4 8 -5 12 10 -8 -10 -3 -6 -11
right_child=1 6 4 7 13 -7 9 -9 11 14 -12 -13 -14 -15 -16
leaf_value=-0.032724124979226325 -0.02768841399213607 0.016476101134123022 -0.024600280145422922 0.008061886683528724 0.0040772715280361594 -0.0024076445916054613 0.028143757980145276 0.015847881133799754 0.0093463435833366672 0.028412291021142747 0.0062118692758997085 0.027290831154877609 0.00053034785765783182 0.020671999930010485 0.035665289106493497
leaf_weight=190.22306434437633 5.2839263735804698 7.7734420988708717 35.108143544195627 130.99871092323883 5.6389802474295703 5.6511465941730412 42.749871460720897 47.260603672533762 4.8727735113352564 46.200951524078846 7.862189292907714 23.294792339205742 5.3882703930139542 2.4727040287107229 52.014059774577618
leaf_count=55205 1321 71 16409 4700 136 558 161 935 45 131 27 131 47 24 99
internal_value=0 0.0147735 0.00363974 0.00896806 -0.0160901 -0.0217265 0.0282755 0.0102198 0.0206678 0.0302161 0.0249813 0.0247163 0.0106583 0.0111787 0.0326044
internal_weight=612.794 422.571 232.414 183.543 48.871 40.7593 190.156 178.259 41.3293 148.827 50.6121 28.1676 13.1617 8.11168 98.215
internal_count=80000 24795 24083 6956 17127 16967 712 5635 294 418 188 176 118 160 230
is_linear=0
shrinkage=0.03


Tree=39
num_leaves=14
num_cat=0
split_feature=9 50 15 5 50 3 54 7 73 77 22 16 22
split_gain=320.255 71.4284 26.2525 9.23945 8.39612 2.64525 2.59306 2.33386 2.28965 1.7956 1.31589 0.549888 0.0907553
threshold=0.30000000000000004 0.39687500000000003 1.0000000180025095e-35 1.0000000180025095e-35 0.36395000000000005 2.9583333333333335 0.36041666666666666 0.41781438900082973 0.45000000000000007 16.500000000000004 0.41600000000000004 0.45062500000000011 0.51916666666666689
decision_type=2 2 2 2 2 2 2 2 2 2 2 2 2
left_child=-1 2 3 8 9 6 10 -7 -2 -4 -3 -6 -8
right_child=1 5 4 -5 11 7 12 -9 -10 -11 -12 -13 -14
leaf_value=-0.032597127085183801 0.0075891500830048636 0.0085758113514831855 -0.024210997027103814 -0.027501845353183757 0.0034002064060765563 -0.013706527072002721 0.025971457017950238 0.020168728269129913 0.015503326299922385 -0.004053517833913731 0.023781275180519194 0.02040241584158611 0.032587913379336267
leaf_weight=186.39698652573861 130.34905684096884 8.7281707897782308 34.512894673986011 5.2030730592086902 5.5552882441552338 2.2473931899294248 37.121876873075962 3.1833695024251938 47.374478486191947 5.4009128248289917 31.415256578475237 2.4453655099496245 104.23304107040167
leaf_count=55205 4700 89 16409 1321 136 38 135 15 935 558 190 24 245
internal_value=0 0.014587 0.00337745 0.00856971 -0.016154 0.0283222 0.0289466 0.00573225 0.0097905 -0.0217225 0.0208369 0.0106196 0.0310661
internal_weight=604.167 417.77 230.841 182.927 47.9145 186.929 181.498 5.43076 177.724 39.9138 40.1434 8.00065 141.355
internal_count=80000 24795 24083 6956 17127 712 659 53 5635 16967 279 160 380
is_linear=0
shrinkage=0.03


Tree=40
num_leaves=14
num_cat=0
split_feature=9 50 5 15 50 50 73 16 7 24 54 0 60
split_gain=310.06 70.0096 25.2952 13.678 5.86312 2.42894 2.32217 1.41034 1.52889 1.21639 0.727511 0.645318 0.552065
threshold=0.30000000000000004 0.39687500000000003 1.0000000180025095e-35 1.0000000180025095e-35 0.36395000000000005 0.45361041666666674 0.45000000000000007 0.29812500000000003 0.63341924398625449 0.94750000000000012 0.33124999999999999 7.3500000000000005 1.0000000180025095e-35
decision_type=2 2 2 2 2 2 2 2 2 2 2 2 2
left_child=-1 2 3 6 -5 9 -2 8 -7 10 -3 -9 -11
right_child=1 5 -4 4 -6 7 -8 11 -10 12 -12 -13 -14
leaf_value=-0.032480821417527748 0.0072966958079661399 -0.0069475134844504041 -0.031306898703308869 -0.017106081470831709 0.011094723029739538 -0.0020025326121524134 0.015266380921660608 0.030956644205439698 0.022700000480115261 0.011169714873120953 0.013367853390952778 0.017342042385727004 0.024929465656036258
leaf_weight=182.31427750119474 129.54806787526468 2.50019602198154 16.602323691826314 27.537529451779847 7.7492422309005624 3.0393940992653352 47.223769042466301 142.30657569691539 4.9958895295858383 7.7705510212108502 1.8363952748477457 8.6416997909545881 13.140562897548079
leaf_count=55205 4700 35 4226 14069 153 27 935 427 30 70 14 28 81
internal_value=0 0.0143859 0.00325089 0.00610479 -0.0106952 0.0280978 0.00951654 0.0295938 0.0138366 0.0177951 0.00198607 0.0303162 0.0206964
internal_weight=595.206 412.892 228.661 212.059 35.2868 184.231 176.772 158.984 8.03528 25.2477 4.33659 150.948 20.9111
internal_count=80000 24795 24083 19857 14222 712 5635 512 57 200 49 455 151
is_linear=0
shrinkage=0.03


Tree=41
num_leaves=24
num_cat=0
split_feature=50 73 37 35 2 15 4 56 24 5 24 62 50 15 0 22 22 69 73 30 55 52 69
split_gain=220.535 58.8152 37.4756 22.6696 9.33903 6.66334 6.50337 5.58026 4.41402 3.23501 3.20622 3.02106 2.28557 2.27728 1.77357 1.66797 0.744725 0.594257 0.544576 0.513664 0.23605 0.114671 0.0801278
threshold=0.39687500000000003 0.18333333333333338 0.36100000000000004 0.80500000000000016 1.0000000180025095e-35 1.0000000180025095e-35 0.37047930283224406 0.41047531806047982 0.62250000000000016 1.0000000180025095e-35 0.67250000000000021 0.41666666666666669 0.37442500000000006 1.0000000180025095e-35 8.6500000000000004 0.52575000000000005 0.73375000000000012 159.50000000000003 0.45000000000000007 0.8650000000000001 0.89130000000000009 0.56748274629454409 87.500000000000014
decision_type=2 2 2 2 2 2 2 2 2 2 2 2 2 2 2 2 2 2 2 2 2 2 2
left_child=1 2 3 8 -4 14 19 16 -1 -5 11 -9 17 -6 18 -12 20 -7 -3 22 -8 -16 -2
right_child=6 5 4 9 13 12 7 10 -10 -11 15 -13 -14 -15 21 -17 -18 -19 -20 -21 -22 -23 -24
leaf_value=-0.028639809565523405 0 0.008823632934893794 -0.028837601005230706 0.0045143166399591924 0.0081719459834125197 -0.015481858021718095 -0.020427372704094275 -0.023945078990467581 -0.010680575273143198 -0.024246027437718642 0.022991154749422468 0.018212333833560357 0.011559489736236762 -0.0072933396176113425 0 0.031424628206652316 0.0079380275341367299 0.0044577718865175045 0.015322660912397344 0.0039923677494952091 0 -0.0095968734720929452 -0.02221082322774539
leaf_weight=199.62350729211903 0.26983439573086787 26.697051841765642 7.0605273413239038 25.977725794924485 48.968001326837111 12.544278260211286 1.7520326459780333 1.4384754785569374 15.382379163616859 3.041922283708117 48.462974327150732 3.0711057409644127 3.1499478053301564 9.3276268849440367 1.7276384319411584 124.75580346072093 0.70745223015546788 0.8124589364742868 46.353794632479548 0.39392802864313115 0.45282879099249829 2.0656372125813505 1.7704948177561162
leaf_count=57431 26 662 1807 2323 1546 5721 257 244 3356 796 267 18 56 3673 169 381 5 55 878 5 5 222 97
internal_value=0 -0.0124077 -0.0186945 -0.0240792 0.00142514 0.00837335 0.027214 0.0278934 -0.0274242 0.000692394 0.0285785 0.00231503 -0.00843334 0.00556555 0.012084 0.0292278 -0.00976755 -0.013834 0.0131393 -0.0157744 -0.0170889 -0.00611338 -0.0206354
internal_weight=585.807 402.732 309.382 244.026 65.3562 93.3508 183.075 180.641 215.006 29.0196 177.728 4.50958 16.5067 58.2956 76.8441 173.219 2.91231 13.3567 73.0508 2.43426 2.20486 3.79328 2.04033
internal_count=80000 78695 70932 63906 7026 7763 1305 1177 60787 3119 910 262 5832 5219 1931 648 267 5776 1540 128 262 391 123
is_linear=0
shrinkage=0.03


Tree=42
num_leaves=24
num_cat=0
split_feature=50 73 35 7 2 15 71 81 50 15 50 16 71 68 7 73 69 7 22 2 2 15 40
split_gain=213.256 57.6315 28.4415 13.7734 6.86803 6.16176 6.0019 5.9694 2.93601 2.19196 2.08231 1.64995 1.56798 1.50985 1.11741 0.939959 0.586892 0.425718 1.1138 0.356353 0.240569 0.227489 0.102127
threshold=0.39687500000000003 0.18333333333333338 0.80500000000000016 0.55128205128205143 1.0000000180025095e-35 1.0000000180025095e-35 20.449494949494952 0.0037754653201559235 0.48019250000000008 1.0000000180025095e-35 0.37442500000000006 0.40312500000000012 27.297058823529415 0.60000000000000009 0.65649683448899621 0.45000000000000007 159.50000000000003 0.68508241758241772 0.53616666666666679 7.8750000000000009 7.6250000000000009 1.0000000180025095e-35 0.89550000000000007
decision_type=2 2 2 2 2 2 2 2 2 2 2 2 2 2 2 2 2 2 2 2 2 2 2
left_child=1 2 3 7 -4 15 14 -1 11 -6 16 12 -8 -13 22 19 -7 18 -10 -3 -17 -5 -2
right_child=6 5 4 21 9 10 8 -9 17 -11 -12 13 -14 -15 -16 20 -18 -19 -20 -21 -22 -23 -24
leaf_value=-0.017224679189392703 -0.022797351663946492 0.007996378408979269 -0.027644417313673269 0.00684655077789449 0.0080170415176223885 -0.014760100371227269 -0.0012134382506194673 -0.02793916865434613 0.016393516200589882 -0.0086760637494136868 0.011240433406151216 0.0067295540939711577 0.017882718233283135 0.027138315481902996 0.0093201419315311809 0.014997835009730339 0.0047643759061151356 0.032664296514108411 0.028884891602126758 -0.0036918638112973584 0 -0.0018027771463552784 0
leaf_weight=79.012723881845886 1.9441132990177719 28.287222995335473 5.4866142797982311 12.07282544323243 40.200187993235886 12.419242263611523 6.1404035519808513 158.35182634810917 14.881822291761635 7.5260628266187259 3.1139270067214957 5.1665002703666714 7.9134725816547871 23.358608449809253 0.73852354288101185 45.548833551176358 0.83068763220217157 76.549909524619579 43.348970960825682 1.6199877782491956 1.0643566250801075 2.3675093734273096 0.10404250025749195
leaf_count=17946 594 895 1445 456 1157 5721 70 45949 81 3026 56 32 78 110 4 885 55 191 144 101 50 953 1
internal_value=0 -0.0122581 -0.0185476 -0.0227445 0.00130988 0.00834159 0.0269934 -0.0244724 0.0276955 0.00519907 -0.007896 0.019649 0.0098136 0.0238966 -0.0124139 0.0119098 -0.0130771 0.030052 0.0260738 0.00716723 0.0146751 0.00520927 -0.0217216
internal_weight=578.048 397.902 305.018 251.805 53.2129 92.8843 180.146 237.365 177.36 47.7263 16.3639 42.579 14.0539 28.5251 2.78668 76.5204 13.2499 134.781 58.2308 29.9072 46.6132 14.4403 2.04816
internal_count=80000 78695 70932 65304 5628 7763 1305 63895 706 4183 5832 290 148 142 599 1931 5776 416 225 996 935 1409 595
is_linear=0
shrinkage=0.03


Tree=43
num_leaves=13
num_cat=0
split_feature=9 50 5 15 50 73 54 30 60 62 2 14
split_gain=288.064 62.6619 24.7123 7.9741 9.02621 1.70955 1.6761 1.71947 2.32197 0.864813 0.389017 0.7759
threshold=0.30000000000000004 0.41595000000000004 1.0000000180025095e-35 1.0000000180025095e-35 0.36395000000000005 0.45000000000000007 0.35208333333333336 0.44500000000000006 1.0000000180025095e-35 0.29166666666666669 7.2083333333333348 0.50000000000000011
decision_type=2 2 2 2 2 2 2 2 2 2 2 2
left_child=-1 2 3 5 -5 -2 7 8 -3 -9 11 -8
right_child=1 6 -4 4 -6 -7 10 9 -10 -11 -12 -13
leaf_value=-0.032227893059194532 0.0074609005135251177 -0.015072200178697632 -0.031045398599950303 -0.015576016479236328 0.012749122381795222 0.014435899328007174 0.026633438758083008 0.0079268899635838077 0.016630089169949472 0.026180978253445598 0.017684520727700853 0.034201310812091795
leaf_weight=172.84133734321222 127.07732947946351 2.2269800771027795 15.920906880055552 26.239338842504367 15.100768133474046 46.389716143254191 66.644485391676426 4.3590935990214374 4.8236501514911652 23.224454127252102 8.3394332528114301 57.491943024098873
leaf_count=55205 4700 29 4232 14069 232 935 237 33 37 128 25 138
internal_value=0 0.0140472 0.00386384 0.00659698 -0.00510178 0.00941545 0.0279827 0.0204273 0.00561573 0.0237794 0.0297677 0.0304077
internal_weight=570.679 397.838 230.728 214.807 41.3401 173.467 167.11 34.6342 7.05063 27.5835 132.476 124.136
internal_count=80000 24795 24168 19936 14301 5635 627 227 66 161 400 375
is_linear=0
shrinkage=0.03


Tree=44
num_leaves=12
num_cat=0
split_feature=9 50 5 15 50 77 73 7 22 24 56
split_gain=278.621 61.857 23.5985 7.27781 9.03393 1.93099 1.70194 1.01433 1.54483 0.916034 0.836877
threshold=0.30000000000000004 0.41595000000000004 1.0000000180025095e-35 1.0000000180025095e-35 0.36395000000000005 12.500000000000002 0.45000000000000007 0.65043103448275874 0.55525000000000013 0.7875000000000002 0.61431860619068901
decision_type=2 2 2 2 2 2 2 2 2 2 2
left_child=-1 2 3 6 -5 9 -2 8 -7 -3 -11
right_child=1 5 -4 4 -6 7 -8 -9 -10 10 -12
leaf_value=-0.032128887439772498 0.007085802495420645 0.00052448877094938347 -0.030839617094164728 -0.015584472004710852 0.012906377731171915 0.014544688188591783 0.014052422542925705 0.03128673023814698 0.027646087273337672 0.025331773655434538 0.0053318477136105845
leaf_weight=168.80540320673026 126.19204409602389 3.5683454647660247 15.543265744810922 25.651060786512971 15.030533919984007 16.966662377119064 46.044966196466703 97.078873950988054 36.945979064330459 6.3404034674167615 3.9989966154098511
leaf_count=55205 4700 25 4232 14069 232 109 935 289 141 31 32
internal_value=0 0.0138342 0.00367695 0.0063431 -0.00492895 0.0277816 0.00903591 0.0288499 0.0239176 0.0148242 0.0190133
internal_weight=562.167 393.361 228.462 212.919 40.6816 164.899 172.237 150.992 53.9126 13.9077 10.3394
internal_count=80000 24795 24168 19936 14301 627 5635 539 250 88 63
is_linear=0
shrinkage=0.03


Tree=45
num_leaves=26
num_cat=0
split_feature=50 73 37 35 2 56 8 15 3 5 73 24 62 50 15 50 19 73 22 77 2 2 50 62 59
split_gain=194.062 51.1453 34.1641 19.6174 8.326 6.16165 5.94031 4.91081 3.84163 2.71531 2.66876 2.60925 2.98811 1.79138 1.75523 1.11186 1.0005 0.992822 0.784606 0.486669 0.327521 0.168023 0.142677 0.100983 0.0111189
threshold=0.39687500000000003 0.18333333333333338 0.36100000000000004 0.80500000000000016 1.0000000180025095e-35 0.41047531806047982 0.70000000000000007 1.0000000180025095e-35 2.7916666666666674 1.0000000180025095e-35 0.29166666666666669 0.67250000000000021 0.41666666666666669 0.37442500000000006 1.0000000180025095e-35 0.45361041666666674 0.87500000000000011 0.45000000000000007 0.73375000000000012 15.500000000000002 7.8750000000000009 7.6250000000000009 0.40618749999999998 1.4166666666666667 0.29705882352941182
decision_type=2 2 2 2 2 2 2 2 2 2 2 2 2 2 2 2 2 2 2 2 2 2 2 2 2
left_child=1 2 3 6 -4 18 -1 17 11 -5 16 12 -7 19 -6 -13 -10 20 22 -9 -3 -19 24 -24 -2
right_child=5 7 4 9 14 8 -8 13 10 -11 -12 15 -14 -15 -16 -17 -18 21 -20 -21 -22 -23 23 -25 -26
leaf_value=-0.027558320987213343 0.0016011283117412273 0.0068896060210585199 -0.028146752296863545 0.0036774704646195446 0.0076943887884314572 -0.024282493391108377 0.0023355823988186969 -0.015665115902667139 -0.028241619073495577 -0.023419500795953379 0.018225495201536792 0.019409565402864346 0.018702263240309769 0.010656240650838559 -0.0061910236881490346 0.02974205322396755 0.0036359704799783445 0.014024740667475447 0.007191555848761173 -0.0014737881301657024 -0.004248413874230238 0 -0.022872492738742426 0 -0.0024120793646919664
leaf_weight=194.61346834184224 0.22274745255708683 27.358498645538933 6.5264263843419021 24.974536859743242 47.549570123956073 1.2707981490530063 5.8263703257980515 8.8709440590973809 1.5146676225122058 2.8157786601223043 2.8470328003168106 20.402304347604513 3.0164463594555855 3.0532088652253142 8.8315962910492072 139.0588068049401 0.82264043169561762 44.534034813288599 0.65913128852844227 3.7075267778418484 1.5937002393184219 1.1549728361424048 1.7504745475016532 0.20386474207043637 0.18120193877257407
leaf_count=60158 4 895 1807 2323 1546 190 629 5169 49 796 15 179 18 56 3673 455 89 885 5 607 101 50 235 4 62
internal_value=0 -0.0119261 -0.018032 -0.0234074 0.00148413 0.0263699 -0.0266672 0.00771481 0.0271445 0.000109654 0.000925379 0.0279458 0.00321075 -0.00711747 0.0053971 0.028568 -0.0183954 0.0109137 -0.0122136 -0.0121197 0.00605497 0.0137328 -0.0190569 -0.0213609 0
internal_weight=553.361 381.411 291.138 228.23 62.9076 171.95 200.44 90.2729 168.933 27.7903 5.18434 163.748 4.28724 15.6317 56.3812 159.461 2.33731 74.6412 3.01742 12.5785 28.9522 45.689 2.35829 1.95434 0.403949
internal_count=80000 78695 70932 63906 7026 1305 60787 7763 995 3119 153 842 208 5832 5219 634 138 1931 310 5776 996 935 305 239 66
is_linear=0
shrinkage=0.03


Tree=46
num_leaves=24
num_cat=0
split_feature=50 73 37 35 2 7 7 56 15 50 47 24 50 15 0 0 22 73 77 8 50 48 3
split_gain=186.687 49.6537 33.1743 18.8377 8.06774 7.66608 5.4895 4.98268 4.53724 3.04276 2.62367 2.1523 1.6571 1.62085 1.41264 1.07139 0.715994 0.509988 0.47656 0.210619 0.138742 0.115611 0.0913602
threshold=0.39687500000000003 0.18333333333333338 0.36100000000000004 0.80500000000000016 1.0000000180025095e-35 0.55128205128205143 0.37016949152542383 0.41047531806047982 1.0000000180025095e-35 0.45361041666666674 1.0000000180025095e-35 0.94750000000000012 0.37442500000000006 1.0000000180025095e-35 8.6500000000000004 7.3500000000000005 0.73375000000000012 0.45000000000000007 15.500000000000002 0.70000000000000007 0.40618749999999998 0.65342465753424672 2.9583333333333335
decision_type=2 2 2 2 2 2 2 2 2 2 2 2 2 2 2 2 2 2 2 2 2 2 2
left_child=1 2 3 5 -4 -1 21 16 14 11 -5 -9 18 -6 17 -11 20 -3 -10 -16 -8 -2 -23
right_child=6 8 4 10 13 -7 7 9 12 15 -12 -13 -14 -15 19 -17 -18 -19 -20 -21 -22 22 -24
leaf_value=-0.02754710275176386 0 0.0075409238663292954 -0.027987640157849363 0.0035095719860572211 0.0075123239561122913 0.0036845745069175296 0 -0.0025919522077206495 -0.015133647111075539 0.029759055037873915 -0.023270493392184472 0.01989976771258814 0.010434322954934933 -0.005876470450416507 -0.0099830747487208785 0.014139906550173569 0.0074539596646329663 0.013839623574088245 -0.0011676239049201659 0.001116811691592241 -0.020190339392453072 0 -0.021808102043385898
leaf_weight=190.16583955306123 0.27263435849454243 25.416707288473845 6.3956960089271879 24.705919518863087 47.266247864754405 6.9402312399033681 0.34397980512585435 4.2267388520995182 8.6746394432411744 134.69066728535108 2.7758502374636 18.313684720546007 3.0120950527489176 8.7573221155180345 2.1633831411600104 7.6106061451137057 0.65109145268797863 44.701687281951308 3.7068495503699515 1.8342221656348559 1.6183321336284278 0.21608302346430619 1.2899230661569161
leaf_count=60025 22 662 1807 2323 1546 762 53 239 5169 469 796 137 56 3673 239 67 5 878 607 152 204 20 89
internal_value=0 -0.0117609 -0.0178336 -0.0231903 0.00145484 -0.0264192 0.0260815 0.026672 0.00765931 0.0273367 0 0.0156238 -0.00671268 0.00530049 0.0107339 0.0290491 -0.0103868 0.0117368 -0.0115763 -0.00508544 -0.0178371 -0.0180252 -0.0200443
internal_weight=545.75 376.517 287.007 224.588 62.4193 197.106 169.234 167.455 89.5096 164.842 27.4818 22.5404 15.3936 56.0236 74.116 142.301 2.6134 70.1184 12.3815 3.99761 1.96231 1.77864 1.50601
internal_count=80000 78695 70932 63906 7026 60787 1305 1174 7763 912 3119 376 5832 5219 1931 536 262 1540 5776 391 257 131 109
is_linear=0
shrinkage=0.03


Tree=47
num_leaves=13
num_cat=0
split_feature=9 50 5 15 50 54 68 22 0 0 62 69
split_gain=257.073 55.6785 21.7414 5.73042 7.85766 2.077 2.31761 2.33503 1.53389 1.45954 0.648588 0.613917
threshold=0.30000000000000004 0.41595000000000004 1.0000000180025095e-35 1.0000000180025095e-35 0.36395000000000005 0.36041666666666666 0.85000000000000009 0.61712500000000003 8.8500000000000032 7.3500000000000005 0.58333333333333337 296.50000000000006
decision_type=2 2 2 2 2 2 2 2 2 2 2 2
left_child=-1 2 3 8 -5 6 10 -8 -2 11 -3 -7
right_child=1 5 -4 4 -6 9 7 -9 -10 -11 -12 -13
leaf_value=-0.031909499047218501 0.0091891776561314996 0.013839161285539843 -0.030451561607476405 -0.014148063930022756 0.012901227819713462 0.026770751734967103 -0.007216935372926842 0.017940147982074689 -0.0056587533325796685 0.012710468674151959 0.02885131488604924 0.034420248239467002
leaf_weight=158.95005232351832 162.42802472680341 8.090412253513934 14.61751000327058 24.602719822156359 14.498886424844384 72.530247481539845 5.0975890345871431 6.3241173643618822 5.6226016639557193 7.3969003632664672 14.731590703129767 43.340909529477358
leaf_count=55205 4815 60 4232 14069 232 279 51 40 820 27 84 86
internal_value=0 0.0134214 0.00368291 0.00624072 -0.00397177 0.0270042 0.0190125 0.00679374 0.00864412 0.0290293 0.0244598 0.0299277
internal_weight=538.232 379.282 221.77 207.152 39.1016 157.512 34.2437 11.4217 168.051 123.268 22.822 115.871
internal_count=80000 24795 24168 19936 14301 627 235 91 5635 392 144 365
is_linear=0
shrinkage=0.03


Tree=48
num_leaves=21
num_cat=0
split_feature=62 73 37 35 2 8 4 54 16 16 47 69 0 0 4 54 22 48 69 21
split_gain=170.077 51.6417 34.588 17.1704 7.97609 6.12395 2.85613 2.58638 4.95981 2.42434 2.34956 1.73783 1.61804 1.31875 1.1925 1.04487 0.870416 0.984179 0.32993 0.307443
threshold=0.29166666666666669 0.18333333333333338 0.36100000000000004 0.80500000000000016 1.0000000180025095e-35 0.70000000000000007 0.43881221553369554 0.35208333333333336 1.0000000180025095e-35 0.31937500000000008 1.0000000180025095e-35 99.500000000000014 7.3500000000000005 8.6500000000000004 0.37047930283224406 0.43541666666666673 0.41725000000000007 0.92739726027397273 296.50000000000006 0.55000000000000016
decision_type=2 2 2 2 2 2 2 2 2 2 2 2 2 2 2 2 2 2 2 2
left_child=1 2 3 5 -4 -1 14 8 13 16 -5 -10 18 -3 -2 -6 17 -8 -11 -18
right_child=6 7 4 10 15 -7 9 -9 11 12 -12 -13 -14 -15 -16 -17 19 -19 -20 -21
leaf_value=-0.026866545045291363 -0.016790137597767273 0.011117547308286258 -0.027858862649982427 0.0027529177013668887 0.0044652399882226558 0.003182033840957854 -0.012976873847828389 0.025887567771858844 -0.01500994202606443 0.026861704154854726 -0.022888883828026632 0.0056345322543898445 0.012158663168635191 -0.0051902771437483761 0.01327348468901981 0.022651043381181526 0.0036822770524047492 0.010222469572255252 0.033575710729639274 0.022452443763129801
leaf_weight=186.22302836037852 1.4264336443739005 68.741986077278852 6.1878157233586526 24.63044382779481 57.181247887085192 5.9192937245024941 1.5467014750465748 6.3701823800802222 10.131979572906856 84.415887700626627 2.6729651610366991 4.5738746246497604 7.7162261679768553 3.9452190061419961 1.2911382503807542 2.2006891397759309 1.9047313765622673 3.5415567398085823 44.163810979574919 4.9294895008206367
leaf_count=60752 44 1540 1803 2315 5187 628 32 57 5268 437 796 446 30 391 16 9 50 76 94 29
internal_value=0 -0.0107317 -0.0170742 -0.0227654 0.0019836 -0.0259136 0.026825 0.00849279 0.0069124 0.0273827 -0.000371389 -0.00844807 0.0285719 0.0101333 -0.00197139 0.00555286 0.0123974 0.00170454 0.0294323 0.0187418
internal_weight=529.715 378.779 285.015 219.446 65.5698 192.142 150.936 93.7632 87.3931 148.218 27.3034 14.7059 136.296 72.6872 2.71757 59.3819 11.9225 5.08826 128.58 6.83422
internal_count=80000 79192 71490 64491 6999 61380 808 7702 7645 748 3111 5714 561 1931 60 5196 187 108 531 79
is_linear=0
shrinkage=0.03


Tree=49
num_leaves=13
num_cat=0
split_feature=9 54 4 15 21 7 8 69 7 73 30 21
split_gain=243.553 53.1992 20.2923 4.1354 7.43456 3.49466 2.5085 2.12372 3.35866 1.11319 0.70754 0.352886
threshold=0.30000000000000004 0.29583333333333334 1.0000000180025095e-35 1.0000000180025095e-35 0.15000000000000005 0.42444334487877294 0.40000000000000008 98.500000000000014 0.67927055702917793 0.45000000000000007 0.29500000000000004 0.65000000000000002
decision_type=2 2 2 2 2 2 2 2 2 2 2 2
left_child=-1 2 -2 9 -5 6 11 8 -7 -4 -9 -3
right_child=1 5 3 4 -6 7 -8 10 -10 -11 -12 -13
leaf_value=-0.031770794292136931 -0.030154140855638355 -0.026727045554045377 0.0066140115705394372 -0.011363092212940322 0.014870642037901231 -0.0054197874262667698 0.018402891378117524 0.011889117249722237 0.026161177579499914 0.012456250566520758 0.029134467915117479 0
leaf_weight=152.57338954042643 13.855888053891247 1.275064712041057 121.40106265778741 27.142557088307512 13.825349816892411 4.7711245873360877 1.8241911231307311 4.6900613197358316 5.704759210231714 43.755566115956753 131.14715347328456 0.5145994797348975
leaf_count=55205 4193 83 4700 13856 184 114 27 65 73 935 557 8
internal_value=0 0.0131546 0.00370964 0.00613508 -0.00229518 0.0268765 -0.00117527 0.027593 0.0122976 0.00824552 0.0286522 -0.0216499
internal_weight=522.481 369.907 219.98 206.125 40.9679 149.927 3.61386 146.313 10.4759 165.157 135.837 1.78966
internal_count=80000 24795 23868 19675 14040 927 118 809 187 5635 622 91
is_linear=0
shrinkage=0.03


Tree=50
num_leaves=13
num_cat=0
split_feature=9 54 5 16 21 4 24 22 56 73 4 4
split_gain=235.728 51.8135 19.5615 3.68676 7.17789 2.93758 1.81011 1.67233 1.09773 1.08324 0.904839 0.136362
threshold=0.30000000000000004 0.29583333333333334 1.0000000180025095e-35 1.0000000180025095e-35 0.15000000000000005 0.43881221553369554 0.67250000000000021 0.61550000000000005 0.42332885577442431 0.45000000000000007 0.36637442370191226 0.15415884928080054
decision_type=2 2 2 2 2 2 2 2 2 2 2 2
left_child=-1 2 3 9 -5 10 7 -7 -8 -2 11 -3
right_child=1 5 -4 4 -6 6 8 -9 -10 -11 -12 -13
leaf_value=-0.031692327393595732 0.006368524045760179 -0.0194673594326897 -0.030018753214510779 -0.011064824322754267 0.014850672387966269 0.01701977255208199 0.0060746393170223812 -0.018034801289441557 0.02811847466094242 0.012155463346112829 0.011262817369639133 -0.00032090750445633304
leaf_weight=148.89000926096924 120.32785151840653 0.66972095274832033 13.539243032922966 26.646615910241962 13.722572608749031 1.9208716778084629 3.0563776936614877 1.088792228954844 138.74218112864764 43.246038716635667 1.4557111434405667 0.88575602590572089
leaf_count=55205 4700 53 4193 13856 184 53 84 10 657 935 27 43
internal_value=0 0.0129684 0.00360119 0.00598335 -0.0020369 0.0266132 0.0272208 0.00225496 0.0277102 0.00798128 -0.00135919 -0.0141305
internal_weight=514.192 365.302 217.482 203.943 40.3692 147.819 144.808 3.00966 141.799 163.574 3.01119 1.55548
internal_count=80000 24795 23868 19675 14040 927 804 63 741 5635 123 96
is_linear=0
shrinkage=0.03


Tree=51
num_leaves=11
num_cat=0
split_feature=9 50 2 16 50 0 16 62 0 22
split_gain=228.424 52.5103 18.8565 4.39756 5.76002 1.90877 1.8149 1.58347 1.43933 1.09542
threshold=0.30000000000000004 0.41595000000000004 1.0000000180025095e-35 1.0000000180025095e-35 0.36395000000000005 7.3500000000000005 0.32750000000000007 0.41666666666666669 8.8500000000000032 0.65333333333333343
decision_type=2 2 2 2 2 2 2 2 2 2
left_child=-1 2 -2 8 -5 6 9 -8 -4 -3
right_child=1 5 3 4 -6 -7 7 -9 -10 -11
leaf_value=-0.031617448837256555 -0.02994158873633105 0.0042946772317520249 0.0082563711488237729 -0.012590079812249071 0.01114739332317043 0.00927168753162207 0.017257593571849965 0.029885868779082274 -0.006131624250162465 0.022621087366306501
leaf_weight=145.38227150728926 13.414196365629321 6.7714561223983747 156.3775853899424 23.256951094299438 13.78216207801597 7.4122564233839503 16.350696973502636 111.38981481082737 5.5848808653972801 6.1955164726823568
leaf_count=55205 4232 73 4815 14069 232 30 95 393 820 36
internal_value=0 0.0128016 0.00318999 0.00557684 -0.00361771 0.0264515 0.0272635 0.0284394 0.00770725 0.0142584
internal_weight=505.918 360.536 212.416 199.002 37.0391 148.12 140.707 127.741 161.962 12.967
internal_count=80000 24795 24168 19936 14301 627 597 488 5635 109
is_linear=0
shrinkage=0.03


Tree=52
num_leaves=24
num_cat=0
split_feature=50 73 35 7 10 2 7 56 50 16 69 0 0 16 50 22 73 77 8 21 55 25 25
split_gain=157.386 39.5344 19.759 11.3536 6.01552 4.67904 4.64406 4.39605 3.03029 2.99644 1.7559 1.377 1.23183 1.08245 1.04225 0.644427 0.432786 0.396344 0.239731 0.128347 0.113827 0.10321 0.083428
threshold=0.39687500000000003 0.18333333333333338 0.80500000000000016 0.55128205128205143 0.93750000000000011 1.0000000180025095e-35 0.37016949152542383 0.41047531806047982 0.45361041666666674 1.0000000180025095e-35 94.500000000000014 7.3500000000000005 8.6500000000000004 1.0000000180025095e-35 0.37442500000000006 0.73375000000000012 0.45000000000000007 15.500000000000002 0.70000000000000007 0.55000000000000016 0.89130000000000009 0.69350000000000012 0.38850000000000001
decision_type=2 2 2 2 2 2 2 2 2 2 2 2 2 2 2 2 2 2 2 2 2 2 2
left_child=1 2 3 4 -1 -4 21 15 10 12 -9 -10 16 -7 17 20 -3 -11 -14 -5 -8 22 -2
right_child=6 9 5 19 -6 13 7 8 11 14 -12 -13 18 -15 -16 -17 -18 -19 -20 -21 -22 -23 -24
leaf_value=-0.028176182311483205 0 0.0061425804134776661 -0.025867046795715713 0.0032357608132464444 -0.017145536507121605 0.0056363433688780672 -0.020112629244222684 -0.0081042301579114049 0.028839157244871631 -0.013087563436874743 0.017165006363508241 0.011878911056362549 -0.010898991391155629 -0.0066095717660665512 0.0083456025032675012 0.0066848827542610647 0.012027179582031474 -0.00011264300223123358 0.0010354663584741383 0.013868234449195807 0 0 -0.020713815965948058
leaf_weight=100.14653155309497 0.22988681332208116 24.154584578238428 4.4664800415048367 13.149219274964704 97.457274731561483 36.502655185759068 1.4487297419691452 2.0548171713016954 122.53804839588702 7.9089377488999144 19.182152352645062 7.0974202202633014 2.11400571973354 6.7726217849849482 2.727412521839141 0.60275645181536663 41.658738557249308 3.4255055104222265 1.8635601878631862 0.61416344717145044 0.2948918230831622 0.256006609648466 1.1362717128358779
leaf_count=36020 13 662 1445 1407 27875 1157 252 124 469 5169 252 67 239 3026 56 5 878 607 152 2 5 7 111
internal_value=0 -0.0113316 -0.017113 -0.0210336 -0.0228647 0.000258555 0.0250104 0.0255802 0.0262299 0.00648909 0.0143306 0.0280316 0.00903512 0.00354609 -0.00570894 -0.0106527 0.0100366 -0.00973654 -0.0056201 0.00482065 -0.0179917 -0.0168966 -0.0188585
internal_weight=497.803 342.962 259.109 211.367 197.604 47.7418 154.841 153.219 150.872 83.8527 21.237 129.635 69.7909 43.2753 14.0619 2.34638 65.8133 11.3344 3.97757 13.7634 1.74362 1.62217 1.36616
internal_count=80000 78695 70932 65304 63895 5628 1305 1174 912 7763 376 536 1931 4183 5832 262 1540 5776 391 1409 257 131 124
is_linear=0
shrinkage=0.03


Tree=53
num_leaves=13
num_cat=0
split_feature=9 50 2 15 54 54 30 60 0 0 14 14
split_gain=217.161 48.6989 17.9743 3.73812 6.04676 1.96518 1.88617 2.33116 1.69351 1.33324 1.21044 0.976767
threshold=0.30000000000000004 0.41595000000000004 1.0000000180025095e-35 1.0000000180025095e-35 0.40625000000000006 0.36041666666666666 0.42500000000000004 1.0000000180025095e-35 7.3500000000000005 8.8500000000000032 0.50000000000000011 0.50000000000000011
decision_type=2 2 2 2 2 2 2 2 2 2 2 2
left_child=-1 2 -2 9 -5 6 7 -3 11 -4 -8 -7
right_child=1 5 3 4 -6 8 10 -9 -10 -11 -12 -13
leaf_value=-0.031510054693782548 -0.029731595555586819 -0.01844229674327259 0.0080848914604745303 -0.0081697660225519744 0.024705499645243323 0.02470768660696877 0.0257586240920934 0.014600658006416467 0.010649067457184505 -0.0058450431849213832 0.0090847493461026444 0.03310752133880758
leaf_weight=139.697951778071 12.889838578528723 2.0714924950152662 153.41664591079461 31.095063315260631 4.9605827851919448 55.070960970595479 17.895246120169762 4.0795372165739536 6.8662192933261386 5.5064657197654006 7.6821926031261674 50.035047490149736
leaf_count=55205 4232 29 4815 14252 49 229 114 35 27 820 57 136
internal_value=0 0.0125745 0.00323885 0.00557439 -0.00302113 0.0259426 0.0179083 0.00203037 0.0280139 0.00754995 0.0213938 0.029009
internal_weight=491.267 351.569 207.869 194.979 36.0556 143.701 31.7285 6.15103 111.972 158.923 25.5774 105.106
internal_count=80000 24795 24168 19936 14301 627 235 64 392 5635 171 365
is_linear=0
shrinkage=0.03


Tree=54
num_leaves=13
num_cat=0
split_feature=9 50 2 15 54 7 53 38 7 0 0 50
split_gain=210.153 48.2317 17.2513 3.47512 5.79925 2.08933 3.42153 1.89364 1.59836 1.26362 0.544068 0.729182
threshold=0.30000000000000004 0.41595000000000004 1.0000000180025095e-35 1.0000000180025095e-35 0.40625000000000006 0.68508241758241772 0.60038720992984362 0.75500000000000012 0.43711274353241786 8.8500000000000032 7.0500000000000007 0.48019250000000008
decision_type=2 2 2 2 2 2 2 2 2 2 2 2
left_child=-1 2 -2 9 -5 6 8 -8 -3 -4 11 -7
right_child=1 5 3 4 -6 10 7 -9 -10 -11 -12 -13
leaf_value=-0.031442226939376955 -0.029606666785105901 0.0029815673338048467 0.007774568850620992 -0.0081011397343494513 0.02423837487765312 0.019942345519974924 0.016992040151595021 -0.0024319239741118002 0.026323153105240939 -0.0058049359061348848 0.015875269024080867 0.032586180636956147
leaf_weight=136.24685455369763 12.597687055240383 3.3985156845301381 151.9279006900033 30.631007020368997 4.9132865917636073 12.628118401393293 8.6031609885394591 7.6729758270084849 45.845255706459284 5.4791072193038408 6.7826430276036254 56.903910472989082
leaf_count=55205 4232 44 4815 14252 49 79 43 40 225 820 24 172
internal_value=0 0.0123868 0.00304933 0.00533855 -0.00300782 0.0257816 0.0209158 0.00805072 0.0248634 0.00724929 0.0295959 0.0306477
internal_weight=483.63 347.384 205.549 192.951 35.5443 141.835 65.5199 16.2761 49.2438 157.407 76.3147 69.532
internal_count=80000 24795 24168 19936 14301 627 352 83 269 5635 275 251
is_linear=0
shrinkage=0.03


Tree=55
num_leaves=13
num_cat=0
split_feature=9 50 2 15 54 54 62 56 0 0 14 17
split_gain=203.617 46.7717 16.6841 3.24055 5.54117 2.57574 2.21893 1.96157 1.35222 1.13456 1.02542 0.851826
threshold=0.30000000000000004 0.41595000000000004 1.0000000180025095e-35 1.0000000180025095e-35 0.40625000000000006 0.35208333333333336 0.29166666666666669 0.48255200586442987 7.3500000000000005 8.8500000000000032 0.50000000000000011 0.37500000000000006
decision_type=2 2 2 2 2 2 2 2 2 2 2 2
left_child=-1 2 -2 9 -5 6 11 -8 10 -4 -7 -3
right_child=1 5 3 4 -6 8 7 -9 -10 -11 -12 -13
leaf_value=-0.031378489928357255 -0.029486369844976497 0.0091961535390026432 0.0075878662744769468 -0.0079512501564878817 0.023899651595392556 0.024381732642185409 -0.0019324945831642587 0.022913156724761994 0.011407729764506883 -0.005257620974188415 0.032948766579618809 -0.011512325156717828
